{
    "structure_edges": [
        [-1, 0, 1],
        [0, 1, 1],
        [1, 2, 1],
        [0, 3, 1],
        [3, 4, 1],
        [-1, 5, 1],
        [5, 6, 1],
        [6, 7, 1],
        [5, 8, 1],
        [8, 9, 1],
        [-1, 10, 1],
        [10, 11, 1],
        [11, 12, 1],
        [10, 13, 1],
        [13, 14, 1],
        [-1, 15, 1],
        [15, 16, 1],
        [16, 17, 1],
        [15, 18, 1],
        [18, 19, 1],
        [-1, 20, 1],
        [20, 21, 1],
        [21, 22, 1],
        [20, 23, 1],
        [23, 24, 1],
        [-1, 25, 1],
        [25, 26, 1],
        [26, 27, 1],
        [25, 28, 1],
        [28, 29, 1],
        [-1, 30, 1],
        [30, 31, 1],
        [31, 32, 1],
        [30, 33, 1],
        [33, 34, 1],
        [-1, 35, 1],
        [35, 36, 1],
        [36, 37, 1],
        [35, 38, 1],
        [38, 39, 1]
    ],
    "structure_weights": {
        "mu": [
            -2.5, -1.25, 0.0, -1.25, -1.25, 0.0, 0.0, 0.0, 0.0, 2.0,
            -0.8333333333333335, -1.0999999999999999, 0.0, 0.0, 0.0, 0.0, 0.0,
            0.0, -2.5, -0.5, -1.25, -1.25, -1.25, 0.0, 0.0, 0.0, 0.0, -2.0,
            -0.8333333333333335, -1.0999999999999999, 0.0, 0.0, 0.0, 0.0, 0.0,
            0.0, -2.5, -0.5, -1.25, -1.25, -1.25, 0.0, 0.0, 0.0, 0.0, -1.875,
            -1.25, 0.0, -0.625, -1.25, 0.0, 0.0, 0.0, 0.0, -2.375,
            -0.8333333333333335, -1.0999999999999999, 0.0, 0.0, 0.0, 0.0, 0.0,
            0.0, -1.875, -0.5, -1.25, -0.625, -1.25, 0.0, 0.0, 0.0, 0.0, -1.375,
            -0.8333333333333335, -1.0999999999999999, 0.0, 0.0, 0.0, 0.0, 0.0,
            0.0, -1.875, -0.5, -1.25, -0.625, -1.25, 0.0, 0.0, 0.0, 0.0, -1.25,
            -1.25, 0.0, 0.0, -1.25, 0.0, 0.0, 0.0, 0.0, -1.75,
            -0.8333333333333335, -1.0999999999999999, 0.0, 0.0, 0.0, 0.0, 0.0,
            0.0, -1.25, -0.5, -1.25, 0.0, -1.25, 0.0, 0.0, 0.0, 0.0, -0.75,
            -0.8333333333333335, -1.0999999999999999, 0.0, 0.0, 0.0, 0.0, 0.0,
            0.0, -1.25, -0.5, -1.25, 0.0, -1.25, 0.0, 0.0, 0.0, 0.0, -0.625,
            -1.25, 0.0, 0.625, -1.25, 0.0, 0.0, 0.0, 0.0, -1.125,
            -0.8333333333333335, -1.0999999999999999, 0.0, 0.0, 0.0, 0.0, 0.0,
            0.0, -0.625, -0.5, -1.25, 0.625, -1.25, 0.0, 0.0, 0.0, 0.0, -0.125,
            -0.8333333333333335, -1.0999999999999999, 0.0, 0.0, 0.0, 0.0, 0.0,
            0.0, -0.625, -0.5, -1.25, 0.625, -1.25, 0.0, 0.0, 0.0, 0.0, 0.0,
            -1.25, 0.0, 1.25, -1.25, 0.0, 0.0, 0.0, 0.0, -0.5,
            -0.8333333333333335, -1.0999999999999999, 0.0, 0.0, 0.0, 0.0, 0.0,
            0.0, 0.0, -0.5, -1.25, 1.25, -1.25, 0.0, 0.0, 0.0, 0.0, 0.5,
            -0.8333333333333335, -1.0999999999999999, 0.0, 0.0, 0.0, 0.0, 0.0,
            0.0, 0.0, -0.5, -1.25, 1.25, -1.25, 0.0, 0.0, 0.0, 0.0, 0.625,
            -1.25, 0.0, 1.875, -1.25, 0.0, 0.0, 0.0, 0.0, 0.125,
            -0.8333333333333335, -1.0999999999999999, 0.0, 0.0, 0.0, 0.0, 0.0,
            0.0, 0.625, -0.5, -1.25, 1.875, -1.25, 0.0, 0.0, 0.0, 0.0, 1.125,
            -0.8333333333333335, -1.0999999999999999, 0.0, 0.0, 0.0, 0.0, 0.0,
            0.0, 0.625, -0.5, -1.25, 1.875, -1.25, 0.0, 0.0, 0.0, 0.0, 1.25,
            -1.25, 0.0, 2.5, -1.25, 0.0, 0.0, 0.0, 0.0, 0.75,
            -0.8333333333333335, -1.0999999999999999, 0.0, 0.0, 0.0, 0.0, 0.0,
            0.0, 1.25, -0.5, -1.25, 2.5, -1.25, 0.0, 0.0, 0.0, 0.0, 1.75,
            -0.8333333333333335, -1.0999999999999999, 0.0, 0.0, 0.0, 0.0, 0.0,
            0.0, 1.25, -0.5, -1.25, 2.5, -1.25, 0.0, 0.0, 0.0, 0.0, 1.875,
            -1.25, 0.0, 3.125, -1.25, 0.0, 0.0, 0.0, 0.0, 1.375,
            -0.8333333333333335, -1.0999999999999999, 0.0, 0.0, 0.0, 0.0, 0.0,
            0.0, 1.875, -0.5, -1.25, -1.875, -1.25, 0.0, 0.0, 0.0, 0.0, 2.375,
            -0.8333333333333335, -1.0999999999999999, 0.0, 0.0, 0.0, 0.0, 0.0,
            0.0, 1.875, -0.5, -1.25, -1.875, -1.25, 0.0, 0.0, 0.0, 0.0
        ],
        "sigma": [
            0.1, 0.1, 0.1, 0.1, 0.1, 0.1, 0.1, 0.1, 0.1, 0.1, 0.1, 0.1, 0.1,
            0.1, 0.1, 0.1, 0.1, 0.1, 0.1, 0.1, 0.1, 0.1, 0.1, 0.1, 0.1, 0.1,
            0.1, 0.1, 0.1, 0.1, 0.1, 0.1, 0.1, 0.1, 0.1, 0.1, 0.1, 0.1, 0.1,
            0.1, 0.1, 0.1, 0.1, 0.1, 0.1, 0.1, 0.1, 0.1, 0.1, 0.1, 0.1, 0.1,
            0.1, 0.1, 0.1, 0.1, 0.1, 0.1, 0.1, 0.1, 0.1, 0.1, 0.1, 0.1, 0.1,
            0.1, 0.1, 0.1, 0.1, 0.1, 0.1, 0.1, 0.1, 0.1, 0.1, 0.1, 0.1, 0.1,
            0.1, 0.1, 0.1, 0.1, 0.1, 0.1, 0.1, 0.1, 0.1, 0.1, 0.1, 0.1, 0.1,
            0.1, 0.1, 0.1, 0.1, 0.1, 0.1, 0.1, 0.1, 0.1, 0.1, 0.1, 0.1, 0.1,
            0.1, 0.1, 0.1, 0.1, 0.1, 0.1, 0.1, 0.1, 0.1, 0.1, 0.1, 0.1, 0.1,
            0.1, 0.1, 0.1, 0.1, 0.1, 0.1, 0.1, 0.1, 0.1, 0.1, 0.1, 0.1, 0.1,
            0.1, 0.1, 0.1, 0.1, 0.1, 0.1, 0.1, 0.1, 0.1, 0.1, 0.1, 0.1, 0.1,
            0.1, 0.1, 0.1, 0.1, 0.1, 0.1, 0.1, 0.1, 0.1, 0.1, 0.1, 0.1, 0.1,
            0.1, 0.1, 0.1, 0.1, 0.1, 0.1, 0.1, 0.1, 0.1, 0.1, 0.1, 0.1, 0.1,
            0.1, 0.1, 0.1, 0.1, 0.1, 0.1, 0.1, 0.1, 0.1, 0.1, 0.1, 0.1, 0.1,
            0.1, 0.1, 0.1, 0.1, 0.1, 0.1, 0.1, 0.1, 0.1, 0.1, 0.1, 0.1, 0.1,
            0.1, 0.1, 0.1, 0.1, 0.1, 0.1, 0.1, 0.1, 0.1, 0.1, 0.1, 0.1, 0.1,
            0.1, 0.1, 0.1, 0.1, 0.1, 0.1, 0.1, 0.1, 0.1, 0.1, 0.1, 0.1, 0.1,
            0.1, 0.1, 0.1, 0.1, 0.1, 0.1, 0.1, 0.1, 0.1, 0.1, 0.1, 0.1, 0.1,
            0.1, 0.1, 0.1, 0.1, 0.1, 0.1, 0.1, 0.1, 0.1, 0.1, 0.1, 0.1, 0.1,
            0.1, 0.1, 0.1, 0.1, 0.1, 0.1, 0.1, 0.1, 0.1, 0.1, 0.1, 0.1, 0.1,
            0.1, 0.1, 0.1, 0.1, 0.1, 0.1, 0.1, 0.1, 0.1, 0.1, 0.1, 0.1, 0.1,
            0.1, 0.1, 0.1, 0.1, 0.1, 0.1, 0.1, 0.1, 0.1, 0.1, 0.1, 0.1, 0.1,
            0.1, 0.1, 0.1, 0.1, 0.1, 0.1, 0.1, 0.1, 0.1, 0.1, 0.1, 0.1, 0.1,
            0.1, 0.1, 0.1, 0.1, 0.1, 0.1, 0.1, 0.1, 0.1, 0.1, 0.1, 0.1, 0.1,
            0.1, 0.1, 0.1, 0.1, 0.1, 0.1, 0.1, 0.1, 0.1, 0.1, 0.1, 0.1, 0.1,
            0.1, 0.1, 0.1, 0.1, 0.1, 0.1, 0.1, 0.1, 0.1, 0.1, 0.1, 0.1, 0.1,
            0.1, 0.1, 0.1, 0.1, 0.1, 0.1, 0.1, 0.1, 0.1, 0.1, 0.1, 0.1, 0.1,
            0.1, 0.1, 0.1, 0.1, 0.1, 0.1, 0.1, 0.1, 0.1
        ]
    },
    "policy_weights": [
        -0.15008071064949036, 0.08819995820522308, 0.05805245786905289,
        -0.0634918287396431, 0.017728155478835106, 0.04325132817029953,
        -0.19178350269794464, -0.09003522247076035, 0.035808343440294266,
        -0.01865413784980774, 0.12819184362888336, -0.019483599811792374,
        0.008066035807132721, 0.18922679126262665, -0.13240587711334229,
        -0.10862969607114792, 0.051840901374816895, 0.13109923899173737,
        -0.03815625607967377, 0.059331849217414856, -0.17630381882190704,
        0.08342663943767548, -0.03095560520887375, -0.12037684768438339,
        0.06258857995271683, 0.016988029703497887, 0.0401928536593914,
        -0.01328258402645588, -0.01475830003619194, -0.0708865076303482,
        -0.06461197882890701, -0.11073912680149078, 0.05943550541996956,
        0.08581522107124329, -0.03881830722093582, 0.016745712608098984,
        -0.231022909283638, 0.09354335814714432, 0.11859171837568283,
        0.10275708138942719, -0.10029883682727814, 0.08510144799947739,
        -0.04447932168841362, 0.19134563207626343, -0.03001430816948414,
        -0.0002589606156107038, 0.06162479892373085, 0.021996332332491875,
        -0.07219136506319046, -0.093366339802742, -0.10433709621429443,
        -0.16433288156986237, -0.041969843208789825, -0.009695624001324177,
        -0.09513788670301437, -0.10158050805330276, 0.03161967545747757,
        0.11916865408420563, -0.13408106565475464, 0.2974705100059509,
        -0.06937641650438309, -0.033097680658102036, 0.08934692293405533,
        0.01698141172528267, -0.00444711884483695, 0.06061569228768349,
        -0.02638418786227703, -0.10694969445466995, -0.06382226198911667,
        -0.04151041433215141, -0.11724980175495148, 0.10914359241724014,
        0.2262527048587799, 0.09696782380342484, 0.1542438268661499,
        0.08498172461986542, 0.1210828647017479, 0.03764810040593147,
        -0.10760846734046936, -0.014258124865591526, 0.11460662633180618,
        0.22728584706783295, 0.1526871621608734, 0.19958949089050293,
        -0.03071855567395687, -0.12285909056663513, 0.0067757247015833855,
        0.0023360515478998423, -0.04600081965327263, 0.0476984977722168,
        -0.006377923768013716, 0.02771904692053795, -0.06173476204276085,
        -0.06068234518170357, -0.1806545853614807, -0.022485535591840744,
        0.049938932061195374, 0.032140567898750305, 0.06256705522537231,
        0.14977866411209106, -0.05422374606132507, -0.07188849151134491,
        -0.02738296240568161, -0.02285526879131794, 0.12300799041986465,
        -0.039421722292900085, 0.18500502407550812, 0.11888100206851959,
        0.006542174145579338, -0.03704283758997917, -0.14777874946594238,
        -0.12926402688026428, 0.036246158182621, 0.07411766797304153,
        -0.08996465057134628, 0.005764564499258995, -0.08598455041646957,
        0.09890685230493546, -0.10028258711099625, -0.286284476518631,
        -0.027027150616049767, 0.06315319240093231, 0.0034182220697402954,
        0.02913682535290718, 0.05017132684588432, -0.30118367075920105,
        0.14845378696918488, 0.05909186601638794, -0.13683882355690002,
        -0.11588826775550842, -0.03169115260243416, 0.022662334144115448,
        -0.05135609582066536, 0.02542974054813385, 0.14380909502506256,
        0.06199750676751137, 0.1629803478717804, 0.049545321613550186,
        0.23255446553230286, -0.08079826086759567, -0.11704131960868835,
        0.13674485683441162, -0.18116413056850433, 0.09383950382471085,
        -0.13532070815563202, 0.06899122148752213, -0.15042604506015778,
        0.261264830827713, -0.06809692829847336, 0.02549159713089466,
        -0.06246073171496391, 0.07014301419258118, 0.07332056760787964,
        0.06993577629327774, -0.03772558644413948, 0.20818133652210236,
        -0.14259617030620575, 0.055379610508680344, 0.12996867299079895,
        0.045978859066963196, -0.11680829524993896, -0.06989266723394394,
        0.06045455485582352, 0.03571067750453949, 0.058641258627176285,
        -0.030328702181577682, -0.039151132106781006, 0.01744646579027176,
        -0.16154025495052338, 0.31182175874710083, 0.05649731308221817,
        -0.014942591078579426, -0.1474246233701706, 0.034126777201890945,
        -0.02496843971312046, 0.05771803855895996, 0.010703148320317268,
        0.1356458216905594, 0.174666628241539, 0.059241920709609985,
        -0.20560003817081451, -0.052984077483415604, -0.03788168355822563,
        -0.08754248917102814, 0.0906657725572586, 0.10212245583534241,
        0.03658634424209595, 0.17381131649017334, 0.11984403431415558,
        -0.01825711876153946, 0.21182788908481598, 0.11612351983785629,
        -0.009110002778470516, 0.12470118701457977, -0.02935825288295746,
        -0.09853337705135345, -0.17847499251365662, 0.03301742672920227,
        0.021263234317302704, 0.05398300662636757, -0.04913196712732315,
        0.16665001213550568, -0.28902626037597656, 0.0015856793615967035,
        0.0009421479771845043, 0.24904842674732208, 0.08773718029260635,
        -0.1743634045124054, 0.15568627417087555, 0.04578522592782974,
        -0.030205531045794487, -0.09117259830236435, 0.1208198219537735,
        0.019820906221866608, -0.12032925337553024, -0.16322852671146393,
        0.009734381921589375, 0.04216933995485306, 0.07655036449432373,
        0.046059053391218185, -0.09067721664905548, -0.13380596041679382,
        0.0013675278751179576, 0.08684191107749939, -0.177837535738945,
        -0.03860434889793396, -0.03648906946182251, 0.216133713722229,
        0.05295032262802124, -0.060603026300668716, -0.2098883092403412,
        0.12271516025066376, 0.07409006357192993, 0.057304367423057556,
        -0.10301322489976883, 0.10419720411300659, 0.06898991018533707,
        0.07570724189281464, 0.13096170127391815, -0.01068468950688839,
        0.13829433917999268, 0.047975197434425354, -0.13508012890815735,
        -0.0954921543598175, 0.04707834869623184, 0.14855939149856567,
        0.06986478716135025, 0.003085375064983964, 0.11414388567209244,
        0.056803423911333084, -0.059966620057821274, -0.18578679859638214,
        -0.18174928426742554, 0.10190461575984955, -0.1731610894203186,
        -0.11992236226797104, -0.010881857015192509, -0.1290234476327896,
        0.20651642978191376, 0.03255251422524452, -0.030822569504380226,
        -0.06230571120977402, -0.03615868464112282, 0.061667464673519135,
        0.008632896468043327, -0.15397417545318604, 0.17254091799259186,
        0.08913774788379669, -0.09455862641334534, -0.007599125616252422,
        0.08069105446338654, 0.06341258436441422, 0.05150804668664932,
        -0.07157931476831436, -0.15462161600589752, -0.15110304951667786,
        -0.013798017986118793, 0.0648161843419075, -0.1672760397195816,
        -0.19583290815353394, -0.14759597182273865, 0.05693802982568741,
        0.14269673824310303, 0.1316479593515396, -0.0036592467222362757,
        -0.08749978989362717, 0.08953198790550232, -0.03920663148164749,
        0.15799249708652496, 0.10980893671512604, -0.004954793024808168,
        -0.02933695539832115, -0.01501445658504963, 0.08048184961080551,
        -0.12212292850017548, 0.12235906720161438, 0.10752420872449875,
        0.14026276767253876, -0.08287274837493896, -0.07179087400436401,
        -0.04014434292912483, -0.1286206692457199, 0.19579267501831055,
        0.11451602727174759, 0.12723690271377563, -0.06780187040567398,
        -0.0036287913098931313, -0.14467144012451172, -0.09475977718830109,
        -0.04464278370141983, -0.06829799711704254, -0.013699287548661232,
        0.005557707045227289, -0.002221703063696623, 0.1720936894416809,
        -0.1101486086845398, -0.02805752493441105, -0.07824967801570892,
        0.06344519555568695, -0.0842343121767044, -0.06749111413955688,
        -0.006040140986442566, -0.03590526431798935, -0.04545917361974716,
        0.1422184258699417, 0.05940219387412071, 0.02475229650735855,
        0.07255810499191284, 0.17134542763233185, 0.03352498635649681,
        0.0686570480465889, -0.05948205292224884, 0.16448530554771423,
        -0.14761793613433838, 0.2246519923210144, 0.11814142763614655,
        -0.121980682015419, 0.11274474859237671, 0.04209966957569122,
        0.007648177910596132, 0.13583257794380188, 0.08786611258983612,
        0.20436757802963257, 0.13531255722045898, 0.016813727095723152,
        0.08479039371013641, 0.052376050502061844, 0.0576389916241169,
        0.012582509778439999, -0.045126840472221375, 0.03366837650537491,
        -0.028771957382559776, -0.029726389795541763, -0.13126522302627563,
        0.11698000133037567, -0.04164133593440056, -0.09624819457530975,
        -0.050464045256376266, -0.06970427185297012, -0.05492142215371132,
        -0.038549717515707016, -0.028932925313711166, -0.021225042641162872,
        -0.06678806245326996, -0.010973352938890457, -0.10675665736198425,
        0.07619275897741318, -0.058515775948762894, 0.14299844205379486,
        -0.03581094741821289, 0.07480994611978531, 0.09164134413003922,
        -0.015614354982972145, -0.16871577501296997, 0.201339453458786,
        -0.17869439721107483, 0.1654428392648697, 0.08020253479480743,
        -0.06904634088277817, 0.0882435068488121, -0.03108414076268673,
        0.1539631336927414, -0.014951631426811218, -0.033825330436229706,
        0.10246871411800385, -0.07912873476743698, 0.025043752044439316,
        0.0651521384716034, 0.017251087352633476, 0.02556174248456955,
        -0.07732941210269928, 0.00015409984916914254, -0.10720367729663849,
        0.017938656732439995, 0.031899333000183105, -0.07416536659002304,
        0.045984651893377304, -0.020863227546215057, -0.17990006506443024,
        0.03721345588564873, -0.16510525345802307, 0.16559940576553345,
        0.00885500106960535, -0.09898774325847626, -0.03706153854727745,
        0.11501401662826538, -0.044300392270088196, -0.06929941475391388,
        0.12695810198783875, 0.09398539364337921, 0.06012140214443207,
        -0.007950570434331894, 0.0133237699046731, 0.012602569535374641,
        -0.06585279107093811, 0.11011587083339691, -0.10031187534332275,
        0.12958291172981262, -0.11763542145490646, -0.10044116526842117,
        0.20482562482357025, 0.11752040684223175, 0.06926986575126648,
        -0.049662794917821884, 0.06727360188961029, 0.14184799790382385,
        0.1712663471698761, -0.01868392899632454, 0.015542629174888134,
        0.09734989702701569, 0.10108410567045212, 0.06931029260158539,
        -0.0419161356985569, 0.04514667019248009, 0.2077363282442093,
        0.019212696701288223, -0.06878563016653061, 0.0887606292963028,
        0.08544989675283432, -0.2171834409236908, -0.09937810152769089,
        0.004320953972637653, -0.21046485006809235, 0.011815976351499557,
        0.017777161672711372, -0.03825423866510391, 0.06278977543115616,
        -0.010411515831947327, 0.025272248312830925, 0.1719810515642166,
        -0.23363590240478516, -0.22428344190120697, -0.11878236383199692,
        0.04543645307421684, -0.008749269880354404, -0.04944480210542679,
        0.0117094861343503, 0.2338627576828003, 0.05209445580840111,
        0.1319265067577362, 0.19929608702659607, 0.13291746377944946,
        -0.002551824087277055, 0.35022079944610596, 0.08290652930736542,
        0.12635459005832672, -0.021946094930171967, 0.10994641482830048,
        -0.04887251555919647, 0.0056692552752792835, -0.07376580685377121,
        0.04154833033680916, 0.07524090260267258, -0.20169135928153992,
        -0.044161226600408554, 0.04869823157787323, 0.07742507010698318,
        -0.18681225180625916, -0.14770276844501495, 0.10668809711933136,
        0.0036581745371222496, 0.030615657567977905, -0.17701877653598785,
        0.01967615820467472, -0.06361435353755951, -0.027960993349552155,
        -0.014247553423047066, 0.07478617131710052, 0.1437472105026245,
        0.07168949395418167, -0.024173898622393608, 0.05206678435206413,
        0.17767183482646942, -0.043693289160728455, 0.2547489106655121,
        -0.06445419043302536, -0.07907573878765106, 0.06442811340093613,
        -0.08174474537372589, 0.020289447158575058, -0.13494490087032318,
        -0.04952118173241615, 0.04908301681280136, 0.0006681305239908397,
        -0.04062490165233612, -0.13193921744823456, -0.15111824870109558,
        -0.09282321482896805, -0.1960292011499405, 0.25708580017089844,
        0.28817811608314514, -0.0639566034078598, -0.11634533852338791,
        0.09938798099756241, -0.23204556107521057, 0.054829154163599014,
        -0.06012433394789696, 0.0636063665151596, 0.04056714475154877,
        0.1451520174741745, -0.1707637459039688, -0.08001445233821869,
        -0.10967834293842316, -0.10533155500888824, -0.17089533805847168,
        -0.15235352516174316, -0.021564407274127007, 0.04527030140161514,
        0.02617262676358223, -0.15655000507831573, -0.20006301999092102,
        -0.07258342206478119, -0.0833839476108551, 0.052103687077760696,
        -0.1119406595826149, -0.0076360744424164295, 0.10776162892580032,
        -0.24342027306556702, -0.21249885857105255, 0.05431462079286575,
        0.022094152867794037, 0.1040690690279007, 0.056322645395994186,
        0.14482037723064423, 0.15382665395736694, 0.002693334361538291,
        -0.2441699504852295, 0.09311322122812271, -0.08906756341457367,
        0.12208907306194305, -0.06562721729278564, 0.10973753780126572,
        0.08496075868606567, 0.042566362768411636, -0.011727340519428253,
        -0.038510292768478394, -0.006833349354565144, 0.234736368060112,
        0.007433688268065453, -0.027430221438407898, 0.11519215255975723,
        -0.19567017257213593, 0.050975251942873, 0.04771015793085098,
        -0.023088805377483368, 0.12100542336702347, -0.030907422304153442,
        0.173357293009758, -0.18674404919147491, -0.1859542727470398,
        0.09751804918050766, -0.07702670246362686, 0.0008261706680059433,
        0.0632726401090622, 0.07086514681577682, 0.06358508765697479,
        0.037178583443164825, -0.03757132217288017, -0.09543898701667786,
        0.10595165193080902, 0.021788811311125755, -0.14563898742198944,
        -0.1686498522758484, -0.07732696831226349, 0.13345150649547577,
        0.06270129978656769, 0.10968492925167084, 0.01760147139430046,
        0.07082885503768921, 0.027086704969406128, 0.005587152671068907,
        0.018634114414453506, 0.06623224169015884, -0.022422920912504196,
        -0.15153348445892334, 0.06184595078229904, 0.22113895416259766,
        -0.02915715053677559, -0.09172958880662918, -0.07475713640451431,
        0.12568125128746033, -0.0726298913359642, -0.008273537270724773,
        -0.09657049179077148, -0.12330299615859985, -0.005472693592309952,
        0.13422663509845734, 0.09427937865257263, 0.10009630769491196,
        -0.06077529117465019, -0.057344526052474976, 0.02297709509730339,
        -0.12305764853954315, 0.0336984246969223, -0.040380772203207016,
        0.07918012142181396, -0.09516283869743347, 0.05377255380153656,
        -0.04943554103374481, -0.04816483333706856, 0.17191597819328308,
        0.13941042125225067, -0.056206945329904556, 0.03643365576863289,
        0.08634867519140244, 0.011735047213733196, 0.03956853970885277,
        -0.08878255635499954, -0.10941587388515472, 0.047135837376117706,
        -0.035842813551425934, -0.13252998888492584, -0.17929841578006744,
        0.08757905662059784, 0.07661920040845871, -0.15810967981815338,
        -0.07623656839132309, 0.024141650646924973, -0.17824912071228027,
        0.12871673703193665, 0.1348998099565506, -0.1488899439573288,
        0.048899535089731216, -0.05527094379067421, -0.09449460357427597,
        -0.06336811929941177, -0.07800469547510147, -0.02683562971651554,
        0.23120464384555817, -0.0455598346889019, -0.07894734293222427,
        0.16187594830989838, -0.042535100132226944, 0.06899671256542206,
        -0.1515628844499588, 0.10382547229528427, 0.011124037206172943,
        0.20007576048374176, 0.019916972145438194, 0.2680875062942505,
        0.005726379808038473, -0.13211442530155182, -0.0013733532978221774,
        -0.07227929681539536, -0.1282416582107544, -0.0951237604022026,
        0.1468881219625473, 0.11721297353506088, 0.019383350387215614,
        0.1704665869474411, 0.10565387457609177, -0.14153942465782166,
        -0.020860444754362106, -0.02603873424232006, -0.026792937889695168,
        0.0833340510725975, 0.17352275550365448, 0.03816043958067894,
        -0.05296683311462402, 0.059897955507040024, -0.0981801226735115,
        -0.061338189989328384, 0.2296483814716339, -0.07470130175352097,
        -0.15607388317584991, -0.14553703367710114, 0.046852800995111465,
        0.06895871460437775, 0.09767565876245499, 0.0822821706533432,
        0.08406547456979752, -0.01692040078341961, -0.059543829411268234,
        -0.10898853838443756, 0.08793468028306961, -0.05799850821495056,
        0.010747985914349556, 0.006819126661866903, -0.049694642424583435,
        0.09646614640951157, 0.1387169063091278, -0.060174908488988876,
        0.1796724796295166, -0.1208864226937294, -0.2971133887767792,
        0.05662060156464577, 0.012159980833530426, -0.11370676010847092,
        0.04318620264530182, 0.04342639818787575, 0.07592202723026276,
        -0.15062223374843597, -0.0815100148320198, -0.04828841611742973,
        0.06587065756320953, -0.058505862951278687, 0.034340765327215195,
        0.1095215454697609, -0.08595738559961319, 0.05873510241508484,
        0.027068277820944786, -0.03135449066758156, -0.003176032565534115,
        0.10450573265552521, 0.02994995005428791, -0.09141293168067932,
        0.05660059675574303, -0.07432205229997635, -0.09420756250619888,
        0.06322133541107178, -0.13737079501152039, -0.11660604178905487,
        0.09509335458278656, -0.04101663827896118, -0.17409707605838776,
        0.1883312463760376, 0.2248428612947464, 0.1709980070590973,
        0.11330357193946838, 0.07122787088155746, 0.0026896176859736443,
        -0.04615020379424095, -0.13385272026062012, -0.028798073530197144,
        -0.052795276045799255, 0.03549543023109436, 0.0286399032920599,
        0.03825127333402634, 0.008556317538022995, -0.08146773278713226,
        -0.09171272069215775, 0.10115652531385422, -0.2148817628622055,
        -0.12738081812858582, 0.004389969166368246, -0.04340179264545441,
        0.11504194885492325, 0.20309823751449585, 0.009211092256009579,
        0.1753300577402115, -0.031731124967336655, 0.058404579758644104,
        -0.010597901418805122, 0.04562464356422424, -0.043309736996889114,
        0.11026720702648163, -0.09987825155258179, -0.020909378305077553,
        -0.08431223034858704, -0.20419427752494812, -0.01857130602002144,
        0.004747102968394756, -0.09743238240480423, -0.06346514075994492,
        -0.06889703869819641, 0.2721441686153412, -0.12881815433502197,
        -0.05167407542467117, 0.09631079435348511, 0.19090870022773743,
        0.038587503135204315, 0.2513119578361511, 0.158369243144989,
        -0.12732098996639252, 0.00811721757054329, -0.021227985620498657,
        0.26888158917427063, -0.03201336786150932, -0.027014413848519325,
        0.09172531962394714, -0.0960654690861702, 0.17615796625614166,
        -0.31730207800865173, 0.10613582283258438, 0.1370541900396347,
        0.0673896074295044, 0.10948212444782257, -0.05480322986841202,
        0.15335720777511597, -0.15900906920433044, -0.04566285014152527,
        0.05285336449742317, 0.022532861679792404, 0.2217753678560257,
        0.14076553285121918, 0.0411376878619194, 0.10412324219942093,
        0.20690207183361053, -0.0590534545481205, -0.10114266723394394,
        -0.05275428295135498, -0.14557811617851257, 0.0869978591799736,
        -0.0017379667842760682, 0.12987399101257324, 0.0031117741018533707,
        0.2603912353515625, 0.0011621173471212387, -0.07205583900213242,
        0.02103695087134838, 0.16817638278007507, -0.015718607231974602,
        -0.07836954295635223, 0.06203468143939972, -0.02115623466670513,
        0.013178116641938686, 0.003293412271887064, -0.14073535799980164,
        -0.13342146575450897, 0.020725427195429802, 0.12503230571746826,
        -0.025691566988825798, -0.08844960480928421, -0.059112951159477234,
        -0.1871156543493271, -0.01622389256954193, 0.08867502957582474,
        -0.02596803940832615, 0.017021428793668747, 0.07466644048690796,
        0.12091115862131119, 0.12116552889347076, -0.05430469661951065,
        -0.03179760277271271, 0.05933297425508499, -0.0038300843443721533,
        0.04399890825152397, 0.08349878340959549, 0.08747643232345581,
        0.044880423694849014, -0.03450493887066841, -0.07507359236478806,
        0.11150310188531876, 0.08388227224349976, 0.13607463240623474,
        0.09180658310651779, 0.12939326465129852, 0.07815669476985931,
        -0.007246329449117184, 0.05233338102698326, -0.1362946480512619,
        -0.045093998312950134, 0.0743614137172699, -0.11847666651010513,
        -0.03636031970381737, -0.18698750436306, 0.12223618477582932,
        0.041017089039087296, -0.04503259062767029, 0.0638081282377243,
        -0.29370564222335815, 0.06256797164678574, 0.009487401694059372,
        -0.19134771823883057, 0.05608699843287468, 0.11809472739696503,
        0.14834079146385193, -0.07154122740030289, -0.1462240219116211,
        -0.015421311371028423, 0.006640400737524033, -0.022242849692702293,
        -0.12546250224113464, -0.07588393241167068, 0.0010389919625595212,
        -0.1021094098687172, -0.03843802958726883, 0.10555018484592438,
        0.08596202731132507, -0.06246553733944893, -0.05865072086453438,
        0.06606897711753845, -0.05858432874083519, -0.07608139514923096,
        -0.10239074379205704, 0.14224959909915924, 0.12519598007202148,
        0.029771611094474792, -0.029629496857523918, -0.002015606267377734,
        -0.0024686295073479414, 0.16430100798606873, 0.0287857037037611,
        -0.2080938071012497, -0.03798001632094383, -0.16855476796627045,
        0.057281654328107834, 0.014649055898189545, -0.05079052224755287,
        -0.16824476420879364, -0.05135366693139076, -0.05693554878234863,
        -0.16561448574066162, 0.026475828140974045, -0.07938859611749649,
        0.11845224350690842, -0.03841240704059601, -0.08259253948926926,
        0.08015457540750504, 0.014679301530122757, -0.05729136988520622,
        0.16698770225048065, -0.11220844089984894, -0.10729114711284637,
        0.1090150848031044, -0.09619700908660889, 0.00041952432366088033,
        0.05771159380674362, 0.1591065675020218, 0.037946779280900955,
        -0.05596357583999634, 0.0024247767869383097, 0.05321237072348595,
        -0.06083408743143082, -0.00034986756509169936, 0.07047268003225327,
        -0.0881563350558281, 0.018943192437291145, -0.007628331892192364,
        0.018336480483412743, -0.021575694903731346, 0.026825925335288048,
        -0.03447980806231499, -0.1315189003944397, -0.007879897020757198,
        0.07945439219474792, -0.012498623691499233, 0.053309351205825806,
        -0.05249148979783058, 0.2767423689365387, 0.1795903891324997,
        -0.0653119906783104, -0.12574522197246552, -0.014775156043469906,
        -0.01576608046889305, 0.07834862917661667, 0.06722889095544815,
        -0.2299450933933258, -0.05342715606093407, -0.057036660611629486,
        -0.13411451876163483, 0.13093987107276917, -0.034370265901088715,
        -0.1273195445537567, 0.09864892065525055, 0.1357249915599823,
        0.028138207271695137, -0.08184691518545151, 0.28507673740386963,
        0.09737346321344376, 0.031880006194114685, -0.08153846859931946,
        -0.17355981469154358, 0.022681476548314095, 0.12549914419651031,
        -0.1119321882724762, 0.050832755863666534, 0.028865711763501167,
        0.030033698305487633, -0.04528212547302246, -0.24163377285003662,
        -0.26574909687042236, 0.07254505902528763, -0.004527899902313948,
        -0.10694168508052826, 0.17396406829357147, -0.0976022258400917,
        0.06664077937602997, -0.15420785546302795, -0.16535337269306183,
        0.07344356924295425, 0.04394135996699333, 0.026402171701192856,
        -0.007969522848725319, -0.06298179924488068, 0.2043164074420929,
        -0.10281822830438614, 0.14177049696445465, 0.0894041582942009,
        -0.18267594277858734, -0.03684394806623459, 0.10470014810562134,
        -0.07669375836849213, -0.305536150932312, -0.1556648313999176,
        0.11841920763254166, 0.0703592449426651, 0.18723978102207184,
        0.10585879534482956, -0.09151758998632431, -0.07862380146980286,
        0.018022693693637848, -0.06602642685174942, 0.2345726490020752,
        -0.18529736995697021, -0.06483770161867142, -0.05087742581963539,
        -0.0548957884311676, 0.05776215344667435, 0.04261733219027519,
        0.027962645515799522, -0.0708780512213707, 0.09794345498085022,
        -0.06742042303085327, 0.15499599277973175, 0.0026886085979640484,
        0.13990134000778198, -0.11974355578422546, 0.05908455327153206,
        0.16520433127880096, -0.20406033098697662, -0.1108735129237175,
        -0.056992147117853165, 0.08601284772157669, -0.03830203041434288,
        -0.14606614410877228, 0.0491628535091877, -0.1447116881608963,
        -0.0015985105419531465, 0.26532626152038574, 0.18008047342300415,
        0.04843355715274811, 0.03100835531949997, 0.03343974053859711,
        0.02922923117876053, -0.004870998673141003, 0.024589184671640396,
        -0.06152797117829323, -0.09988618642091751, 0.02019655890762806,
        -0.007984849624335766, 0.08923130482435226, -0.0311878751963377,
        0.09110572189092636, -0.0759073868393898, -0.1274525374174118,
        -0.24849149584770203, -0.03804279491305351, -0.15871746838092804,
        -0.26109930872917175, -0.10336613655090332, 0.027880709618330002,
        -0.05750409886240959, 0.19775332510471344, -0.043781109154224396,
        -0.017169132828712463, 0.024634240195155144, 0.1390122026205063,
        -0.07892513275146484, 0.11914419382810593, 0.0745261162519455,
        0.2384110689163208, -0.16903634369373322, -0.005317023955285549,
        -0.050028298050165176, 0.012416503392159939, 0.031046351417899132,
        0.19811545312404633, 0.09962025284767151, -0.1472957730293274,
        0.09218687564134598, 0.004785590339452028, 0.05117914825677872,
        0.16128824651241302, 0.03937142342329025, 0.05013134703040123,
        -0.09865740686655045, 0.07570213079452515, 0.015433339402079582,
        0.007428227923810482, -0.04806201159954071, 0.07557060569524765,
        -0.014286861754953861, 0.060289859771728516, 0.14522980153560638,
        0.034171923995018005, -0.0569988489151001, 0.07509446889162064,
        -0.09480904042720795, -0.09869065135717392, -0.23223823308944702,
        -0.2336014360189438, -0.13316959142684937, 0.013269547373056412,
        -0.04332832247018814, 0.1312367171049118, -0.038016077131032944,
        -0.03639281913638115, -0.04106367751955986, -0.18176481127738953,
        -0.024453435093164444, -0.17750513553619385, -0.12060614675283432,
        -0.01005394384264946, 0.05153075233101845, 0.09793739765882492,
        0.11460191756486893, -0.013221890665590763, -0.038002245128154755,
        -0.258007675409317, 0.004141754005104303, 0.12644147872924805,
        0.019162118434906006, 0.07348385453224182, -0.05154549330472946,
        0.014095366932451725, -0.09949062764644623, -0.18136121332645416,
        0.04978352040052414, -0.062016561627388, 0.007489374373108149,
        -0.08233576267957687, 0.069489486515522, 0.15038686990737915,
        -0.020415395498275757, 0.048346832394599915, 0.1640254259109497,
        -0.13410647213459015, -0.13380782306194305, -0.049597252160310745,
        0.02726002223789692, 0.1615908294916153, 0.34199535846710205,
        0.13219471275806427, -0.2591196596622467, 0.020733416080474854,
        -0.05973426252603531, 0.08562850207090378, -0.07802943140268326,
        0.04121032729744911, -0.014224162325263023, 0.03651556372642517,
        0.02888674847781658, 0.1152682974934578, -0.0025897794403135777,
        -0.0387539379298687, 0.01108712237328291, -0.12958626449108124,
        0.1655488759279251, 0.12409129738807678, -0.14436344802379608,
        0.10749994218349457, 0.04030073061585426, 0.054247789084911346,
        -0.09446543455123901, 0.08414729684591293, 0.21397311985492706,
        0.08624298125505447, -0.04229258745908737, 0.14407211542129517,
        -0.1190548986196518, 0.09572172164916992, 0.10637172311544418,
        0.07200806587934494, -0.059592559933662415, 0.05038939788937569,
        -0.07042121887207031, 0.07158268988132477, -0.06633710861206055,
        -0.021737679839134216, 0.0007080980576574802, -0.010520370677113533,
        -0.048904869705438614, -0.06760693341493607, -0.042369294911623,
        -0.03067329339683056, -0.14471229910850525, 0.01740662194788456,
        -0.07779809832572937, -0.10266237705945969, 0.16430924832820892,
        0.060829270631074905, -0.08725679665803909, 0.06215039640665054,
        -0.14464053511619568, 0.009992893785238266, -0.029901765286922455,
        0.02606506273150444, 0.04719662666320801, -0.00876657571643591,
        -0.12229664623737335, 0.21440649032592773, 0.02243533916771412,
        -0.1565532088279724, 0.28832119703292847, 0.10989027470350266,
        -0.16377243399620056, -0.013086953200399876, 0.1947496086359024,
        0.11905999481678009, 0.00011686927609844133, -0.13104881346225739,
        -0.04635487496852875, -0.040615200996398926, 0.05303846299648285,
        0.1272670477628708, 0.08073952049016953, -0.10377112030982971,
        -0.0660238265991211, -0.10110178589820862, -0.009604930877685547,
        0.040025804191827774, -0.09410536289215088, 0.007423211820423603,
        0.06593340635299683, 0.05854362994432449, -0.020228851586580276,
        -0.18240953981876373, 0.004057742655277252, 0.03360316529870033,
        -0.15047840774059296, 0.19543752074241638, 0.01788625493645668,
        0.1536945253610611, 0.020473919808864594, 0.045578695833683014,
        0.009792397730052471, -0.09935130178928375, -0.030741944909095764,
        0.03408820554614067, 0.16024495661258698, 0.11921337991952896,
        0.0211050845682621, 0.0664835050702095, 0.00799547042697668,
        -0.19009698927402496, -0.11691724509000778, 0.07943424582481384,
        0.08968964964151382, 0.034405697137117386, 0.06882426142692566,
        -0.027696028351783752, 0.03455210104584694, -0.1864546686410904,
        -0.06670866906642914, -0.1258932501077652, -0.008628768846392632,
        0.118983194231987, 0.014702362939715385, 0.06553123891353607,
        -0.048547353595495224, 0.13055892288684845, 0.15888676047325134,
        -0.010935348458588123, 0.002795133274048567, -0.1877560019493103,
        -0.04165392369031906, 0.001844325801357627, -0.2767431437969208,
        0.10735520720481873, -0.2553362250328064, 0.038794390857219696,
        -0.04023723304271698, 0.03195485100150108, -0.011235851794481277,
        -0.2489556521177292, 0.032295625656843185, -0.09652510285377502,
        -0.07633843272924423, 0.07756942510604858, 0.02459113486111164,
        -0.08024446666240692, 0.07440829277038574, 0.02394923008978367,
        0.06893832236528397, 0.03714725002646446, 0.11693694442510605,
        0.0786212608218193, -0.1138358861207962, -0.09455443918704987,
        -0.0511869415640831, 0.23903462290763855, -0.023392461240291595,
        -0.04975442588329315, -0.06010847166180611, 0.028804723173379898,
        -0.0033764413092285395, 0.11895729601383209, -0.137553408741951,
        0.2149191051721573, 0.013078154064714909, 0.12310951948165894,
        -0.1104227602481842, 0.07387953251600266, 0.07803789526224136,
        -0.02951631508767605, 0.038889914751052856, 0.16584385931491852,
        0.05892177298665047, 0.1286904513835907, -0.04425525292754173,
        0.18987266719341278, -0.14763624966144562, -0.13119515776634216,
        -0.07041462510824203, -0.07274056226015091, 0.10537726432085037,
        -0.004017782863229513, 0.07004450261592865, 0.021963737905025482,
        0.04027702659368515, -0.07035601139068604, 0.1254759430885315,
        0.07418357580900192, -0.026127545163035393, -0.3084799349308014,
        -0.008237913250923157, 0.025501957163214684, 0.14292021095752716,
        0.01290636695921421, 0.13445185124874115, 0.005751143675297499,
        -0.06848415732383728, -0.06097220629453659, 0.05502433329820633,
        0.1457158625125885, 0.0488511398434639, -0.14614886045455933,
        0.21209414303302765, -0.13116014003753662, -0.0838378518819809,
        0.17253781855106354, 0.04576072469353676, 0.041793342679739,
        -0.18902069330215454, 0.08372604846954346, -0.06602001935243607,
        0.11738256365060806, 0.23310905694961548, -0.1736508458852768,
        0.07716519385576248, 0.042251020669937134, 0.03255227208137512,
        -0.09686215966939926, 0.05114208534359932, -0.007353017572313547,
        -0.2010117471218109, -0.08843822777271271, 0.08825893700122833,
        -0.13295596837997437, 0.021171970292925835, -0.01521426159888506,
        0.10399984568357468, -0.058999575674533844, 0.05621861666440964,
        -0.04298616945743561, -0.12290164083242416, -0.02316788211464882,
        -0.05084536597132683, 0.008028066717088223, 0.10109841078519821,
        -0.11434613913297653, 0.14789679646492004, 0.037299446761608124,
        0.052291661500930786, 0.12989208102226257, -0.17635606229305267,
        0.030556894838809967, 0.03172456845641136, 0.011404281482100487,
        -0.13819770514965057, -0.15145106613636017, -0.10396327823400497,
        -0.18508093059062958, -0.13439148664474487, 0.21668240427970886,
        -0.09502487629652023, -0.002249018056318164, 0.01019048411399126,
        0.014934293925762177, 0.02453557215631008, 0.025619754567742348,
        0.06295417249202728, 0.11927645653486252, -0.018111959099769592,
        -0.005808880552649498, -0.03245946392416954, -0.02908319979906082,
        0.033723779022693634, -0.03382910415530205, 0.04672090709209442,
        -0.09763961285352707, 0.09516938775777817, 0.05482655391097069,
        -0.11083533614873886, -0.07838039100170135, -0.031289536505937576,
        -0.15049728751182556, -0.10305902361869812, 0.06082599237561226,
        -0.03248482197523117, 0.053558822721242905, -0.24256479740142822,
        -0.11477812379598618, -9.95971349766478e-5, -0.08681867271661758,
        0.12386970221996307, 0.051470499485731125, 0.12671734392642975,
        -0.024289164692163467, -0.06231776997447014, 0.09640325605869293,
        0.028790272772312164, -0.04420090466737747, -0.05210978910326958,
        0.037100717425346375, 0.03379678726196289, -0.005696652922779322,
        -0.1184728592634201, 0.14457978308200836, 0.057551153004169464,
        0.10783101618289948, -0.10020766407251358, 0.237494558095932,
        0.04001603275537491, 0.07543106377124786, 0.16125038266181946,
        -0.2853393852710724, -0.029245935380458832, 0.15994933247566223,
        0.1656835824251175, 0.06872528046369553, -0.0002555257815402001,
        0.09751097857952118, 0.04488571360707283, 0.017807941883802414,
        -0.061730436980724335, 0.07011746615171432, -0.18690676987171173,
        0.218004047870636, -0.00048039466491900384, -0.14009393751621246,
        0.08474567532539368, -0.16602526605129242, 0.041621968150138855,
        -0.11952946335077286, -0.09468793869018555, 0.021565884351730347,
        0.007529119029641151, 0.005833353381603956, 0.13583527505397797,
        0.12653107941150665, 0.2868005633354187, 0.06564449518918991,
        0.03598214313387871, -0.03871740773320198, -0.02488643303513527,
        0.16785943508148193, 0.03090500272810459, -0.11331147700548172,
        0.06680162250995636, 0.012758152559399605, 0.2780435085296631,
        0.1331540048122406, 0.13042037189006805, -0.053687866777181625,
        -0.002153716515749693, 0.0404399074614048, 0.25637853145599365,
        0.18086431920528412, -0.07365744560956955, -0.09085039794445038,
        -0.1414724737405777, 0.10717909783124924, 0.08864793926477432,
        0.04683121293783188, 0.0940927192568779, -0.12212801724672318,
        -0.14120860397815704, 0.03727758303284645, 0.0028931573033332825,
        0.051965147256851196, 0.11300714313983917, 0.15629170835018158,
        0.15414024889469147, -0.0033620300237089396, 0.07934554666280746,
        0.03485158830881119, 0.049257323145866394, -0.049316953867673874,
        0.025194726884365082, -0.10220688581466675, 0.024594005197286606,
        -0.011681373231112957, -0.2613164484500885, 0.07451868057250977,
        -0.21109077334403992, 0.06897810846567154, -0.07732145488262177,
        -0.037874486297369, 0.060029126703739166, 0.29469868540763855,
        0.10133019834756851, -0.020039411261677742, 0.1829712837934494,
        0.025398988276720047, -0.1007428839802742, -0.040428705513477325,
        -0.03859599307179451, 0.048939112573862076, -0.0015331354225054383,
        0.010533347725868225, -0.06751071661710739, 0.0037173081655055285,
        -0.037702929228544235, 0.09039585292339325, 0.08056244254112244,
        -0.17128413915634155, 0.17770807445049286, 0.0020640904549509287,
        0.11064103990793228, -0.08176785707473755, -0.03190354257822037,
        0.022649239748716354, 0.0519963763654232, -0.23604705929756165,
        -0.03900258243083954, -0.013573442585766315, 0.04956745728850365,
        0.07283145934343338, -0.0686795562505722, 0.23847000300884247,
        0.07899213582277298, 0.13358207046985626, 0.043072689324617386,
        0.027218608185648918, -0.03862474486231804, 0.19984064996242523,
        0.13531936705112457, -0.01799430139362812, 0.10088467597961426,
        -0.10756514966487885, -0.06708507239818573, 0.10217493027448654,
        -0.04465574398636818, -0.06386608630418777, -0.022266332060098648,
        -0.1453067511320114, 0.02274177595973015, -0.041547175496816635,
        -0.047461602836847305, 0.2510095536708832, 0.1673063188791275,
        -0.21012593805789948, 0.12984836101531982, 0.04843779280781746,
        0.09462123364210129, -0.08796367794275284, 0.048210687935352325,
        -0.11701081693172455, 0.005437476560473442, 0.17105188965797424,
        0.1628926396369934, 0.15433648228645325, 0.12762147188186646,
        -0.07576724141836166, 0.1903027892112732, -0.003796894336119294,
        0.21085809171199799, -0.14071321487426758, -0.08478955179452896,
        -0.05153181776404381, -0.07660458981990814, -0.03282811865210533,
        0.20426708459854126, 0.06316206604242325, -0.07017985731363297,
        0.053619615733623505, 0.06482487916946411, -0.09237097948789597,
        0.1467633843421936, -0.04185773432254791, 0.09560545533895493,
        -0.08325476944446564, -0.10660061985254288, -0.06255993992090225,
        -0.0483502596616745, 0.1489897072315216, 0.005452261306345463,
        -0.06397935003042221, -0.005079267080873251, 0.004377502016723156,
        0.026446187868714333, 0.24693632125854492, 0.06177206337451935,
        -0.1003929153084755, -0.09961050003767014, -0.0014351209392771125,
        0.17361174523830414, -0.14162690937519073, 0.02358326129615307,
        -0.029094945639371872, 0.03852058947086334, -0.18534350395202637,
        -0.07606233656406403, 0.005177828948944807, -0.05066681280732155,
        -0.09112067520618439, -0.05325790494680405, -0.025263376533985138,
        0.01513723935931921, 0.02115003578364849, 0.01716543175280094,
        -0.034867171198129654, 0.1265999972820282, 0.09807206690311432,
        -0.008133546449244022, 0.012794962152838707, -0.09076225757598877,
        0.1283782422542572, 0.09079336374998093, 0.13698826730251312,
        0.049326341599226, 0.07981805503368378, -0.12073072791099548,
        -0.026590369641780853, 0.2011469304561615, 0.10773062705993652,
        0.047850463539361954, 0.03291065990924835, -0.050986047834157944,
        0.21206976473331451, -0.047064848244190216, -0.14346466958522797,
        -0.03835597261786461, 0.15703262388706207, -0.04393082112073898,
        -0.037901945412158966, -0.01514361146837473, 0.053419217467308044,
        -0.05884520336985588, 0.07293376326560974, 0.18529042601585388,
        -0.02181864157319069, 0.005281559657305479, 0.05463626980781555,
        -0.04922138527035713, 0.026585601270198822, 0.06821366399526596,
        0.020963210612535477, -0.04312242195010185, -0.11915697902441025,
        0.04636674374341965, -0.09219131618738174, 0.023660873994231224,
        0.1575697511434555, 0.0795174241065979, -0.13573414087295532,
        0.23057791590690613, 0.09664301574230194, -0.09542196244001389,
        -0.030136384069919586, 0.08373808115720749, 0.03991958498954773,
        -0.02523786947131157, 0.13127394020557404, -0.13661926984786987,
        -0.03837605193257332, -0.21802085638046265, -0.015090666711330414,
        0.1513727605342865, 0.2733818590641022, 0.20439809560775757,
        0.19870620965957642, -0.04372011870145798, 0.06935331225395203,
        0.03471100330352783, -0.029130902141332626, -0.1093055009841919,
        -0.06779998540878296, 0.05169033259153366, 0.21586468815803528,
        0.005513264797627926, 0.1016341969370842, -0.0799633264541626,
        -0.09324213862419128, 0.014494548551738262, -0.07316049933433533,
        0.31880325078964233, 0.01073762308806181, 0.12923681735992432,
        0.18388183414936066, -0.060772210359573364, -0.044488031417131424,
        0.10367397218942642, -0.05230589210987091, 0.06775453686714172,
        0.0036337433848530054, 0.07395876944065094, -0.04431260749697685,
        0.17582762241363525, 0.030988454818725586, 0.2377273589372635,
        -0.12353947758674622, -0.12823359668254852, 0.08006147295236588,
        0.04074486345052719, 0.11883356422185898, 0.045638181269168854,
        -0.1467583179473877, 0.13055188953876495, -0.13183675706386566,
        0.12177354842424393, -0.07478580623865128, 0.15974372625350952,
        -0.017769701778888702, -0.27543532848358154, -0.09110826253890991,
        0.1321672946214676, 0.12728732824325562, -0.029922595247626305,
        -0.06697951257228851, -0.18064293265342712, 0.021493876352906227,
        -0.19922006130218506, -0.16031743586063385, 0.132301464676857,
        -0.12140864133834839, 0.03949456661939621, 0.20275700092315674,
        0.06320378929376602, -0.10912171751260757, -0.03976384550333023,
        0.08573346585035324, -0.056990355253219604, -0.06513257324695587,
        0.043357834219932556, 0.11338769644498825, -0.05086866021156311,
        0.07801581174135208, -0.14134123921394348, -0.010460215620696545,
        -0.05520438030362129, 0.08513762056827545, -0.019475607201457024,
        0.003437039442360401, -0.04213179275393486, 0.09220437705516815,
        0.1257394254207611, -0.03693164885044098, -0.08594263345003128,
        0.1434265822172165, -0.20697413384914398, 0.10568688809871674,
        -0.03321847319602966, -0.009933936409652233, -0.012676063925027847,
        -0.04630117118358612, -0.024526488035917282, -0.09024465084075928,
        0.12642984092235565, 0.13769550621509552, -0.09730357676744461,
        0.05162521451711655, 0.16022621095180511, 0.04804787412285805,
        -0.13209950923919678, -0.008092681877315044, 0.004298475105315447,
        0.0706251859664917, -0.03194437175989151, 0.08474140614271164,
        0.057333141565322876, -0.13622356951236725, 0.09961215406656265,
        -0.14620642364025116, -0.057036906480789185, 0.014082295820116997,
        -0.11135236918926239, -0.05930905416607857, 0.1474948525428772,
        0.05468973517417908, -0.07523956149816513, -0.29023277759552,
        0.006256993394345045, -0.024946648627519608, 0.03291260078549385,
        0.06333573907613754, 0.026895126327872276, -0.13390395045280457,
        -0.19214794039726257, -0.07765907794237137, 0.005939347669482231,
        0.10297121852636337, -0.2627314031124115, -0.1026095375418663,
        -0.07386316359043121, -0.045538924634456635, -0.07715633511543274,
        -0.11767797917127609, 0.039509568363428116, 0.10031477361917496,
        0.11486802250146866, 0.012254634872078896, 0.004585017450153828,
        0.2101527750492096, 0.029470540583133698, 0.10706628859043121,
        0.04108395054936409, 0.08257243782281876, 0.0929655060172081,
        -0.15856552124023438, 0.14158019423484802, -0.03303329274058342,
        -0.11139670014381409, -0.06344565004110336, 0.06830410659313202,
        -0.13023272156715393, 0.01104258093982935, 0.0422661192715168,
        -0.02547282539308071, 0.058926794677972794, 0.10812553763389587,
        0.05937778577208519, -0.0034128976985812187, -0.144922137260437,
        0.18723440170288086, 0.08749890327453613, 0.074553482234478,
        0.10509736835956573, -0.018095849081873894, 0.09169822931289673,
        0.025194216519594193, -0.2924101650714874, -0.06743576377630234,
        -0.2058052122592926, -0.11247958242893219, -0.06636080145835876,
        0.14378751814365387, 0.016000663861632347, -0.011173557490110397,
        -0.14513613283634186, -0.09515812247991562, 0.028338542208075523,
        -0.1485898643732071, 0.019195467233657837, 0.0010667440947145224,
        0.002066641114652157, -0.21025200188159943, 0.1295091062784195,
        -0.03026142530143261, 0.05370914936065674, 0.08417557924985886,
        -0.14842741191387177, -0.039936456829309464, -0.016497813165187836,
        0.010464966297149658, -0.017766129225492477, 0.04935876280069351,
        -0.21388491988182068, 0.10201758146286011, -0.10890307277441025,
        -0.030223915353417397, -0.06704416871070862, -0.15739615261554718,
        -0.011920899152755737, -0.14646025002002716, 0.050267983227968216,
        -0.15914510190486908, 0.027680115774273872, 0.07712104171514511,
        0.0024286911357194185, 0.003792223520576954, -0.03128708153963089,
        -0.11354685574769974, -0.03910929709672928, 0.24627423286437988,
        -0.08779554814100266, 0.1051475778222084, 0.00867149606347084,
        -0.0994732603430748, 0.08501368761062622, 0.03231719136238098,
        0.007966484874486923, 0.08237401396036148, 0.15914683043956757,
        0.031556665897369385, 0.121854767203331, -0.004108193796128035,
        -0.15913042426109314, -0.09502028673887253, -0.007968788966536522,
        0.048938143998384476, -0.0733562558889389, 0.15465028584003448,
        0.042878422886133194, 0.19229120016098022, -0.08799148350954056,
        0.02706419862806797, 0.07971064001321793, 0.046943627297878265,
        0.027536269277334213, 0.08451549708843231, -0.3012297451496124,
        0.07978779077529907, -0.00891231931746006, 0.07469935715198517,
        -0.03974628075957298, 0.03555464744567871, 0.1704144924879074,
        0.21020247042179108, -0.09341540932655334, -0.00040124592487700284,
        0.2503909468650818, -0.23625417053699493, -0.03815066069364548,
        0.05121554806828499, -0.048575010150671005, 0.06561815738677979,
        -0.06914343684911728, 0.09135653078556061, 0.03323550522327423,
        -0.12301376461982727, 0.009478732012212276, -0.03214196860790253,
        -0.006181090138852596, 0.206040620803833, -0.12958301603794098,
        -0.07945365458726883, -0.0574420765042305, -0.07536353915929794,
        0.08867812901735306, -0.00047579832607880235, -0.06837005913257599,
        0.022848252207040787, 0.1615912765264511, -0.17264312505722046,
        -0.06276588886976242, -0.2983853816986084, 0.002995614893734455,
        -0.22844772040843964, 0.0950927808880806, 0.008427694439888,
        0.02882702462375164, 0.04901853948831558, 0.0732853040099144,
        -0.17719785869121552, -0.22509388625621796, 0.1136651411652565,
        -0.10160215198993683, 0.09096220135688782, -0.17195871472358704,
        0.09015657752752304, 0.0346406064927578, -0.044165343046188354,
        0.02985868975520134, 0.1350301057100296, -0.04750283807516098,
        0.03621254116296768, -0.06254957616329193, -0.015037307515740395,
        0.21334633231163025, -0.038361556828022, 0.0701599046587944,
        -0.05740076303482056, 0.10869427770376205, -0.0891273245215416,
        0.13018307089805603, -0.04256772994995117, 0.024957621470093727,
        -0.010594382882118225, -0.1378258466720581, 0.1415053904056549,
        -0.024932080879807472, 0.06541908532381058, -0.032481998205184937,
        0.050040941685438156, 0.07877174764871597, 0.20807477831840515,
        -0.03664415329694748, -0.08625951409339905, 0.06081828474998474,
        0.07713403552770615, -0.033032309263944626, -0.06789407879114151,
        -0.28232792019844055, 0.13542760908603668, -0.08388570696115494,
        -0.1135866641998291, 0.03772497549653053, 0.026304613798856735,
        0.11388218402862549, 0.1402062177658081, -0.11967822909355164,
        -0.07966472953557968, 0.17058700323104858, -0.1235584244132042,
        0.050647713243961334, -0.23225028812885284, 0.05342181399464607,
        0.12290766835212708, -0.08069875091314316, -0.053511910140514374,
        0.09210599213838577, -0.1750110238790512, 0.111142098903656,
        0.10525986552238464, 0.13759097456932068, 0.042672012001276016,
        -0.00643423805013299, -0.040309831500053406, 0.010116195306181908,
        -0.00397382490336895, -0.09822356700897217, -0.009877187199890614,
        0.005648558959364891, 0.033484745770692825, -0.033043503761291504,
        0.06119370460510254, 0.02009081467986107, -0.07986230403184891,
        -0.1005488708615303, -0.02021760120987892, 0.062318433076143265,
        0.3000923991203308, 0.023366006091237068, -0.049054596573114395,
        0.06788001954555511, 0.07052615284919739, 0.11418064683675766,
        -0.08745445311069489, -0.02028704062104225, 0.057062502950429916,
        -0.10114431381225586, -0.1072416827082634, 0.0607294887304306,
        -0.08418574184179306, -0.029642531648278236, 0.05866272747516632,
        -0.026176786050200462, -0.23228415846824646, -0.12817879021167755,
        0.048093609511852264, 0.11467255651950836, -0.01655401661992073,
        0.0687880665063858, -0.03937292844057083, -0.08628381788730621,
        -0.05728086456656456, 0.20257650315761566, -0.12168792635202408,
        0.12963563203811646, 0.1866360604763031, 0.13588847219944,
        -0.011391112580895424, 0.1422157883644104, -0.033529918640851974,
        -0.08762902021408081, 0.08960186690092087, -0.2157890647649765,
        0.011611958034336567, -0.15748099982738495, 0.1074574664235115,
        -0.08157039433717728, 0.125585675239563, -0.12150497734546661,
        -0.07705176621675491, 0.1408849060535431, 0.06538327038288116,
        -0.09518209099769592, 0.10435107350349426, -0.2064608931541443,
        0.007803561165928841, 0.04590054601430893, -0.004748586565256119,
        -0.04852116480469704, -0.036460474133491516, -0.13283586502075195,
        0.12745685875415802, 0.23409785330295563, 0.08839871734380722,
        0.12994123995304108, -0.003953459672629833, -0.1009216159582138,
        -0.089096300303936, 0.1049070730805397, 0.034293513745069504,
        -0.06795407086610794, 0.13161420822143555, 0.10782340914011002,
        0.1617726981639862, -0.057971514761447906, -0.0008423793478868902,
        -0.049581028521060944, 0.025245804339647293, -0.10130827128887177,
        -0.060262758284807205, -0.11623167246580124, -0.043015144765377045,
        0.04826170206069946, 0.11144313216209412, 0.006828789599239826,
        -0.12817828357219696, -0.11926279962062836, 0.0723024532198906,
        0.09287180006504059, -0.19932381808757782, 0.010655045509338379,
        0.028339192271232605, 0.014671746641397476, -0.08580053597688675,
        0.013777200132608414, 0.333407998085022, -0.07933639734983444,
        0.04290977120399475, 0.09060528129339218, 0.08282127231359482,
        0.07743439823389053, 0.09660737961530685, 0.03340844064950943,
        0.13674719631671906, 0.03753938153386116, -0.02878413163125515,
        0.12556983530521393, -0.11156969517469406, -0.024697421118617058,
        -0.25918927788734436, 0.0105734309181571, 0.002063745865598321,
        0.03007621504366398, 0.22773760557174683, -0.16717411577701569,
        -0.03797031566500664, -0.020211152732372284, 0.032820168882608414,
        0.06311867386102676, -0.046472858637571335, 0.08372679352760315,
        0.13986241817474365, -0.0028024669736623764, 0.11355111002922058,
        -0.06456294655799866, 0.03046402335166931, 0.24115470051765442,
        0.03944738209247589, 0.03560701757669449, -0.024724317714571953,
        -0.1495097130537033, 0.11098381876945496, 0.10263483226299286,
        0.19096216559410095, 0.031754497438669205, 0.041070498526096344,
        -0.04940608888864517, 0.1087944284081459, 0.07218778133392334,
        -0.11023639887571335, -0.006150731351226568, -0.048128530383110046,
        -0.13007260859012604, -0.02967241406440735, 0.025301147252321243,
        -0.017037834972143173, 0.0156226996332407, -0.0682745948433876,
        0.16545069217681885, 0.026013264432549477, 0.11026573926210403,
        0.12057551741600037, 0.18705245852470398, -0.2579333484172821,
        0.1818271428346634, -0.10518064349889755, -0.06473365426063538,
        0.11969415098428726, 0.05915326997637749, -0.04366244748234749,
        -0.04510003700852394, -0.011738442815840244, -0.04642150178551674,
        -0.1320282369852066, -0.0007934178574942052, -0.05961586907505989,
        -0.1471404731273651, -0.1658148318529129, 0.11865437775850296,
        -0.14680153131484985, -0.1666189283132553, 0.10485336929559708,
        0.010311166755855083, 0.0745600163936615, 0.038726210594177246,
        0.054368533194065094, 0.14909714460372925, 0.037638116627931595,
        0.1548493355512619, 0.012397443875670433, -0.0606754869222641,
        0.1950768679380417, -0.2135658711194992, 0.06630741059780121,
        -0.11495664715766907, 0.03755414858460426, -0.04043242707848549,
        0.07804881036281586, -0.06813210994005203, 0.12192770093679428,
        0.06379126012325287, 0.11189112812280655, -0.014676321297883987,
        0.20585858821868896, -0.04214823246002197, 0.08407264202833176,
        0.01344353798776865, -0.06759494543075562, -0.056957781314849854,
        -0.06370797008275986, -0.027023302391171455, 0.18076728284358978,
        -0.11291857808828354, -0.21288514137268066, -0.02432054840028286,
        -0.09570948779582977, 0.072613425552845, 0.1151200607419014,
        0.009156465530395508, 0.035030268132686615, 0.06819117814302444,
        -0.19911476969718933, 0.02388089895248413, -0.06599870324134827,
        -0.1278640329837799, 0.008792468346655369, 0.03184223547577858,
        -0.11481165140867233, -0.02769160084426403, -0.07097967714071274,
        0.19044563174247742, 0.047311507165431976, 0.0677538588643074,
        0.10419203341007233, -0.07980942726135254, -0.18916462361812592,
        -0.017537591978907585, -0.013760827481746674, -0.03143167868256569,
        -0.10875493288040161, -0.047787804156541824, 0.03327500447630882,
        0.01239642221480608, -0.06796745210886002, -0.046193286776542664,
        -0.24422413110733032, -0.08206316083669662, -0.07271731644868851,
        -0.03485562652349472, 0.14557494223117828, 0.13402900099754333,
        0.08685147762298584, 0.02632712945342064, -0.010572168976068497,
        0.049404434859752655, 0.05123834311962128, -0.04842717945575714,
        0.03258199244737625, -0.032345887273550034, 0.028974387794733047,
        0.005789248738437891, 0.08136140555143356, -0.021245062351226807,
        -0.01630708947777748, -0.04903140291571617, -0.10715086758136749,
        0.09205615520477295, 0.07306305319070816, 0.0013341293670237064,
        0.02756032906472683, 0.2507055401802063, 0.0567137785255909,
        -0.024114424362778664, -0.10046365857124329, -0.2912799119949341,
        -0.04593577980995178, -0.007507074158638716, 0.022970983758568764,
        -0.1799623817205429, 0.11608214676380157, -0.029820643365383148,
        0.08418024331331253, -0.02457687072455883, 0.21898899972438812,
        0.11377684772014618, -0.09360747784376144, 0.07590040564537048,
        0.07115761935710907, 0.04217861220240593, 0.11563629657030106,
        0.02285834774374962, -0.11603502184152603, -0.0692845806479454,
        0.11197365820407867, 0.02904115989804268, -0.040736425668001175,
        -0.09389640390872955, 0.2741806209087372, -0.0038527152501046658,
        0.1468888521194458, -0.13295380771160126, -0.19033412635326385,
        -0.14136193692684174, -0.006913269869983196, -0.13383030891418457,
        0.027424754574894905, 0.10901951044797897, -0.08902432024478912,
        -0.038052748888731, 0.057351239025592804, 0.07622168213129044,
        -0.27831408381462097, -0.14386294782161713, -0.13480843603610992,
        0.031058402732014656, 0.06176237016916275, 0.1414071023464203,
        -0.0832054540514946, 0.11260750889778137, -0.08771450817584991,
        -0.09562861919403076, 0.08757496625185013, 0.07306839525699615,
        0.030771713703870773, -0.014529290609061718, 0.04760923609137535,
        0.0932755395770073, 0.11540687829256058, -0.0034432969987392426,
        0.24030651152133942, 0.18468691408634186, 0.16927790641784668,
        0.09889931976795197, 0.11031508445739746, 0.0797114148736,
        0.03207330033183098, -0.026639603078365326, 0.004143384285271168,
        -0.1949184387922287, 0.12631601095199585, 0.0780467838048935,
        -0.10957115888595581, -0.10778319835662842, 0.16957415640354156,
        -0.06813164800405502, 0.08467480540275574, 0.16185863316059113,
        -0.03760850057005882, 0.12762504816055298, -0.15265081822872162,
        0.08011125773191452, -0.007477531209588051, -0.14090074598789215,
        -0.09491445124149323, -0.06602896749973297, 0.04043719917535782,
        -0.09045766294002533, 0.051518406718969345, 0.1456921398639679,
        0.2139015942811966, 0.1276472955942154, -0.18289466202259064,
        0.06548643112182617, -0.04184233397245407, 0.18637968599796295,
        0.09641274809837341, -0.0337713249027729, 0.013798477128148079,
        -0.15350617468357086, -0.059947188943624496, 0.053806450217962265,
        -0.1352674663066864, -0.23118841648101807, -0.1527968943119049,
        0.022636057808995247, 0.10018961876630783, 0.06485236436128616,
        0.11994893848896027, 0.01016833446919918, 0.11224014312028885,
        -0.045527245849370956, 0.11925868690013885, -0.02544078603386879,
        -0.046721525490283966, 0.013209833763539791, 0.02244013547897339,
        -0.06202444061636925, -0.12228123098611832, -0.012089633382856846,
        -0.0796060785651207, -0.15538360178470612, 0.07346870005130768,
        0.057040985673666, -0.047744203358888626, 0.07136638462543488,
        0.0009521447937004268, 0.18296833336353302, 0.044441886246204376,
        -0.22029560804367065, -0.11200299113988876, -0.03970573842525482,
        0.1499725580215454, 0.009718415327370167, 0.2287476807832718,
        0.15102049708366394, 0.06907030194997787, -0.041720062494277954,
        -0.037130165845155716, 0.14060138165950775, 0.022686762735247612,
        0.13654179871082306, 0.03805283084511757, -0.03033076599240303,
        0.13474348187446594, 0.19390763342380524, -0.03009730577468872,
        0.0035861986689269543, -0.1542520523071289, -0.20558086037635803,
        0.029257453978061676, 0.03465043008327484, 0.16005252301692963,
        -0.17548540234565735, 0.07033521682024002, -0.0921037495136261,
        -0.015084296464920044, -0.09606122225522995, -0.09424956142902374,
        0.029398050159215927, -0.02053140103816986, -0.04056650400161743,
        -0.032799795269966125, -0.08305642008781433, -0.018280019983649254,
        -0.0110861174762249, -0.013878137804567814, -0.011056937277317047,
        -0.06721673160791397, 0.09270886331796646, 0.15072844922542572,
        0.009312707930803299, -0.07305329293012619, -0.05265576392412186,
        0.03281698748469353, -0.009188970550894737, 0.006298304535448551,
        -0.204762265086174, 0.0739871934056282, 0.18645304441452026,
        0.08964455127716064, -0.0762152150273323, 0.06526381522417068,
        0.07531686127185822, 0.04067354276776314, 0.24891984462738037,
        0.08537773042917252, 0.15648424625396729, -0.005417029373347759,
        -0.14092156291007996, -0.12674139440059662, 0.09484847635030746,
        0.02301236242055893, 0.045717112720012665, -0.1467098742723465,
        0.014605381526052952, 0.07847071439027786, -0.20746052265167236,
        0.03857807070016861, -0.11719784140586853, -0.06842193007469177,
        0.02996702492237091, 0.07215550541877747, 0.22325825691223145,
        0.21677246689796448, 0.2771020829677582, 0.023095866665244102,
        0.09579776972532272, -0.09405680000782013, -0.04732091724872589,
        -0.1210988387465477, 0.23287327587604523, -0.25159338116645813,
        -0.09687584638595581, -0.015112563967704773, -0.05924345925450325,
        -0.09900400042533875, -0.08494994044303894, -0.1225532665848732,
        -0.03950793296098709, -0.07249881327152252, 0.03870983421802521,
        0.03404238820075989, 0.2565977871417999, 0.18872515857219696,
        -0.1326463520526886, -0.009006801061332226, -0.09221255034208298,
        -0.18447443842887878, -0.10443612933158875, 0.026972312480211258,
        0.019821593537926674, -0.08337333053350449, 0.05250925198197365,
        0.00646200543269515, -0.039419565349817276, 0.10080695897340775,
        0.0931406170129776, 0.0900292620062828, -0.031188346445560455,
        0.15011049807071686, -0.07177167385816574, -0.023730821907520294,
        -0.07757183909416199, 0.059495627880096436, -0.03939158841967583,
        0.014957677572965622, -0.016536802053451538, 0.04506566375494003,
        0.08032992482185364, -0.13570009171962738, -0.24420706927776337,
        -0.042427320033311844, 0.1186598688364029, -0.14999030530452728,
        -0.1773732453584671, -0.030750153586268425, -0.014573684893548489,
        -0.06106289103627205, -0.07613831013441086, -0.10789645463228226,
        -0.021143615245819092, -0.035582348704338074, 0.07360634207725525,
        -0.07048198580741882, 0.16358838975429535, 0.17566150426864624,
        0.03789786994457245, -0.025566311553120613, 0.15535405278205872,
        0.030614424496889114, -0.1382177174091339, -0.1992895007133484,
        0.04944533854722977, 0.01460152119398117, -0.15452782809734344,
        -0.02827531471848488, 0.15555810928344727, -0.08352199196815491,
        0.04954120144248009, 0.22673292458057404, -0.06310290843248367,
        0.11489163339138031, 0.3061346113681793, 0.0018870967905968428,
        -0.03297337144613266, 0.10344237089157104, 0.0330391563475132,
        -0.003242210252210498, 0.20658963918685913, 0.07287118583917618,
        -0.08928316831588745, 0.1551772505044937, 0.1670500636100769,
        0.1277250051498413, -0.10901152342557907, -0.12868373095989227,
        0.05704210698604584, 0.04305049031972885, 0.0016443539643660188,
        0.04477574676275253, 0.15022657811641693, -0.007972164079546928,
        0.013889333233237267, 0.010298688896000385, 0.0745706707239151,
        -0.04518160969018936, 0.13107919692993164, -0.04713863506913185,
        -0.020243898034095764, 0.005641693249344826, -0.021752508357167244,
        -0.14323173463344574, 0.07662630081176758, -0.13101539015769958,
        -0.1370619684457779, -0.09956403821706772, -0.17093151807785034,
        0.08696285635232925, 0.1046622097492218, -0.16672615706920624,
        -0.03576205298304558, 0.08933799713850021, 0.14671432971954346,
        -0.04212566837668419, 0.0652875155210495, 0.049885448068380356,
        0.06292755901813507, -0.09530210494995117, 0.1996200531721115,
        0.04274464771151543, 0.23177288472652435, -0.15961593389511108,
        -0.08434341847896576, 0.08316364884376526, 0.1459890455007553,
        -0.11858157068490982, 0.04318223148584366, -0.017909610643982887,
        -0.14917035400867462, 0.08049239218235016, 0.19592246413230896,
        0.06974291056394577, -0.004996642004698515, 0.02990127168595791,
        -0.05383836850523949, -0.0735994353890419, -0.04146192595362663,
        0.009951785206794739, -0.14277209341526031, 0.1775578409433365,
        -0.07225939631462097, 0.008299979381263256, -0.08794756233692169,
        0.017490141093730927, -0.0342111699283123, -0.01561750564724207,
        -0.06161557137966156, -0.03456001356244087, 0.018601076677441597,
        0.023422125726938248, -0.119329534471035, -0.1202116534113884,
        -0.05176583677530289, -0.2429707646369934, -0.08613291382789612,
        0.010205469094216824, 0.12165576964616776, 0.2194821685552597,
        -0.04953177273273468, -0.15465736389160156, 0.08154423534870148,
        0.11567025631666183, 0.09899204969406128, -0.007372381165623665,
        -0.09403934329748154, -0.1118866503238678, -0.0629398375749588,
        -0.13774921000003815, 0.1647810935974121, 0.1886642575263977,
        0.04722209274768829, 0.013661409728229046, 0.07072238624095917,
        0.10051140189170837, -0.029405442997813225, -0.07183458656072617,
        -0.06729317456483841, -0.07666413486003876, -0.042831361293792725,
        -0.014295035973191261, -0.11152009665966034, 0.10024682432413101,
        0.2447642832994461, 0.11855501681566238, -0.1157800704240799,
        0.13032282888889313, -0.20618343353271484, -0.08474069833755493,
        0.06501608341932297, -0.053878284990787506, 0.12811295688152313,
        -0.25578731298446655, 0.0894375890493393, -0.05450059100985527,
        -0.04341703653335571, -0.13526099920272827, 0.17015421390533447,
        0.0987396240234375, 0.04789061099290848, -0.02956140600144863,
        -0.007191433105617762, -0.019345596432685852, -0.038795050233602524,
        -0.26911962032318115, 0.1823756843805313, -0.002074434654787183,
        0.1157744824886322, -0.06077198311686516, -0.10138505697250366,
        -0.022211605682969093, 0.06969380378723145, 0.005828394088894129,
        0.10596802085638046, 0.011727983132004738, 0.06351234763860703,
        0.039081037044525146, 0.015234103426337242, -0.09461003541946411,
        -0.14650402963161469, -0.10447642207145691, 0.14838047325611115,
        0.15782149136066437, 0.08347047120332718, 0.09086808562278748,
        -0.03312282636761665, 0.024497227743268013, 0.23152855038642883,
        0.039280496537685394, -0.049390941858291626, -0.0729808583855629,
        0.0007984965341165662, -0.03964949771761894, -0.07252711802721024,
        -0.16756434738636017, -0.05887611210346222, -0.0010699564591050148,
        -0.019905656576156616, -0.0959552526473999, 0.1057141050696373,
        0.09494201093912125, 0.18805024027824402, 0.07888229191303253,
        0.10181289911270142, 0.17427322268486023, -0.08526381105184555,
        0.021206673234701157, 0.12621845304965973, 0.032125670462846756,
        0.039209626615047455, 0.055065471678972244, -0.01663150265812874,
        0.3107905387878418, -0.2201962023973465, 0.19970154762268066,
        -0.022855244576931, 0.13054189085960388, 0.04476390406489372,
        -0.20563533902168274, -0.2550843060016632, 0.17417989671230316,
        0.026509929448366165, -0.08607182651758194, 0.10536742210388184,
        0.1666063368320465, 0.1277923882007599, 0.052492909133434296,
        -0.05737123638391495, 0.10031944513320923, -0.1340903490781784,
        0.09820573776960373, 0.08713681995868683, -0.039445970207452774,
        0.25594767928123474, 0.059659332036972046, 0.020630089566111565,
        0.19309304654598236, -0.013928253203630447, -0.24649222195148468,
        -0.06476053595542908, -0.15802983939647675, 0.11270969361066818,
        0.04347337409853935, -0.06721346825361252, -0.1424025297164917,
        0.32743582129478455, 0.0033892940264195204, 0.1108386442065239,
        0.12253148853778839, 0.07842518389225006, 0.03585211932659149,
        -0.22792451083660126, -0.08663412183523178, -0.00814560055732727,
        0.12838764488697052, -0.13904143869876862, 0.07928900420665741,
        0.09146885573863983, 0.0011609639041125774, 9.984061762224883e-5,
        -0.04706321284174919, 0.0155685069039464, -0.1507568508386612,
        0.047612667083740234, -0.20330451428890228, 0.14318008720874786,
        -0.09512209892272949, 0.14273637533187866, -0.00358187616802752,
        -0.05708197131752968, -0.06260796636343002, 0.10481006652116776,
        -0.0188145749270916, -0.009964299388229847, -0.05451088771224022,
        0.10896536707878113, 0.010531616397202015, 0.028864724561572075,
        -0.13224397599697113, -0.07608619332313538, 0.05566476285457611,
        -0.08194322139024734, 0.04663439467549324, 0.09156372398138046,
        -0.04354812949895859, 0.027745692059397697, 0.007376568857580423,
        0.18004652857780457, -0.06017431989312172, -0.0866301953792572,
        -0.06582193076610565, -0.02217281050980091, -0.1454313099384308,
        0.04200339689850807, 0.038971658796072006, 0.11611165851354599,
        0.015475458465516567, 0.013095389120280743, -0.04701435565948486,
        -0.20509755611419678, 0.04270831122994423, 0.03361663594841957,
        -0.050651632249355316, -0.01195510569959879, 0.1570395827293396,
        -0.0762229934334755, 0.07400371879339218, -0.0920206680893898,
        -0.015379279851913452, -0.015935657545924187, -0.1514420062303543,
        0.05496469885110855, 0.04418998211622238, 0.02830253541469574,
        0.04986703768372536, -0.11003226786851883, 0.01756999082863331,
        0.02325713075697422, -0.1229175552725792, 0.02368880994617939,
        0.0009842131985351443, 0.026333985850214958, -0.16961057484149933,
        0.03168633580207825, 0.10319792479276657, -0.023262817412614822,
        -0.003211663570255041, -0.09083351492881775, -0.005615208763629198,
        -0.023716187104582787, 0.06213030219078064, 0.1810874044895172,
        0.11068601906299591, 0.0867365226149559, -0.07641337066888809,
        -0.05549329146742821, 0.02341499738395214, 0.09563793987035751,
        0.08343976736068726, 0.1273956596851349, 0.030102595686912537,
        0.18637347221374512, -0.07188292592763901, -0.01754135452210903,
        0.1845589429140091, -0.022463085129857063, 0.06486398726701736,
        0.20487608015537262, -0.046372007578611374, 0.17773351073265076,
        -0.09853615611791611, 0.026959186419844627, -0.0003178794286213815,
        -0.035780034959316254, -0.01749691739678383, -0.06623513251543045,
        0.2301686555147171, 0.09708718210458755, -0.11311999708414078,
        0.0416761077940464, -0.06846122443675995, 0.05673585832118988,
        -0.023732205852866173, -0.02955855429172516, -0.08389324694871902,
        -0.0939377024769783, -0.0869167372584343, 0.18346726894378662,
        -0.1615632027387619, 0.036111947149038315, 0.010585160925984383,
        0.05487138032913208, -0.18429899215698242, 0.060810815542936325,
        0.04719557240605354, 0.00845335703343153, -0.08254335820674896,
        -0.18643362820148468, -0.09832549095153809, -0.10127520561218262,
        0.015944328159093857, -0.09292539954185486, 0.15605995059013367,
        -0.011063870042562485, 0.053130943328142166, -0.037111349403858185,
        0.04031465947628021, -0.0657525360584259, -0.1416529268026352,
        -0.07110974192619324, 0.14492309093475342, -0.02217511087656021,
        0.019869109615683556, 0.22338838875293732, 0.11307904124259949,
        -0.022116761654615402, 0.13825900852680206, 0.06548602133989334,
        -0.0609787181019783, 0.06549486517906189, 0.0346706360578537,
        -0.11395566910505295, 0.07303844392299652, -0.09225991368293762,
        0.10587410628795624, 0.06214332580566406, -0.21112357079982758,
        0.10266196727752686, 0.06973560899496078, -0.036649733781814575,
        0.021691657602787018, -0.04282986372709274, 0.12212550640106201,
        0.022895313799381256, 0.10455332696437836, 0.11643752455711365,
        -0.022859249264001846, -0.12287689000368118, 0.08151749521493912,
        -0.06082002818584442, 0.2648971676826477, -0.024470744654536247,
        -0.025668038055300713, -0.04716210067272186, 0.07197048515081406,
        -0.2910754382610321, 0.20163726806640625, 0.13002577424049377,
        0.04867259040474892, -0.05542566999793053, -0.09355286508798599,
        -0.08925206959247589, 0.027216561138629913, -0.13700100779533386,
        -0.07347853481769562, -0.23810096085071564, 0.03088170662522316,
        -0.10388016700744629, 0.01647154614329338, -0.09561071544885635,
        -0.0404510572552681, -0.03085234947502613, -0.08693454414606094,
        0.047013986855745316, -0.024744603782892227, 0.044470541179180145,
        0.014793135225772858, -0.24120377004146576, 0.06722094863653183,
        -0.1286264955997467, -0.03514168784022331, 0.09473336488008499,
        -0.08339139074087143, 0.11759579926729202, -0.10456173866987228,
        0.05174822732806206, 0.004100361373275518, -0.11877347528934479,
        -0.0436643585562706, -0.08562203496694565, -0.005903037264943123,
        0.12319786846637726, -0.02715611457824707, 0.2386414110660553,
        -0.15566132962703705, 0.04286515340209007, -0.00813039019703865,
        0.18814536929130554, -0.07524074614048004, -0.032093703746795654,
        -0.04409642145037651, 0.046934425830841064, -0.12882249057292938,
        0.07345831394195557, 0.049183618277311325, 0.04351549595594406,
        -0.003047822043299675, -0.08335231244564056, -0.01051719393581152,
        -0.1460941582918167, 0.15620608627796173, -0.07353655993938446,
        -0.027017923071980476, 0.16696882247924805, -0.006119191646575928,
        0.16926589608192444, 0.019983848556876183, 0.11404579132795334,
        0.07591377943754196, 0.09979700297117233, -0.19149555265903473,
        -0.13943170011043549, 0.05778749659657478, -0.10448388010263443,
        0.17311176657676697, 0.07253897190093994, 0.07743307203054428,
        -0.039801906794309616, -0.1975870281457901, -0.15062952041625977,
        -0.0741109773516655, -0.12227493524551392, 0.09218019992113113,
        -0.053261689841747284, -0.06320825219154358, -0.014669560827314854,
        -0.03466229885816574, -0.0211030300706625, 0.03434917703270912,
        0.07674854248762131, 0.1258111298084259, -0.19853828847408295,
        -0.40948233008384705, -0.019818240776658058, -0.004276714287698269,
        0.007432541344314814, -0.09445924311876297, 0.08131663501262665,
        -0.061502303928136826, -0.011461217887699604, 0.18403850495815277,
        0.12675505876541138, -0.11502670496702194, 0.14499180018901825,
        -0.04293433949351311, -0.0044472711160779, 0.13101930916309357,
        0.012386765331029892, 0.17977112531661987, 0.05202300101518631,
        0.261658638715744, 0.021162116900086403, -0.09261579066514969,
        0.03385555371642113, 0.055622391402721405, 0.12167120724916458,
        0.10964647680521011, 0.002791314385831356, -0.025820178911089897,
        0.01741812378168106, 0.036866527050733566, 0.03767148032784462,
        -0.1520613729953766, -0.16214445233345032, 0.1039319634437561,
        -0.15743044018745422, 0.05090082064270973, 0.021956276148557663,
        -0.00923373457044363, -0.021301796659827232, -0.194876566529274,
        -0.09987694770097733, -0.13843780755996704, -0.053813908249139786,
        0.032727211713790894, 0.10150854289531708, 0.09447750449180603,
        -0.11190006136894226, 0.19082655012607574, 0.047359660267829895,
        -0.08363207429647446, 0.07142721116542816, -0.1038331612944603,
        0.04787169769406319, 0.0702144056558609, -0.016696732491254807,
        -0.05708067864179611, -0.13703742623329163, -0.05822986736893654,
        -0.04976580664515495, 0.07028192281723022, -0.10724740475416183,
        0.07301310449838638, 0.04472701996564865, -0.07135086506605148,
        -0.020228125154972076, 0.0021839626133441925, 0.038201313465833664,
        0.05762283131480217, 0.20406770706176758, -0.16577112674713135,
        0.09034764021635056, -0.07707800716161728, -0.2958889603614807,
        -0.07916757464408875, 0.18021349608898163, -0.03323455527424812,
        -0.054049354046583176, 0.1847863644361496, 0.035974714905023575,
        0.07668321579694748, -0.052180543541908264, 0.11280563473701477,
        0.020817022770643234, -0.10825476050376892, 0.1472291350364685,
        0.013473916798830032, 0.2256891280412674, -0.22733451426029205,
        -0.04933531582355499, 0.10239105671644211, 0.023156816139817238,
        -0.01888413541018963, -0.0479123480618, -0.0277972761541605,
        -0.015445643104612827, -0.002920086495578289, 0.20493987202644348,
        0.18175789713859558, 0.1079154685139656, 0.0619710274040699,
        0.08959321677684784, -0.12624822556972504, -0.07439875602722168,
        0.03818643093109131, -0.0019801142625510693, -0.09453904628753662,
        -0.07353268563747406, -0.19872526824474335, -0.03178677707910538,
        -0.08326613157987595, 0.1313072293996811, -0.04593892768025398,
        0.028614401817321777, -0.02062750980257988, 0.06183948740363121,
        0.04316001012921333, 0.04942457750439644, 0.1655748039484024,
        -0.11757909506559372, -0.048989687114953995, -0.009879966266453266,
        -0.06556499749422073, -0.08936022967100143, 0.09564876556396484,
        -0.09475208073854446, 0.11423073709011078, -0.06162869557738304,
        -0.08665148168802261, -0.054665543138980865, 0.060755856335163116,
        -0.10843627154827118, -0.19013752043247223, 0.21306112408638,
        0.0548052042722702, -0.09570849686861038, -0.06314541399478912,
        -0.06891907006502151, -0.08132393658161163, -0.007951885461807251,
        0.020805949345231056, -0.09136126190423965, -0.1981225162744522,
        0.01828649267554283, 0.009917755611240864, 0.03144298866391182,
        0.08341063559055328, 0.08623246848583221, 0.0561857745051384,
        0.036796752363443375, 0.11896274238824844, 0.013059690594673157,
        0.03666183724999428, -0.21013307571411133, -0.14142335951328278,
        -0.015190116129815578, 0.2414219230413437, -0.1866598129272461,
        0.11801574379205704, 0.058280762284994125, 0.14826138317584991,
        -0.2897699475288391, -0.019588841125369072, -0.12487030774354935,
        -0.11646478623151779, -0.012191727757453918, -0.01416768692433834,
        -0.12246565520763397, -0.0926450863480568, -0.08468551188707352,
        0.08422674238681793, 0.274809867143631, 0.039902959018945694,
        0.20610423386096954, -0.09236066788434982, -0.11552920937538147,
        -0.19685021042823792, -0.11527682095766068, 0.19909483194351196,
        -0.02121167816221714, 0.12314805388450623, -0.0447009801864624,
        -0.06915230304002762, 0.015185011550784111, 0.00445819366723299,
        -0.061868637800216675, 0.12900003790855408, -0.043350256979465485,
        0.057795293629169464, -0.07032030075788498, 0.005359591916203499,
        0.0796828493475914, 0.10378661006689072, 0.18371446430683136,
        -0.06144438683986664, -0.0352376326918602, 0.07885241508483887,
        -0.09869895130395889, 0.021865783259272575, -0.011442333459854126,
        0.03781002759933472, 0.12577204406261444, 0.08197502046823502,
        -0.0041833845898509026, 0.08354167640209198, 0.05955848470330238,
        -0.2274710237979889, -0.043513596057891846, 0.0099281445145607,
        -0.025735877454280853, 0.01522103138267994, 0.05007486045360565,
        -0.12263309955596924, 0.04619215428829193, 0.0032034211326390505,
        0.25116875767707825, 0.15159325301647186, 0.08581028878688812,
        0.05142609775066376, 0.052409715950489044, 0.10693490505218506,
        -0.006907494273036718, -0.1648980677127838, -0.17052124440670013,
        -0.10735795646905899, 0.021934162825345993, -0.01062211487442255,
        -0.019614312797784805, 0.1230335608124733, 0.19065351784229279,
        0.06282643973827362, 0.027058744803071022, 0.19705092906951904,
        -0.24729782342910767, -0.03293854370713234, -0.11236746609210968,
        -0.07835396379232407, -0.06546907126903534, -0.008546312339603901,
        -0.06490036845207214, 0.013929640874266624, -0.038958851248025894,
        0.15875361859798431, 0.16553929448127747, 0.12306366115808487,
        0.2840002477169037, -0.057778239250183105, -0.051255468279123306,
        -0.29587092995643616, 0.13202005624771118, 0.09789079427719116,
        -0.07900384068489075, -0.029425406828522682, 0.05277416110038757,
        -0.08560709655284882, -0.01604658178985119, 0.048169348388910294,
        0.047465983778238297, -0.06037021055817604, 0.034747395664453506,
        -0.14899808168411255, -0.0014610652578994632, -0.03390438109636307,
        -0.06205614283680916, 0.004352864343672991, -0.027266057208180428,
        -0.082863949239254, 0.08618228882551193, 0.2556372582912445,
        0.12484525144100189, -0.036224234849214554, -0.1499428004026413,
        -0.035337064415216446, 0.036440785974264145, 0.08538740873336792,
        -0.038383848965168, 0.028103193268179893, -0.08956120163202286,
        -0.07131972908973694, -0.023495156317949295, -0.017577234655618668,
        -0.08818033337593079, 0.06404650956392288, 0.08502253890037537,
        -0.009285793639719486, -0.011833623051643372, 0.031155988574028015,
        -0.2841930687427521, -0.00022016360890120268, 0.1615598201751709,
        -0.017273839563131332, 0.11441517621278763, 0.0539480596780777,
        -0.12173257023096085, 0.2506740689277649, 0.05740468204021454,
        0.062128227204084396, 0.11658231168985367, 0.13100546598434448,
        0.09418993443250656, 0.029355432838201523, -0.06153343990445137,
        0.056415390223264694, 0.22283241152763367, -0.011355581693351269,
        -0.046450261026620865, 0.12720587849617004, -0.04450191929936409,
        0.10242259502410889, 0.14699490368366241, -0.07394139468669891,
        0.15333813428878784, 0.1590242087841034, -0.050936948508024216,
        -0.01006572786718607, -0.04549964517354965, -0.0022478655446320772,
        0.012538800947368145, 0.10571825504302979, 0.21185614168643951,
        0.15981429815292358, 0.10930842161178589, -0.05397401377558708,
        0.029148515313863754, 0.01751786470413208, 0.04555202275514603,
        -0.05434548854827881, 0.14631947875022888, 0.05333329737186432,
        -0.1008320227265358, 0.09975244104862213, 0.0296112522482872,
        -0.09429644793272018, 0.03840132802724838, 0.11219708621501923,
        -0.02182762697339058, 0.07818465679883957, -0.028948556631803513,
        -0.04435775429010391, 0.05022948980331421, -0.0468011349439621,
        0.03740604221820831, -0.06393551826477051, -0.05426662787795067,
        -0.25242331624031067, 0.10298358649015427, -0.07392258197069168,
        0.023813799023628235, 0.09443707019090652, -0.10834089666604996,
        0.10723783820867538, 0.06003882735967636, -0.1369832307100296,
        -0.04359087347984314, -0.11744460463523865, -0.08427480608224869,
        -0.07575172185897827, 0.07249975204467773, -0.1863023042678833,
        0.13284315168857574, 0.01765899360179901, -0.31656602025032043,
        -0.05992455035448074, 0.11868055164813995, 0.06073591485619545,
        -0.0032070011366158724, 0.027088530361652374, -0.02601819671690464,
        0.12583640217781067, 0.03589920699596405, 0.07822495698928833,
        0.08142002671957016, 0.22687827050685883, -0.15699723362922668,
        -0.18336530029773712, 0.05405785143375397, -0.10207551717758179,
        -0.017039572820067406, -0.0015055055264383554, -0.18391576409339905,
        -0.05865243822336197, 0.22474098205566406, 0.03142677620053291,
        -0.07162228971719742, -0.05556594580411911, 0.022931180894374847,
        -0.0006332471966743469, -0.14380179345607758, -0.012649033218622208,
        0.15836772322654724, 0.007373876869678497, -0.06154485419392586,
        -0.07762221992015839, -0.2553658187389374, -0.14264841377735138,
        -0.17759086191654205, 0.0747460424900055, 0.047262415289878845,
        -0.09003221988677979, -0.0203445702791214, 0.011271033436059952,
        0.028123069554567337, -0.06360598653554916, -0.14872394502162933,
        0.08601699769496918, 0.05095783248543739, -0.15041832625865936,
        -0.014864510856568813, 0.09997506439685822, -0.12169454246759415,
        -0.06971569359302521, 0.035159800201654434, -0.1234823614358902,
        0.0046819350682199, -0.12451870739459991, 0.20286789536476135,
        0.050597187131643295, -0.003300835844129324, 0.01689746230840683,
        0.06515613943338394, -0.04913092777132988, -0.20526491105556488,
        -0.014773842878639698, -0.07744263857603073, 0.12048345804214478,
        0.030638443306088448, -0.052536703646183014, 0.16631849110126495,
        -0.056516993790864944, 0.06359624117612839, 0.06382980197668076,
        -0.02908375859260559, -0.1241796463727951, -0.06694737076759338,
        -0.0335274375975132, -0.11469467729330063, -0.02489415742456913,
        0.06540271639823914, 0.21448580920696259, -0.034774795174598694,
        0.24661463499069214, 0.027276376262307167, 0.026764491572976112,
        0.060714587569236755, 0.1110619381070137, -0.023418407887220383,
        -0.055871203541755676, -0.09156177192926407, -0.05537211149930954,
        -0.006428888067603111, 0.029721366241574287, -0.16273918747901917,
        0.12250140309333801, 0.11990488320589066, -0.027262602001428604,
        -0.06940055638551712, 0.004635820165276527, 0.19957084953784943,
        0.1697271317243576, -0.2176675796508789, -0.19481173157691956,
        -0.019184689968824387, -0.2735062837600708, 0.1114559918642044,
        -0.023120291531085968, 0.15478995442390442, 0.07635190337896347,
        0.02857123129069805, -0.1865822672843933, 0.12506870925426483,
        -0.1080111563205719, -0.02636365219950676, 0.1534501165151596,
        -0.022167611867189407, 0.10993597656488419, 0.00043200846994295716,
        0.024519944563508034, 0.13229908049106598, -0.28094008564949036,
        -0.16028732061386108, 0.18109294772148132, 0.09962760657072067,
        0.05938084051012993, 0.1338481456041336, -0.012216582894325256,
        -0.0019399377051740885, 0.07857205718755722, 0.08710721135139465,
        -0.06098420172929764, -0.09051583707332611, 0.12068534642457962,
        0.12571550905704498, 0.07840494066476822, -0.16735322773456573,
        0.05024992674589157, -0.09678363800048828, 0.06946790963411331,
        0.09568963199853897, -0.059053923934698105, -0.06616730242967606,
        -0.1311710774898529, 0.048254843801259995, 0.04438265413045883,
        0.04999767988920212, -0.07696855068206787, 0.017732225358486176,
        0.06839722394943237, -0.22398246824741364, 0.054231833666563034,
        -0.08966735750436783, -0.14193399250507355, -0.00024360878160223365,
        0.06303955614566803, -0.004277215804904699, -0.1808549463748932,
        0.022483481094241142, -0.13788478076457977, 0.13105353713035583,
        0.005585069768130779, -0.1322079747915268, 0.10174467414617538,
        0.01620107889175415, -0.06986089795827866, -0.18957668542861938,
        0.007758944761008024, -0.0038975561037659645, -0.1385611593723297,
        -0.020100558176636696, -0.06031883880496025, -0.10877690464258194,
        -0.006828153971582651, -0.08007770776748657, 0.1597694307565689,
        0.15435992181301117, -0.12667237222194672, -0.09961800277233124,
        -0.003157017519697547, -0.09106079488992691, -0.11731673032045364,
        -0.1448068618774414, -0.1072508692741394, -0.06118198111653328,
        -0.06707023829221725, -0.11254359036684036, -0.10826486349105835,
        -0.013567877933382988, 0.05404117703437805, 0.11751911789178848,
        0.0740695372223854, -0.016795847564935684, 0.03275731950998306,
        0.03605116903781891, -0.05640597641468048, 0.14914293587207794,
        -0.04736793786287308, -0.10347296297550201, -0.07357806712388992,
        -0.20894400775432587, -0.004596295300871134, -0.09778041392564774,
        -0.16736777126789093, 0.20137497782707214, -0.0449942983686924,
        0.2130773514509201, 0.22221451997756958, -0.12054657191038132,
        -0.04488392546772957, 0.03317051753401756, -0.17712172865867615,
        0.06933098286390305, 0.07677364349365234, -0.18064682185649872,
        -0.08714313805103302, 0.20200058817863464, 0.04810943454504013,
        -0.08420911431312561, 0.07357808947563171, -0.08304053544998169,
        0.09055109322071075, -0.08675442636013031, -0.19285307824611664,
        0.10262994468212128, 0.12302549928426743, -0.04351199045777321,
        -0.03749720752239227, 0.04147818684577942, -0.039316870272159576,
        -0.043194763362407684, -0.15922050178050995, -0.0657857209444046,
        0.038755521178245544, -0.08237855136394501, 0.031197141855955124,
        0.06797073781490326, -0.1796102672815323, 0.07130897045135498,
        -0.024817703291773796, 0.11111408472061157, -0.0907091274857521,
        -0.05809637904167175, 0.02725883200764656, -0.15890531241893768,
        -0.03962766379117966, 0.033137451857328415, -0.007857673801481724,
        -0.1199909895658493, 0.0754750519990921, -0.08443146198987961,
        -0.09283392131328583, 0.11392634361982346, -0.08526511490345001,
        -0.0010712648509070277, -0.031578827649354935, 0.2804792523384094,
        -0.19565775990486145, -0.03686779737472534, 0.010743463411927223,
        0.11129715293645859, 0.10224896669387817, 0.11192430555820465,
        -0.11388745158910751, 0.11062910407781601, -0.02704458311200142,
        0.061841852962970734, 0.04824152961373329, -0.1621667444705963,
        -0.0016157313948497176, 0.03196291625499725, -0.045598722994327545,
        -0.06158659607172012, -0.13828139007091522, -0.14545543491840363,
        -0.05934401601552963, -0.12870000302791595, -0.015223906375467777,
        -0.13390439748764038, 0.01947726495563984, 0.003795437514781952,
        -0.010970479808747768, -0.020871831104159355, 0.13077802956104279,
        -0.12422173470258713, -0.030433641746640205, 0.04433082416653633,
        -0.058385733515024185, 0.05030430853366852, -0.01812785118818283,
        -0.18575473129749298, 0.014581821858882904, -0.026429058983922005,
        -0.04559902101755142, 0.14627815783023834, -0.015955179929733276,
        0.04027004912495613, 0.17661014199256897, -0.05386627838015556,
        0.03535482659935951, 0.03723003715276718, -0.07321935147047043,
        0.11303851753473282, 0.01113844383507967, 0.004522603005170822,
        0.08848574012517929, 0.102344810962677, 0.018871471285820007,
        0.01985788717865944, 0.07949566841125488, -0.02514341101050377,
        0.0813283622264862, 0.0749211385846138, 0.06281226128339767,
        0.1559630036354065, -0.014763901010155678, -0.012526975944638252,
        -0.12519793212413788, -0.19477292895317078, 0.11611542105674744,
        -0.03302787244319916, 0.06931035220623016, 0.17515751719474792,
        -0.0028707564342767, 0.021103210747241974, -0.09496898949146271,
        0.2193566858768463, -0.17603160440921783, 0.2380400002002716,
        -0.03822587803006172, 0.0892750546336174, 0.05097489431500435,
        0.34191983938217163, 0.13753408193588257, 0.10665149986743927,
        -0.02289741486310959, 0.13343040645122528, 0.2027379274368286,
        -0.033293187618255615, 0.03604975715279579, 0.0819646418094635,
        -0.14566262066364288, -0.025789018720388412, -0.07700647413730621,
        0.1205650195479393, -0.1766878068447113, 0.1605677306652069,
        -0.008867021650075912, 0.014188623987138271, 0.07227449119091034,
        0.02848656475543976, 0.0942227765917778, -0.14387795329093933,
        0.14413553476333618, -0.25130322575569153, 0.18572711944580078,
        0.1275847852230072, -0.04099390283226967, -0.023415355011820793,
        0.17924071848392487, -0.08748537302017212, -0.09559158980846405,
        -0.03483652323484421, -0.02316388115286827, 0.13340455293655396,
        -0.15615308284759521, -0.035058245062828064, 0.05098871514201164,
        -0.05375508964061737, -0.009895858354866505, 0.09791906923055649,
        -0.04813334345817566, 0.0967506393790245, 0.07125388085842133,
        -0.22516624629497528, 0.05508730560541153, -0.06930652260780334,
        0.1328558325767517, 0.019567985087633133, 0.03584185242652893,
        0.18890760838985443, 0.08487395942211151, 0.26531606912612915,
        0.04044026881456375, 0.22575049102306366, 0.01655510812997818,
        0.04501230642199516, -0.08353625982999802, 0.24558615684509277,
        0.38444364070892334, -0.014096545055508614, 0.22836565971374512,
        0.09077080339193344, 0.21808969974517822, -0.13214150071144104,
        -0.10011591017246246, -0.06575451791286469, -0.015445097349584103,
        0.30203473567962646, 0.06766116619110107, -0.06704044342041016,
        -0.013416565023362637, 0.01898312382400036, 0.13126510381698608,
        0.23278070986270905, -0.2002078890800476, -0.22475852072238922,
        0.02372204326093197, -0.06293819099664688, 0.12253157049417496,
        0.02008434757590294, -0.097211554646492, 0.006382254417985678,
        0.15061217546463013, 0.09252818673849106, 0.09841065853834152,
        0.05553463473916054, -0.06581039726734161, -0.022540291771292686,
        -0.07765550166368484, 0.07534633576869965, -0.04640892520546913,
        -0.10297264903783798, -0.18946067988872528, -0.01562408171594143,
        0.09242162853479385, 0.007696317508816719, 0.05988131836056709,
        -0.11903639882802963, 0.10018794983625412, -0.14882272481918335,
        -0.1411639153957367, -0.06110159307718277, 0.05008500814437866,
        -0.12479207664728165, 0.14545026421546936, -0.11122532188892365,
        0.12464172393083572, -0.08091486245393753, 0.05793391913175583,
        0.07788076996803284, 0.08142878860235214, 0.12257155030965805,
        -0.18054310977458954, -0.09911252558231354, 0.08664704859256744,
        -0.09836025536060333, 0.011166778393089771, -0.03168670833110809,
        0.055650681257247925, -0.12228891998529434, -0.06267300248146057,
        0.09115099906921387, 0.15122899413108826, -0.015485494397580624,
        0.01711312122642994, -0.05873188003897667, 0.011721118353307247,
        0.15173406898975372, -0.06818100064992905, 0.0638604611158371,
        -0.03695207089185715, 0.009159579873085022, -0.07020384073257446,
        -0.0855015441775322, 0.07147280126810074, -0.12430879473686218,
