{"structure_edges": [[-1, 0, 1], [-1, 1, 1], [-1, 2, 1], [-1, 3, 1], [-1, 4, 1], [-1, 5, 1]], "structure_weights": {"mu": [-2.5, -0.8333333333333335, 0.0, -2.5, -2.0833333333333335, 0.0, 0.0, -2.5, -0.8333333333333335, -1.6666666666666667, -0.8333333333333335, 0.0, -1.6666666666666667, -2.0833333333333335, 0.0, 0.0, -1.6666666666666667, -0.8333333333333335, -0.8333333333333335, -0.8333333333333335, 0.0, -0.8333333333333335, -2.0833333333333335, 0.0, 0.0, -0.8333333333333335, -0.8333333333333335, 0.0, -0.8333333333333335, 0.0, 0.0, -2.0833333333333335, 0.0, 0.0, 0.0, -0.8333333333333335, 0.833333333333333, -0.8333333333333335, 0.0, 0.833333333333333, -2.0833333333333335, 0.0, 0.0, 0.833333333333333, -0.8333333333333335, 1.666666666666667, -0.8333333333333335, 0.0, 1.666666666666667, -2.0833333333333335, 0.0, 0.0, 1.666666666666667, -0.8333333333333335, 0.0, 0.0, 0.0, 0.0, 0.0, 0.0, 0.0, 0.0, 0.0, 0.0, 0.0, 0.0, 0.0, 0.0, 0.0, 0.0, 0.0, 0.0, 0.0, 0.0, 0.0, 0.0, 0.0, 0.0, 0.0, 0.0, 0.0, 0.0, 0.0, 0.0, 0.0, 0.0, 0.0, 0.0, 0.0, 0.0, 0.0, 0.0, 0.0, 0.0, 0.0, 0.0, 0.0, 0.0, 0.0, 0.0, 0.0, 0.0, 0.0, 0.0, 0.0, 0.0, 0.0, 0.0, 0.0, 0.0, 0.0, 0.0, 0.0, 0.0, 0.0, 0.0, 0.0, 0.0, 0.0, 0.0, 0.0, 0.0, 0.0, 0.0, 0.0, 0.0, 0.0, 0.0, 0.0, 0.0, 0.0, 0.0, 0.0, 0.0, 0.0, 0.0, 0.0, 0.0, 0.0, 0.0, 0.0, 0.0, 0.0, 0.0, 0.0, 0.0, 0.0, 0.0, 0.0, 0.0, 0.0, 0.0, 0.0, 0.0, 0.0, 0.0, 0.0, 0.0, 0.0, 0.0, 0.0, 0.0, 0.0, 0.0, 0.0, 0.0, 0.0, 0.0, 0.0, 0.0, 0.0, 0.0, 0.0, 0.0, 0.0, 0.0, 0.0, 0.0, 0.0, 0.0], "sigma": [0.1, 0.1, 0.1, 0.1, 0.1, 0.1, 0.1, 0.1, 0.1, 0.1, 0.1, 0.1, 0.1, 0.1, 0.1, 0.1, 0.1, 0.1, 0.1, 0.1, 0.1, 0.1, 0.1, 0.1, 0.1, 0.1, 0.1, 0.1, 0.1, 0.1, 0.1, 0.1, 0.1, 0.1, 0.1, 0.1, 0.1, 0.1, 0.1, 0.1, 0.1, 0.1, 0.1, 0.1, 0.1, 0.1, 0.1, 0.1, 0.1, 0.1, 0.1, 0.1, 0.1, 0.1, 0.1, 0.1, 0.1, 0.1, 0.1, 0.1, 0.1, 0.1, 0.1, 0.1, 0.1, 0.1, 0.1, 0.1, 0.1, 0.1, 0.1, 0.1, 0.1, 0.1, 0.1, 0.1, 0.1, 0.1, 0.1, 0.1, 0.1, 0.1, 0.1, 0.1, 0.1, 0.1, 0.1, 0.1, 0.1, 0.1, 0.1, 0.1, 0.1, 0.1, 0.1, 0.1, 0.1, 0.1, 0.1, 0.1, 0.1, 0.1, 0.1, 0.1, 0.1, 0.1, 0.1, 0.1, 0.1, 0.1, 0.1, 0.1, 0.1, 0.1, 0.1, 0.1, 0.1, 0.1, 0.1, 0.1, 0.1, 0.1, 0.1, 0.1, 0.1, 0.1, 0.1, 0.1, 0.1, 0.1, 0.1, 0.1, 0.1, 0.1, 0.1, 0.1, 0.1, 0.1, 0.1, 0.1, 0.1, 0.1, 0.1, 0.1, 0.1, 0.1, 0.1, 0.1, 0.1, 0.1, 0.1, 0.1, 0.1, 0.1, 0.1, 0.1, 0.1, 0.1, 0.1, 0.1, 0.1, 0.1, 0.1, 0.1, 0.1, 0.1, 0.1, 0.1, 0.1, 0.1, 0.1, 0.1, 0.1, 0.1, 0.1, 0.1, 0.1, 0.1, 0.1, 0.1]}, "policy_weights": [-0.0600646510720253, 0.12608914077281952, 0.07059404999017715, -0.05479060113430023, 0.03168719261884689, -0.0830201581120491, 0.23341166973114014, -0.267427533864975, 0.1812359094619751, -0.008035215549170971, 0.13652214407920837, 0.16444361209869385, -0.125614196062088, -0.06285649538040161, -0.0671887993812561, -0.02506556361913681, -0.03595828264951706, -0.1106063723564148, -0.1726774126291275, 0.14854004979133606, -0.1500311940908432, 0.2766503095626831, -0.005815915297716856, -0.14129923284053802, 0.18403498828411102, -0.04695667698979378, 0.005732720252126455, -0.03161574527621269, 0.04170450568199158, -0.29193371534347534, -0.257100373506546, -0.22739408910274506, -0.05422777310013771, -0.04052426666021347, 0.3358766734600067, 0.1673239916563034, -0.14539045095443726, -0.195940300822258, 0.09200479090213776, -0.04568987339735031, -0.2721661925315857, -0.19145800173282623, 0.1131802424788475, -0.03960740193724632, -0.00678457785397768, 0.052537061274051666, -0.14701364934444427, -0.05058836191892624, 0.040886908769607544, -0.015448630787432194, -0.04659692943096161, 0.14086906611919403, 0.16993656754493713, 0.010910430923104286, 0.23796632885932922, -0.08621440827846527, 0.09140294045209885, 0.029436299577355385, 0.03763885423541069, 0.09997038543224335, 0.1103343665599823, 0.1329115927219391, 0.18250784277915955, 0.08184824138879776, 0.1552869826555252, 0.2613847851753235, -0.32839435338974, -0.24212810397148132, 0.2338620126247406, -0.22722649574279785, 0.12156205624341965, -0.04123351350426674, 0.050016529858112335, 0.1793823540210724, -0.25118374824523926, -0.01866418682038784, 0.10107927769422531, -0.30393216013908386, -0.14823085069656372, 0.2042054831981659, -0.19954314827919006, -0.18983939290046692, 0.10882459580898285, -0.18132857978343964, 0.2236916571855545, -0.016649574041366577, 0.20994366705417633, 0.07339879870414734, 0.06583131104707718, 0.02722954750061035, 0.23686634004116058, -0.10538967698812485, -0.15382593870162964, -0.1477985680103302, 0.07620158791542053, 0.1530696451663971, -0.18074968457221985, 0.19030657410621643, 0.016563359647989273, -0.18252454698085785, 0.07403524965047836, 0.3954715132713318, -0.25750604271888733, 0.23691010475158691, 0.04209244251251221, -0.10973367094993591, 0.16059336066246033, 0.0760883018374443, -0.04466768726706505, 0.06955035775899887, 0.11002055555582047, -0.2654857337474823, 0.10448034107685089, 0.00667814165353775, -0.08565703779459, -0.05731715261936188, 0.27641481161117554, -0.010423745028674603, -0.07658486068248749, -0.24884670972824097, -0.1258961707353592, 0.18263594806194305, -0.20682969689369202, -0.15022577345371246, -0.006358480080962181, -0.06623098999261856, -0.04201844334602356, -0.21328559517860413, -0.10666069388389587, -0.1048687994480133, 0.258896142244339, 0.13862162828445435, 0.14756354689598083, -0.14294615387916565, 0.050535283982753754, -0.10462925583124161, -0.06797981262207031, 0.2160385251045227, 0.02729729190468788, -0.19373947381973267, 0.10169371962547302, -0.12803585827350616, 0.05447617173194885, 0.2608540654182434, -0.07141251116991043, -0.11457651853561401, -0.3139597177505493, 0.24662725627422333, 0.08458520472049713, -0.12592555582523346, -0.047314610332250595, -0.05897150933742523, 0.05596105754375458, -0.2607153058052063, -0.04222805052995682, -0.03209471330046654, -0.12365607172250748, -0.027035271748900414, 0.19993232190608978, 0.046230267733335495, -0.19029341638088226, -0.32925689220428467, 0.002796272048726678, -0.09289242327213287, 0.04674264416098595, -0.1452275514602661, 0.07897518575191498, 0.048085685819387436, 0.05916786193847656, 0.21516458690166473, -0.09663960337638855, 0.0599142462015152, -0.1044473946094513, 0.1272328943014145, 0.2131342738866806, -0.16388018429279327, 0.026433544233441353, -0.10734857618808746, -0.1036471351981163, -0.1652078479528427, 0.03709118440747261, 0.21017058193683624, 0.05390369892120361, 0.08774664252996445, -0.212899848818779, -0.15246257185935974, -0.08533131331205368, -0.10382269322872162, 0.04756048321723938, -0.09635327756404877, -0.0034007830545306206, 0.13949322700500488, -0.022246528416872025, -0.06934936344623566, -0.08394233137369156, -0.016065720468759537, -0.06419669091701508, 0.010960876941680908, 0.2526857256889343, -0.1334526240825653, -0.07252462208271027, 0.022634917870163918, 0.1869370937347412, -0.23038369417190552, -0.22276067733764648, 0.07027800381183624, 0.24700996279716492, -0.00026075399364344776, 0.11470364034175873, 0.09508494287729263, 0.16487352550029755, 0.234922856092453, 0.03653448447585106, -0.1801781803369522, -0.20821568369865417, 0.32019805908203125, 0.23337316513061523, 0.1429557502269745, 0.029169997200369835, 0.11016107350587845, -0.042476072907447815, -0.04706067591905594, -0.1885593980550766, -0.12475591152906418, -0.2143837958574295, 0.011691302061080933, 0.21549516916275024, 0.20745161175727844, -0.3054661452770233, -0.058563392609357834, 0.2624148428440094, 0.35695725679397583, 0.06505925208330154, 0.08376065641641617, -0.02558034658432007, -0.035367291420698166, -0.07916119694709778, -0.01211297232657671, -0.07023532688617706, -0.3291418254375458, 0.09745391458272934, 0.14538145065307617, -0.028391707688570023, -0.4075168967247009, 0.10535994172096252, 0.15238045156002045, 0.1855768859386444, -0.18802586197853088, 0.08418180793523788, 0.13088250160217285, -0.06362316757440567, -0.07267235219478607, -0.18872767686843872, 0.10019341111183167, 0.06218082085251808, 0.005858051124960184, -0.2761989235877991, -0.002819779561832547, -0.04016987234354019, -0.05645771697163582, 0.07007680833339691, 0.1258970946073532, -0.21639227867126465, -0.20883092284202576, 0.04609258472919464, 0.11175280064344406, -0.25342026352882385, -0.18055883049964905, -0.07471524178981781, -0.08297277241945267, -0.02177612856030464, -0.39604225754737854, -0.2756458520889282, 0.028331421315670013, 0.2741664946079254, 0.07156336307525635, 0.1227182000875473, -0.050593554973602295, 0.2818921208381653, -0.03836316615343094, -0.1643294095993042, 0.23615236580371857, -0.03356490656733513, 0.16409295797348022, -0.19530196487903595, 0.14634667336940765, 0.07987307012081146, 0.09329143911600113, -0.1405639350414276, -0.19400644302368164, -0.06018327176570892, -0.042323511093854904, -0.07067826390266418, -0.12390893697738647, -0.12215942144393921, 0.03825502470135689, -0.18883690237998962, 0.12022478133440018, -0.03997711092233658, 0.034731216728687286, 0.17850469052791595, -0.058686599135398865, 0.05984463542699814, 0.007861210033297539, -0.3354577124118805, -0.11351636052131653, -0.23721535503864288, 0.0466596856713295, -0.37982356548309326, 0.18351060152053833, 0.08023131638765335, -0.12176214158535004, -0.1976587325334549, -0.1802714318037033, 0.007456441409885883, 0.024852033704519272, 0.20112711191177368, -0.18702396750450134, -0.008505739271640778, -0.3039950728416443, -0.018393734470009804, 0.10033479332923889, -0.005842029117047787, 0.013694043271243572, -0.1239408552646637, -0.23076149821281433, 0.2001275271177292, -0.13955099880695343, 0.059987038373947144, -0.21672983467578888, -0.05911540612578392, -0.043575432151556015, -0.20082983374595642, -0.0021263083908706903, -0.2821987569332123, 0.06958837807178497, 0.08119281381368637, -0.04586947709321976, 0.4309079349040985, -0.10811032354831696, 0.13288909196853638, -0.02969200722873211, 0.18204835057258606, -0.025988131761550903, 0.015775693580508232, -0.1837719976902008, 0.1365087330341339, -0.017147475853562355, 0.08490949124097824, -0.22419250011444092, -0.0832735076546669, -0.09921638667583466, 0.025988604873418808, -0.28456270694732666, 0.12815497815608978, 0.08076006919145584, 0.10681167989969254, -0.04194197803735733, 0.21035757660865784, 0.17266248166561127, -0.18114157021045685, -0.0644567683339119, 0.09099933505058289, 0.22550198435783386, 0.19445081055164337, 0.012762757018208504, 0.04960266128182411, 0.2768259644508362, -0.2815622091293335, 0.0015667564002797008, 0.1509181261062622, 0.05088702216744423, 0.031097348779439926, 0.33160367608070374, 0.03626810386776924, 0.2103673368692398, 0.22947761416435242, -0.029363734647631645, 0.03510091081261635, -0.18137972056865692, -0.11519888043403625, -0.23638677597045898, -0.22640040516853333, 0.2169388085603714, 0.22396796941757202, 0.026527665555477142, -0.05745609849691391, 0.19481554627418518, 0.2797579765319824, -0.09068729728460312, -0.10397512465715408, -0.01919056475162506, -0.0029266243800520897, -0.11072661727666855, 0.09241004288196564, 0.027326462790369987, 0.18175086379051208, -0.0016125331167131662, 0.10015852004289627, 0.1732538938522339, -0.26398274302482605, -0.035071805119514465, -0.06686568260192871, 0.21029043197631836, 0.06080237403512001, -0.010000340640544891, -0.13212049007415771, 0.06699652224779129, -0.21329361200332642, 0.12167200446128845, -0.13551142811775208, 0.05834328755736351, 0.18370577692985535, -0.07286640256643295, -0.13190679252147675, -0.2521137297153473, 0.006893835961818695, -0.062066566199064255, 0.14955268800258636, 0.1814478635787964, 0.014783034101128578, -0.04809374734759331, -0.35161685943603516, 0.01235764380544424, -0.021917250007390976, 0.05053272843360901, 0.23919717967510223, -0.08225996047258377, 0.24919454753398895, -0.025664595887064934, 0.1438119262456894, -0.03736673668026924, 0.21927866339683533, 0.2776445150375366, 0.09332095831632614, 0.1326986402273178, 0.09698106348514557, -0.001586594502441585, 0.2650115489959717, 0.23791490495204926, -0.07354585081338882, 0.229852557182312, 0.34808894991874695, 0.20319505035877228, 0.09313159435987473, -0.08569206297397614, 0.07335589081048965, 0.24041105806827545, -0.07937683165073395, -0.021682456135749817, -0.0255805104970932, 0.10664762556552887, 0.23085813224315643, 0.026959652081131935, 0.17209216952323914, -0.03528033569455147, 0.017770543694496155, 0.10099134594202042, 0.10380974411964417, -0.1038459837436676, -0.1815497875213623, -0.18781618773937225, -0.11642567068338394, 0.05242570489645004, -0.15639765560626984, 0.24329407513141632, -0.04900356009602547, -0.2315095216035843, 0.017850711941719055, -0.1416393220424652, -0.08829115331172943, -0.15823613107204437, -0.13276897370815277, 0.037102676928043365, 0.22509755194187164, 0.27788934111595154, -0.047798074781894684, 0.13407224416732788, -0.06896574795246124, 0.0012224693782627583, 0.1201302632689476, 0.23348554968833923, 0.07618940621614456, -0.11703741550445557, -0.26137882471084595, 0.1793280690908432, -0.07956798374652863, 0.1451108753681183, -0.15989921987056732, -0.05128893256187439, -0.30490341782569885, 0.03855841979384422, -0.23435689508914948, 0.11722218245267868, -0.09480458498001099, 0.0885767862200737, 0.024663889780640602, 0.03624604642391205, 0.08186652511358261, -0.03811078518629074, 0.042180608958005905, -0.15088210999965668, -0.11764775216579437, 0.22228574752807617, -0.06196248158812523, 0.05445806309580803, -0.13980256021022797, 0.00114228087477386, 0.12602995336055756, 0.15606357157230377, 0.08222132176160812, -0.16733986139297485, -0.015578240156173706, -0.05419746786355972, 0.15143580734729767, -0.082707978785038, -0.3050333559513092, -0.023306505754590034, 0.3731425702571869, 0.12464367598295212, 0.06617210060358047, -0.050242830067873, 0.16648520529270172, 0.020487746223807335, 0.016092488542199135, 0.01946253515779972, -0.06892915815114975, -0.14840412139892578, 0.1435309648513794, -0.06412920355796814, 0.10041605681180954, -0.06849484145641327, -0.23406943678855896, -0.05957484245300293, -0.19156251847743988, 0.34909799695014954, 0.011833594180643559, 0.03522071614861488, -0.2547627091407776, -0.015631645917892456, -0.009182577021420002, -0.12643976509571075, 0.0026636868715286255, 0.029622653499245644, 0.08052906394004822, 0.014752861112356186, -0.16001072525978088, 0.08417630940675735, 0.10994423925876617, 0.017564287409186363, 0.14052312076091766, 0.011453968472778797, 0.15332719683647156, 0.009173551574349403, -0.0821492075920105, 0.4588067829608917, 0.220562145113945, -0.10462145507335663, 0.09805259853601456, 0.2756893038749695, 0.08552147448062897, -0.1330474317073822, 0.26140502095222473, -0.10877279192209244, 0.07996681332588196, -0.11318138986825943, 0.08123865723609924, -0.09121454507112503, 0.03771478682756424, -0.001146709662862122, 0.3903588056564331, 0.053432613611221313, 0.2452949732542038, -0.12628173828125, -0.13208045065402985, -0.10719804465770721, 0.03792635351419449, 0.02923927642405033, 0.43925273418426514, 0.24853479862213135, -0.05750521272420883, 0.09849568456411362, 0.10029266774654388, 0.06882620602846146, -0.13894955813884735, 0.07747994363307953, 0.05430120974779129, -0.22835585474967957, -0.12356691807508469, 0.25002825260162354, -0.010906301438808441, 0.08230742812156677, 0.06998541206121445, -0.029155340045690536, 0.07559759169816971, 0.13627874851226807, -0.23754024505615234, 0.08709975332021713, -0.12828782200813293, 0.15733690559864044, 0.28823143243789673, -0.013534672558307648, -0.007283941842615604, 0.06402653455734253, 0.14149333536624908, 0.06356006115674973, -0.024961421266198158, -0.1351703405380249, -0.38055601716041565, -0.3292943835258484, -0.15085788071155548, -0.05011022463440895, 0.1950889527797699, 0.17344467341899872, -0.015081940218806267, 0.08659929782152176, 0.03814919292926788, -0.08893178403377533, -0.17412027716636658, 0.03381812572479248, -0.132267028093338, -0.06880568712949753, 0.10861515253782272, -0.47541898488998413, -0.015173663385212421, -0.12971749901771545, -0.1319439858198166, 0.009240889921784401, -0.1475733071565628, -0.008085711859166622, -0.19681863486766815, 0.1291869729757309, -0.1527784764766693, -0.07033553719520569, 0.23845215141773224, -0.020791612565517426, 0.16231252253055573, -0.06575276702642441, -0.09870614856481552, 0.11810564249753952, 0.12522996962070465, 0.18241503834724426, 0.2799284756183624, -0.2661098539829254, 0.2158832550048828, -0.033462926745414734, -0.08303202688694, 0.010629015043377876, 0.19245871901512146, 0.09287968277931213, 0.2505577504634857, -0.2061695009469986, 0.14108464121818542, 0.2522631585597992, -0.029165254905819893, -0.07490254193544388, -0.10739097744226456, 0.15915484726428986, -0.15496525168418884, 0.01081913709640503, -0.1835959106683731, -0.036156147718429565, -0.04156617447733879, -0.21495206654071808, 0.05306379124522209, -0.007536155171692371, 0.2931017279624939, 0.004762902855873108, -0.14001543819904327, -0.04955776035785675, 0.07828353345394135, -0.04805829003453255, -0.12512923777103424, 0.06656868010759354, 0.11373329907655716, -0.01909654214978218, -0.1374424248933792, -0.29073861241340637, 0.035037484019994736, -0.2563926577568054, -0.06789067387580872, -0.08559383451938629, 0.29708409309387207, -0.038116294890642166, 0.08564452826976776, 0.04713086411356926, 0.15798616409301758, 0.08419565856456757, -0.3150218427181244, 0.19760701060295105, 0.03561745211482048, -0.00028794966056011617, -0.1955322027206421, 0.10033424943685532, 0.06619635224342346, -0.10799054056406021, 0.12055441737174988, 0.03880585357546806, -0.09524110704660416, 0.2758646309375763, 0.162716805934906, -0.14652018249034882, 0.1448996365070343, 0.17900440096855164, 0.029672423377633095, -0.05570545792579651, 0.2919743061065674, 0.10081344842910767, -0.12808683514595032, -0.04268478602170944, 0.03336172550916672, -0.1042979285120964, 0.05364815518260002, 0.12388051301240921, -0.19837333261966705, -0.1415395736694336, 0.17260126769542694, 0.07222957909107208, -0.1120404601097107, -0.3597792387008667, 0.1311010718345642, 0.15676920115947723, 0.22986195981502533, 0.20844751596450806, 0.2935102581977844, -0.09317757934331894, -0.2746749520301819, 0.036352235823869705, -0.11816879361867905, 0.02742277830839157, -0.041767995804548264, -0.2644810378551483, -0.26523062586784363, 0.053739044815301895, 0.07091201096773148, 0.11298736184835434, 0.1726326197385788, 0.1139536127448082, -0.12631037831306458, -0.034130580723285675, -0.1965283900499344, -0.0006724029080942273, 0.36335843801498413, -0.05338311940431595, -0.10231375694274902, 0.07356569170951843, 0.08349732309579849, -0.19235730171203613, 0.13307006657123566, 0.17739880084991455, -0.28377777338027954, 0.23098377883434296, 0.06580813229084015, 0.19947130978107452, 0.05352013185620308, -0.1925918310880661, -0.07001140713691711, -0.007400774396955967, -0.19009892642498016, 0.23509369790554047, -0.16535337269306183, -0.08291403204202652, 0.13641129434108734, -0.1350763440132141, -0.19649149477481842, -0.0376632995903492, -0.18349696695804596, 0.06730487197637558, -0.05318073555827141, -0.20611247420310974, 0.1383356750011444, -0.044859230518341064, -0.08377798646688461, -0.006771994289010763, 0.16718076169490814, 0.21549201011657715, -0.22990857064723969, -0.07981991022825241, -0.0505034402012825, -0.2093202918767929, -0.12208536267280579, 0.08983322232961655, -0.05390520021319389, -0.007901191711425781, -0.014913813211023808, 0.16805808246135712, -0.17154452204704285, 0.013883047737181187, -0.21373605728149414, 0.01061975210905075, 0.1263490468263626, 0.17352846264839172, 0.16444386541843414, -0.43437889218330383, -0.037633225321769714, -0.17405058443546295, -0.11649280041456223, 0.024253200739622116, -0.07888299226760864, 0.09910053759813309, 0.16676165163516998, 0.12363283336162567, -0.02512550540268421, -0.2541516423225403, -0.047855742275714874, -0.061271097511053085, -0.037391547113657, -0.006642934400588274, 0.15882167220115662, -0.21523942053318024, 0.37690046429634094, -0.12259949743747711, 0.007598149590194225, 0.10579273849725723, -0.03383525460958481, -0.2761312425136566, 0.08878672122955322, 0.13509501516819, 0.26173093914985657, -0.06315802037715912, -0.10002293437719345, 0.14962686598300934, -0.014227748848497868, 0.2675078213214874, -0.026990709826350212, 0.19299879670143127, -0.09016243368387222, 0.03634818270802498, 0.19764797389507294, -0.1442064791917801, 0.16468766331672668, -0.021541614085435867, -0.004055286291986704, 0.05952916294336319, 0.050707779824733734, -0.22300474345684052, 0.008782865479588509, -0.10730080306529999, -0.12714742124080658, 0.15476730465888977, 0.1557079404592514, 0.06283911317586899, 0.13650654256343842, -0.22926361858844757, -0.33686113357543945, -0.21690553426742554, 0.09281191974878311, -0.07462862133979797, 0.10529924929141998, -0.19671162962913513, 0.023232506588101387, -0.1399669647216797, -0.05612506717443466, 0.15904182195663452, 0.19286659359931946, -0.2181197851896286, -0.09764289110898972, -0.09551200270652771, 0.30035412311553955, 0.2367747575044632, -0.06267856061458588, 0.02326793037354946, 0.09207722544670105, -0.16637447476387024, -0.10633053630590439, -0.0333729162812233, -0.033348921686410904, -0.035633187741041183, 0.32260146737098694, 0.1755448877811432, -0.0793929472565651, 0.012998229824006557, -0.23762011528015137, 0.2451907843351364, 0.10255815088748932, 0.02554911933839321, 0.11329054832458496, 0.24041904509067535, 0.29349398612976074, 0.12267079204320908, -0.19358152151107788, 0.12883572280406952, 0.03200790286064148, 0.09748073667287827, -0.1134980171918869, 0.1264972686767578, -0.11287472397089005, -0.2068631798028946, -0.03364739194512367, 0.14273501932621002, -0.09716008603572845, 0.09616284817457199, -0.2608060836791992, 0.05391120910644531, 0.1826266348361969, 0.14443044364452362, 0.14147621393203735, -0.14572151005268097, 0.4252002537250519, -0.02274237759411335, -0.10528316348791122, -0.00441577285528183, 0.05850332975387573, -0.05576878786087036, 0.0027952606324106455, -0.03723277151584625, 0.07342489063739777, 0.1435423046350479, 0.03399005904793739, 0.1360558271408081, 0.09229624271392822, 0.1008462980389595, 0.3549978733062744, -0.325010746717453, 0.09916044771671295, 0.13997137546539307, -0.029863854870200157, 0.003419826738536358, -0.2850845754146576, 0.10459426045417786, 0.09058653563261032, 0.35145899653434753, 0.09321999549865723, -0.04404185339808464, 0.16738665103912354, -0.020336467772722244, 0.011804427020251751, -0.10020803660154343, -0.3072711229324341, -0.22792349755764008, -0.12802870571613312, -0.04222649335861206, 0.2786274254322052, 0.10510354489088058, -0.13336949050426483, -0.13072794675827026, -0.3467775285243988, 0.03237677365541458, 0.13146242499351501, 0.0637718141078949, 0.1274351179599762, 0.04285736009478569, -0.3606504797935486, 0.1641232669353485, 0.2233293354511261, -0.02470332570374012, 0.25960561633110046, -0.16343064606189728, -0.12463578581809998, 0.08045846223831177, -0.06927326321601868, -0.08922769129276276, 0.18235446512699127, -0.019270366057753563, -0.1928454339504242, 0.09315338730812073, -0.007974734529852867, 0.23494669795036316, -0.06521345674991608, -0.05690858140587807, 0.020901748910546303, 0.17733372747898102, -0.05037802830338478, -0.16447263956069946, -0.06195240095257759, -0.04047674313187599, -0.14340151846408844, -0.14746899902820587, -0.19071261584758759, -0.12300071865320206, -0.056972797960042953, -0.05959763377904892, -0.08642903715372086, 0.025886934250593185, -0.13571667671203613, 0.006517878267914057, -0.19150064885616302, 0.25467729568481445, 0.02229573018848896, 0.14483921229839325, 0.09165335446596146, 0.25353842973709106, 0.2267547845840454, -0.03772145137190819, 0.14312103390693665, 0.08159465342760086, -0.05468986555933952, 0.38072603940963745, -0.03294958546757698, 0.03169570863246918, -0.033636245876550674, 0.10908933728933334, -0.11396442353725433, -0.13152480125427246, -0.002980972873046994, -0.015003128908574581, 0.10274466127157211, -0.33259347081184387, -0.1318213939666748, 0.10668303817510605, 0.030902663245797157, -0.06602752208709717, -0.24574267864227295, -0.08170022815465927, -0.17002862691879272, -0.21925906836986542, -0.1118110790848732, 0.0249182116240263, -0.16676630079746246, 0.10252483189105988, -0.14278900623321533, -0.07710528373718262, 0.010274617932736874, -0.03392248973250389, -0.24112500250339508, 0.12723730504512787, 0.10943439602851868, -0.2295674979686737, -0.03336896374821663, 0.08660080283880234, 0.12146560102701187, -0.09566956013441086, -0.240352600812912, 0.14597386121749878, -0.3582141101360321, 0.016494145616889, 0.30370402336120605, -0.1125112920999527, 0.060994744300842285, -0.13646695017814636, 0.06519531458616257, -0.2021312266588211, -0.04160153493285179, -0.11842118203639984, 0.23622962832450867, -0.16383887827396393, -0.029661329463124275, 0.026917869225144386, -0.18858669698238373, 0.14481137692928314, -0.08520768582820892, 0.12422206997871399, -0.2116757184267044, 0.1556989848613739, -0.08397241681814194, 0.1526557207107544, -0.11609149724245071, -0.12605886161327362, 0.18051180243492126, -0.11139600723981857, -0.08151049166917801, -0.10363295674324036, 0.32452529668807983, -0.10952471941709518, -0.021070227026939392, 0.02822667732834816, 0.044217076152563095, 0.04488255828619003, 0.013010712340474129, -0.2500721514225006, 0.04204495623707771, 0.06339448690414429, 0.1167198121547699, -0.05613667145371437, -0.03559873253107071, -0.12090848386287689, 0.4835706353187561, 0.27545297145843506, -0.10909976810216904, -0.038540616631507874, 0.15955111384391785, -0.03344406560063362, 0.0874297246336937, -0.13877791166305542, 0.00859928596764803, -0.09545678645372391, -0.2731150686740875, -0.10088124126195908, -0.07438991218805313, 0.2378666251897812, -0.11717113107442856, -0.23267413675785065, -0.09402725845575333, 0.22706115245819092, 0.10785490274429321, -0.07142392545938492, -0.04464564844965935, 0.005506306421011686, 0.11477180570363998, -0.06548825651407242, 0.2136591523885727, 0.0677381157875061, -0.25022339820861816, -0.13991869986057281, -0.022871574386954308, -0.10784972459077835, -0.1886698603630066, 0.16462044417858124, 0.09358711540699005, -0.12040150165557861, 0.09051816165447235, -0.02889404073357582, 0.0014787722611799836, 0.2434074729681015, 0.04835948348045349, 0.28294870257377625, -0.058927372097969055, -0.1541290432214737, 0.09118818491697311, 0.29503506422042847, 0.008461922407150269, 0.02764049358665943, -0.04267672821879387, -0.28994011878967285, -0.03194814175367355, 0.03761054202914238, -0.23990397155284882, -0.28429773449897766, 0.1068229004740715, -0.10896346718072891, 0.09322894364595413, 0.09494650363922119, -0.07403340935707092, 0.07644245028495789, 0.3059766888618469, -0.004056599922478199, -0.002092301147058606, 0.11949556320905685, -0.07122483849525452, 0.01875542290508747, 0.28852578997612, -0.2646210789680481, -0.16001160442829132, 0.14836426079273224, 0.20932909846305847, 0.13292653858661652, 0.15420861542224884, -0.10826252400875092, -0.07166092097759247, -0.008089972659945488, 0.02339937910437584, 0.1546885371208191, 0.052084047347307205, -0.1256721317768097, 0.2698693871498108, -0.0167284794151783, -0.08570879697799683, -0.1230093464255333, 0.019820641726255417, -0.09639646857976913, 0.0719471275806427, -0.1890813112258911, 0.12779824435710907, -0.1287144422531128, 0.029483070597052574, 0.2923020124435425, -0.13129398226737976, 0.369173526763916, -0.18539269268512726, -0.07466728240251541, 0.27189114689826965, -0.055427081882953644, -0.0813254863023758, -0.012509189546108246, 0.02194557897746563, -0.20608505606651306, 0.1441846489906311, 0.18486522138118744, 0.3178066313266754, -0.1689065545797348, -0.00993100181221962, 0.15759602189064026, 0.05821509286761284, 0.08831129968166351, 0.0034854388795793056, 0.06765352189540863, 0.19234700500965118, 0.1339549869298935, 0.13631300628185272, 0.2992868721485138, -0.015029952861368656, 0.15739671885967255, -0.058737412095069885, 0.00027063413290306926, 0.0947209969162941, -0.12462741881608963, -0.04548148438334465, -0.3123171925544739, -0.06533684581518173, -0.1703401803970337, -0.03875953331589699, -0.04479166120290756, -0.015185014344751835, 0.3056062161922455, -0.048951294273138046, -0.12507928907871246, -0.07573914527893066, -0.23805561661720276, 0.05308469384908676, -0.1648530513048172, 0.19316594302654266, -0.06789996474981308, -0.07403244823217392, 0.03315785899758339, -0.0036189311649650335, 0.04286288470029831, 0.05172903463244438, -0.03123709373176098, 0.07654674351215363, -0.033469222486019135, 0.24284636974334717, 0.41369298100471497, -0.19843833148479462, 0.24913127720355988, 0.1704520881175995, 0.31858065724372864, -0.08018974214792252, 0.07941056042909622, -0.2615084946155548, 0.01718280464410782, 0.08677047491073608, -0.08989813923835754, 0.09758678078651428, -0.06529191881418228, -0.03849918022751808, -0.26037055253982544, -0.0823788270354271, -0.035269595682621, -0.09073963761329651, -0.052259378135204315, -0.1369778960943222, -0.035835616290569305, 0.0899260938167572, -0.1861099898815155, -0.35910096764564514, 0.2331240326166153, 0.16162285208702087, -0.13331831991672516, -0.1354595422744751, -0.0789695605635643, 0.1807636320590973, -0.2018812894821167, 0.0756709948182106, -0.07476894557476044, -0.21695509552955627, -0.17517559230327606, 0.061751581728458405, -0.02227444015443325, -0.08570566773414612, 0.3475021421909332, 0.08607504516839981, -0.3272317945957184, -0.03215065971016884, -0.05437452718615532, -0.07645001262426376, 0.08698952943086624, 0.004869971890002489, -0.06051744520664215, -0.26907360553741455, 0.02346096932888031, -0.021358344703912735, 0.03435654193162918, 0.16918331384658813, -0.07890276610851288, 0.014107917435467243, 0.10680187493562698, 0.03891940414905548, 0.10197383165359497, 0.00477069104090333, 0.06639393419027328, -0.10461609065532684, -0.03672738000750542, -0.1544450968503952, -0.00801171362400055, -0.13622701168060303, 0.04739212989807129, 0.10740242153406143, 0.0013437080197036266, -0.07233922928571701, 0.06292713433504105, 0.004377205856144428, 0.1626863181591034, 0.3168330788612366, 0.0611400343477726, -0.1920824646949768, -0.15349695086479187, -0.3338310718536377, 0.1897737830877304, 0.31257855892181396, -0.03545618802309036, 0.30979588627815247, -0.06320580840110779, -0.10481841117143631, -0.1597127467393875, 0.05611589923501015, 0.011077329516410828, -0.1164136603474617, -0.15782900154590607, 0.1024702787399292, 0.04814304783940315, 0.2873311936855316, 0.2170354723930359, -0.13323268294334412, 0.2283024936914444, -0.009661129675805569, 0.035791534930467606, -0.4803790748119354, 0.0505048930644989, -0.04089587554335594, -0.03352046757936478, 0.01671241782605648, 0.01339078601449728, 0.022581759840250015, 0.10578477382659912, -0.020447779446840286, -0.370528906583786, 0.029186315834522247, 0.10823207348585129, 0.050859495997428894, 0.07218538224697113, 0.330379456281662, -0.1902991682291031, 0.0026499987579882145, 0.06283706426620483, -0.09479621797800064, -0.14259189367294312, -0.1603117436170578, 0.21471066772937775, -0.0040230825543403625, -0.016597257927060127, -0.231466144323349, 0.1814667135477066, 0.1830817610025406, 0.32184115052223206, 0.1647181510925293, 0.13497135043144226, 0.08097609877586365, 0.07046885043382645, 0.11968395859003067, -0.25711116194725037, 0.06827246397733688, 0.05832687392830849, -0.08270975202322006, -0.11890609562397003, 0.003957947250455618, -0.1938580870628357, -0.13594995439052582, -0.07072226703166962, -0.1504756212234497, -0.35885950922966003, -0.09147869795560837, -0.21111257374286652, -0.2263123095035553, -0.20336802303791046, -0.06608104705810547, -0.24856065213680267, 0.20738083124160767, 0.091506727039814, -0.1669539213180542, -0.028752684593200684, 0.278802752494812, 0.09946361184120178, 0.10840299725532532, -0.12014181166887283, -0.11113713681697845, -0.016392700374126434, -0.03682221099734306, 0.09522408246994019, -0.06491412967443466, 0.16849960386753082, 0.12486334145069122, 0.0399654246866703, 0.004913363605737686, -0.13031648099422455, -0.06342454254627228, 0.020061904564499855, -0.09914567321538925, -0.08011587709188461, 0.08019663393497467, -0.3819936215877533, -0.17436330020427704, 0.012354093603789806, -0.16299621760845184, 0.05303133279085159, 0.020023208111524582, 0.11830689758062363, 0.006317751947790384, 0.18132522702217102, 0.0731399729847908, -0.06509385257959366, 0.1271100491285324, -0.24048641324043274, -0.1888757199048996, 0.05006925389170647, -0.12039510160684586, -0.4014540910720825, -0.020454803481698036, -0.09013815969228745, -0.19557201862335205, 0.11920247226953506, 0.04123535007238388, 0.06561452150344849, 0.21156801283359528, -0.1328679621219635, 0.062094610184431076, -0.31898537278175354, -0.04755333065986633, 0.06135855242609978, -0.12197837233543396, 0.2602255046367645, -0.0225827656686306, 0.010612618178129196, -0.04226963594555855, 0.15682382881641388, 0.12641198933124542, 0.32423481345176697, 0.2950369715690613, -0.020167097449302673, 0.15758362412452698, -0.2618080973625183, -0.023645484820008278, -0.2004804164171219, 0.06325960159301758, 0.2641535997390747, 0.09224184602499008, 0.11239655315876007, -0.12113592028617859, 0.014007736928761005, -0.020671527832746506, 0.14816349744796753, 0.2678746283054352, 0.001342374482192099, -0.2484726756811142, -0.07040023803710938, -0.14511728286743164, -0.028906889259815216, 0.3755561113357544, -0.08704537153244019, 0.2047685831785202, -0.0098508195951581, 0.10897490382194519, -0.11321070790290833, -0.029947157949209213, -0.053408268839120865, -0.12914042174816132, 0.10782631486654282, 0.20881590247154236, 0.029489675536751747, -0.18762481212615967, 0.13596007227897644, 0.15103426575660706, 0.058208853006362915, -0.2269543707370758, 0.08243545889854431, 0.08048743009567261, -0.08495194464921951, 0.0393608883023262, 0.07208405435085297, -0.2376096397638321, 0.039489004760980606, 0.28302890062332153, -0.14768055081367493, -0.20678697526454926, -0.003254450624808669, 0.05497152730822563, -0.1422254592180252, 0.2176322489976883, 0.08361753076314926, 0.062078703194856644, -0.16148099303245544, -0.16273917257785797, -0.12936972081661224, 0.1448611170053482, 0.16573141515254974, 0.07130628824234009, 0.28144514560699463, -0.10300713032484055, 0.08484489470720291, 0.23213277757167816, 0.02003682218492031, -0.17229561507701874, -0.10689298063516617, -0.02113005891442299, 0.08097744733095169, 0.32879194617271423, -0.11828069388866425, -0.22149088978767395, 0.22427810728549957, -0.09223142266273499, -0.07881096750497818, 0.00679538631811738, 0.15297849476337433, -0.0788317397236824, 0.12468980252742767, -0.19364561140537262, -0.028434429317712784, 0.17344382405281067, -0.006311168894171715, 0.1885024458169937, -0.13195912539958954, 0.05813998728990555, 0.10647808760404587, -0.012477105483412743, 0.27889591455459595, 0.1149304211139679, 0.015706343576312065, -0.11976627260446548, 0.07320792227983475, 0.2050732672214508, -0.07645925879478455, 0.25213879346847534, -0.015115239657461643, 0.17041943967342377, -0.05804898589849472, -0.41014623641967773, -0.36801886558532715, -0.10221308469772339, 0.06930717080831528, -0.0023888873402029276, 0.07134291529655457, -0.14126545190811157, 0.05276612564921379, -0.08802357316017151, -0.03311238810420036, -0.10156751424074173, 0.18000756204128265, 0.0665714293718338, -0.013501322828233242, -0.21283453702926636, 0.24539831280708313, -0.022722946479916573, 0.19426527619361877, -0.08612336218357086, -0.18142405152320862, -0.14027659595012665, -0.17733587324619293, -0.21326106786727905, -0.11141383647918701, -0.13938720524311066, 0.18077699840068817, -0.047960519790649414, 0.17226512730121613, 0.04693666845560074, 0.01717844419181347, 0.13694675266742706, -0.11219044029712677, 0.24875538051128387, -0.16121216118335724, -0.008213396184146404, -0.016947858035564423, -0.046441931277513504, 0.2469245195388794, 0.2335119992494583, -0.27733027935028076, -0.04816095903515816, 0.09024061262607574, 0.11775054037570953, -0.047755539417266846, -0.03402319177985191, 0.40412437915802, 0.1333741694688797, 0.013747180812060833, -0.009302270598709583, -0.2112133651971817, -0.009911292232573032, -0.11610204726457596, -0.06482633203268051, -0.34691259264945984, -0.12485732138156891, 0.00020716228755190969, -0.06503178179264069, 0.09967856109142303, 0.10188786685466766, 0.14997924864292145, -0.18927624821662903, 0.10439444333314896, -0.1033964604139328, 0.01559674646705389, -0.26048925518989563, 0.11661507934331894, -0.08788900822401047, -0.13791410624980927, 0.08288208395242691, 0.1096811518073082, 0.26827049255371094, -0.008330327458679676, -0.11418504267930984, -0.1597364991903305, 0.10729242116212845, 0.10107297450304031, -0.32926005125045776, 0.1273033767938614, 0.04034346714615822, -0.20635931193828583, -0.34068945050239563, 0.110086590051651, -0.06781139969825745, -0.24901291728019714, -0.011256490834057331, -0.2085769921541214, -0.05160674452781677, 0.1673021763563156, -0.11197818070650101, -0.04963178187608719, -0.11683475226163864, 0.060313623398542404, -0.09654133766889572, -0.024749377742409706, 0.13266506791114807, 0.16272993385791779, 0.00035090939491055906, -0.1575261801481247, 0.024897027760744095, -0.17086033523082733, -0.2824729084968567, -0.028620680794119835, -0.3141529858112335, 0.0380326546728611, -0.0651269406080246, 0.015065127052366734, 0.03554113209247589, -0.07574287056922913, -0.35139888525009155, -0.08131145685911179, -0.10308274626731873, 0.012822908349335194, 0.014220299199223518, 0.2512628734111786, 0.028314370661973953, -0.12739375233650208, -0.082241952419281, -0.019452229142189026, 0.06290491670370102, 0.006453119684010744, -0.1931011825799942, 0.28113847970962524, 0.05447491630911827, -0.00415180716663599, -0.1372060775756836, 0.12883636355400085, -0.07973771542310715, 0.018757881596684456, -0.40472713112831116, 0.13287556171417236, -0.04356297105550766, 0.09619539976119995, -0.2310817688703537, 0.2959860563278198, -0.15472042560577393, -0.009450946003198624, -0.10982684791088104, -0.08892384171485901, 0.10187219828367233, -0.08520571887493134, -0.022678228095173836, 0.217560812830925, -0.023970043286681175, 0.16979748010635376, -0.19964341819286346, 0.2511606812477112, -0.0506984107196331, 0.10868239402770996, 0.10313843935728073, 0.0031359384302049875, -0.07620538026094437, 0.08912716060876846, 0.05769967660307884, 0.17943236231803894, -0.0458700992166996, -0.06707458943128586, -0.057498469948768616, 0.19939637184143066, 0.2366841584444046, 0.16492751240730286, -0.2771335542201996, -0.013048048131167889, -0.18998445570468903, -0.03339706361293793, 0.031218478456139565, -0.1839265674352646, -0.20229372382164001, 0.21293386816978455, -0.05697688087821007, -0.07618267089128494, 0.09346571564674377, 0.10838437080383301, 0.1245000809431076, -0.27661657333374023, -0.20686571300029755, -0.19386154413223267, 0.02782427705824375, 0.10209125280380249, 0.14763613045215607, -0.1291707456111908, 0.08643980324268341, 0.013095262460410595, -0.0981469675898552, 0.2518344819545746, -0.07640106976032257, 0.17706643044948578, 0.010768024250864983, 0.06987282633781433, 0.03140260651707649, 0.36297228932380676, -0.06720752269029617, 0.05026917904615402, -0.04103328660130501, 0.31999510526657104, -0.15859921276569366, 0.06528882682323456, 0.13724735379219055, -0.12803681194782257, 0.18552355468273163, 0.2564234137535095, -0.2550908029079437, -0.002067271387204528, -0.07879333943128586, -0.2115856409072876, -0.09199030697345734, 0.09836510568857193, -0.06725122779607773, 0.22983689606189728, 0.2211945354938507, -0.2232581079006195, 0.11933005601167679, 0.14492611587047577, -0.05509122833609581, 0.13063132762908936, -0.22307179868221283, 0.20544171333312988, 0.15324760973453522, -0.25470447540283203, 0.09242852032184601, 0.22958020865917206, -0.16516827046871185, 0.17005334794521332, -0.07552136480808258, 0.19122998416423798, 0.05896707624197006, -0.07058893144130707, -0.22817935049533844, 0.16760186851024628, 0.008557179011404514, -0.0995422899723053, 0.024775218218564987, -0.3074706494808197, 0.02155696228146553, 0.014809759333729744, 0.2162267118692398, -0.0008160828147083521, -5.57760831725318e-05, 0.09478695690631866, 0.0030017381068319082, 0.08047159016132355, -0.1483239084482193, 0.31261247396469116, -0.19499239325523376, -0.12053243070840836, -0.25288257002830505, 0.07528644055128098, 0.2889011800289154, 0.29699698090553284, 0.12312566488981247, 0.20167142152786255, -0.07081689685583115, 0.2499641478061676, 0.006298988591879606, 0.14215226471424103, 0.13233496248722076, 0.06691519916057587, -0.10573343932628632, -0.012034368701279163, 0.0192007664591074, 0.029305899515748024, -0.09555068612098694, 0.056482166051864624, -0.07944688200950623, 0.3183479607105255, 0.25129932165145874, -0.1001901626586914, -0.10957328230142593, -0.03305954858660698, -0.2978587746620178, -0.02236422337591648, 0.22702249884605408, 0.09714757651090622, -0.17430733144283295, 0.06159055233001709, -0.014707247726619244, -0.1932493895292282, -0.08535011857748032, -0.09171112626791, 0.08560866862535477, 0.007141646463423967, -0.024398483335971832, -0.031896017491817474, 0.04106234386563301, -0.10180675238370895, -0.38745811581611633, -0.059022456407547, -0.01040491834282875, -0.06678721308708191, -0.14198683202266693, -0.16598832607269287, 0.12295449525117874, 0.13932378590106964, 0.051892027258872986, -0.07026900351047516, 0.16183793544769287, -0.032547712326049805, -0.10398071259260178, 0.2602934241294861, -0.07035034149885178, 0.11742689460515976, -0.2460087239742279, 0.02749294973909855, -0.1875450164079666, 0.3107784688472748, 0.11840877681970596, 0.04253730550408363, 0.3198135495185852, 0.18274249136447906, -0.19018998742103577, 0.017847711220383644, -0.1468619555234909, -0.014485194347798824, 0.11684951931238174, -0.15206190943717957, -0.1867430955171585, 0.02610020712018013, 0.14331361651420593, -0.17032907903194427, 0.2573906183242798, 0.08602145314216614, -0.02499471604824066, -0.2230772227048874, 0.12960749864578247, 0.034386005252599716, -0.0643075630068779, -0.1775214523077011, 0.14217661321163177, -0.19202400743961334, -0.025249464437365532, 0.17009685933589935, -0.30672481656074524, 0.12722466886043549, -0.04775027185678482, 0.16910617053508759, -0.050339214503765106, -0.22768361866474152, -0.19424818456172943, 0.05028865858912468, 0.1030418872833252, -0.08611442148685455, -0.1384696364402771, 0.1996908187866211, -0.24604667723178864, -0.2230825275182724, 0.025737162679433823, 0.17962121963500977, -0.2934916317462921, 0.0549975261092186, 0.00915022287517786, 0.006180698052048683, 0.21285773813724518, 0.056345708668231964, 0.23952433466911316, -0.23406150937080383, -0.1586260050535202, 0.2490568906068802, -0.2569662928581238, -0.09449460357427597, -0.0959969237446785, -0.20080775022506714, -0.012058650143444538, -0.0436251126229763, -0.03601126745343208, 0.09942556172609329, -0.06023783981800079, 0.11517222225666046, 0.15906016528606415, 0.10378614068031311, -0.06346628069877625, 0.08523376286029816, 0.007425940129905939, 0.2546646296977997, -0.1845807284116745, -0.0883001759648323, 0.13942250609397888, 0.05421933904290199, -0.0728411078453064, 0.2748963534832001, 0.008149039931595325, 0.2007051259279251, 0.036707453429698944, 0.06598352640867233, 0.20169349014759064, -0.23643724620342255, 0.12798665463924408, -0.24983909726142883, 0.1663249433040619, -0.013151315040886402, 0.1337442547082901, 0.10842423886060715, -0.10987139493227005, -0.2548462748527527, 0.01893935725092888, 0.21689927577972412, -0.07233074307441711, 0.020136447623372078, 0.010703214444220066, -0.025342188775539398, -0.0977054238319397, 0.0568857304751873, 0.190829798579216, 0.13746824860572815, -0.010984649881720543, 0.02655511349439621, 0.20787033438682556, -0.20682962238788605, 0.021759040653705597, 0.4066105782985687, 0.06801807880401611, 0.12291689962148666, 0.11699847877025604, 0.13902369141578674, -0.018811911344528198, -0.0755070298910141, -0.24432194232940674, 0.1818210780620575, -0.27972424030303955, 0.31974002718925476, -0.37075307965278625, 0.174502432346344, -0.2644333243370056, -0.02852335385978222, -0.03642544895410538, -0.12016285210847855, -0.07279711961746216, 0.1543792188167572, -0.11146070063114166, -0.17335793375968933, 0.17555725574493408, -0.03825567662715912, 0.04664591699838638, 0.49692580103874207, 0.0866149365901947, 0.09395574778318405, 0.19513463973999023, 0.10639655590057373, -0.0860820934176445, -0.1467452049255371, 0.012865789234638214, -0.13001859188079834, -0.3188875615596771, -0.014544782228767872, 0.0550730861723423, -0.021173520013689995, -0.1935177594423294, 0.03299066796898842, -0.07416242361068726, 0.08625250309705734, -0.262868195772171, 0.20211510360240936, 0.016561251133680344, 0.055166635662317276, -0.06574856489896774, -0.06897242367267609, 0.09148664772510529, 0.2534591257572174, 0.17436924576759338, -0.051064468920230865, 0.07232563197612762, -0.1296454221010208, 0.22039851546287537, 0.059940189123153687, 0.05121561139822006, 0.11353174597024918, -0.028203297406435013, 0.0889597237110138, -0.018397057428956032, 0.0431392602622509, 0.07677057385444641, -0.16954894363880157, 0.17591260373592377, -0.0662536472082138, -0.03349826857447624, 0.09915152192115784, -0.0952533632516861, -0.028751444071531296, -0.1713239997625351, 0.14589372277259827, 0.2396804690361023, 0.22224770486354828, 0.1160467267036438, -0.020497407764196396, -0.0925992876291275, 0.02640179917216301, 0.16189071536064148, -0.06072873994708061, -0.27220141887664795, -0.13932663202285767, 0.06036524474620819, 0.07309535145759583, 0.14380428194999695, 0.008950531482696533, -0.05962420627474785, 0.20242899656295776, -0.3555438816547394, -0.001361063914373517, -0.0714031234383583, -0.0060429200530052185, -0.009213458746671677, -0.18085330724716187, -0.15398146212100983, 0.1273464858531952, 0.12389253824949265, -0.09842114895582199, -0.12829098105430603, -0.05586410313844681, -0.17383244633674622, -0.2093023806810379, -0.05772195756435394, -0.1929841786623001, 0.024977168068289757, -0.07707902789115906, -0.1699257791042328, 0.36025187373161316, 0.022364100441336632, 0.20731449127197266, -0.03272160887718201, 0.05287623032927513, 0.10236366838216782, 0.17277877032756805, -0.002573417965322733, -0.05835294350981712, 0.0951838418841362, 0.017415329813957214, 0.16996490955352783, -0.07826857268810272, 0.20168454945087433, 0.12889768183231354, 0.15346306562423706, 0.00273868627846241, 0.05049167573451996, 0.04846623167395592, 0.05981147661805153, -0.031656961888074875, 0.1745324581861496, 0.009767779149115086, -0.1325339823961258, 0.15000846982002258, 0.19406865537166595, -0.31982171535491943, 0.064866803586483, 0.055912744253873825, -0.1382792443037033, -0.0340377576649189, 0.16882434487342834, 0.06203297898173332, 0.25833573937416077, -0.08220898360013962, -0.18757645785808563, -0.1558191329240799, 0.028324877843260765, 0.02719084918498993, 0.3098450303077698, -0.19228549301624298, 0.17129087448120117, 0.07959135621786118, 0.12035291641950607, 0.22118298709392548, -0.24173371493816376, -0.19540128111839294, -0.42907464504241943, -0.2781081199645996, 0.08640432357788086, -0.14128777384757996, -0.18649603426456451, -0.2409403771162033, -0.14403249323368073, -0.14401909708976746, 0.027877289801836014, -0.1883206069469452, -0.004764844663441181, 0.05957639217376709, 0.30860045552253723, 0.11258712410926819, -0.12939374148845673, 0.1539618819952011, -0.029553823173046112, 0.13272914290428162, -0.006795070134103298, 0.027541153132915497, 0.09179951995611191, -0.12771470844745636, -0.15060919523239136, -0.07185854017734528, 0.2038336992263794, 0.304694265127182, 0.00902723427861929, 0.17372015118598938, -0.303507536649704, 0.059923119843006134, 0.22729647159576416, -0.05529810115695, -0.3026658594608307, -0.0025731809437274933, 0.2650243937969208, 0.22853344678878784, -0.19446760416030884, -0.07830595970153809, 0.01894151046872139, -0.21174699068069458, 0.04090116545557976, 0.05935657396912575, -0.23386147618293762, -0.10564565658569336, 0.1006859838962555, 0.15914686024188995, -0.23832866549491882, 0.11505827307701111, -0.09478332102298737, -0.2499338686466217, 0.08603762835264206, -0.14816489815711975, -0.1378125250339508, -0.05615333467721939, 0.03179687634110451, -0.06885332614183426, 0.16199536621570587, -0.014712616801261902, 0.27979719638824463, -0.20506447553634644, 0.002918327460065484, -0.016727620735764503, -0.06695999205112457, -0.11464335769414902, 0.14322033524513245, 0.04527444764971733, 0.09475623071193695, -0.06185179576277733, 0.11438578367233276, -0.08918755501508713, -0.005386778153479099, 0.17536643147468567, 0.07338571548461914, -0.16923514008522034, 0.07246246188879013, 0.1506379395723343, -0.2036457508802414, -0.2916165590286255, -0.04575978219509125, 0.220408633351326, 0.2257670760154724, -0.17762704193592072, -0.060540713369846344, -0.007799745537340641, 0.3518954813480377, -0.0167466439306736, 0.3534207344055176, -0.004410572815686464, -0.11747696995735168, -0.06018023192882538, 0.1313692331314087, -0.03586430102586746, 0.23134703934192657, 0.08053306490182877, -0.09490916132926941, -0.02323194220662117, 0.18683750927448273, 0.11804495751857758, 0.060528457164764404, 0.048490021377801895, 0.08579248189926147, -0.03668300807476044, 0.09543557465076447, 0.1812724471092224, 0.27248692512512207, -0.06777533143758774, -0.2072969377040863, -0.06931143254041672, 0.18942639231681824, -0.07942547649145126, 0.2752619981765747, -0.1071813702583313, -0.10452250391244888, 0.3013416528701782, -0.3408929705619812, 0.024829160422086716, -0.05211646854877472, -0.09227704256772995, 0.0777217373251915, 0.018698934465646744, 0.29948514699935913, 0.07438510656356812, 0.046829015016555786, -0.1749577522277832, 0.021173201501369476, -0.013536767102777958, -0.22606484591960907, 0.09931958466768265, 0.1154458299279213, 0.1979064643383026, -0.1761760115623474, 0.062036044895648956, -0.005171691998839378, -0.26744982600212097, 0.0914262905716896, 0.05561942979693413, -0.010315820574760437, 0.17584282159805298, -0.1706777811050415, -0.15819230675697327, 0.10104423016309738, 0.34858885407447815, -0.10364677757024765, 0.042088549584150314, -0.3140588700771332, -0.2900059223175049, 0.03190017119050026, -0.20793983340263367, 0.23243170976638794, -0.07984936237335205, 0.04981900751590729, -0.21159489452838898, -0.14565050601959229, -0.02710326761007309, -0.0009778595995157957, 0.0904206857085228, 0.04452081024646759, -0.01941913366317749, -0.04433804005384445, 0.20912455022335052, -0.02218114770948887, -0.14304985105991364, 0.05569861829280853, 0.012278139591217041, 0.04826311022043228, -0.12186608463525772, -0.06329939514398575, -0.23325040936470032, -0.19097933173179626, 0.1822042018175125, 0.059546176344156265, -0.260478675365448, 0.04240604117512703, -0.2743864059448242, -0.039227329194545746, -0.1225266307592392, 0.003258557291701436, -0.028805382549762726, -0.023400859907269478, -0.03695441409945488, -0.15227988362312317, -0.0054812501184642315, 0.09386435896158218, 0.13639254868030548, -0.039545927196741104, -0.13001078367233276, 0.055802710354328156, 0.10774552822113037, -0.15098106861114502, 0.13073572516441345, -0.2891424596309662, 0.0975353941321373, -0.14808522164821625, -0.027753178030252457, -0.014447975903749466, 0.02803896553814411, -0.003414951032027602, -0.23979617655277252, 0.08770234137773514, 0.09641662240028381, -0.20106828212738037, 0.3631388545036316, 0.1218295618891716, -0.049239709973335266, -0.03968951851129532, -0.06769805401563644, -0.04030585289001465, -0.06815285980701447, -0.09624509513378143, 0.2715097963809967, -0.08724860846996307, 0.07310527563095093, -0.1159655973315239, -0.017599428072571754, 0.006104891654103994, 0.039404094219207764, 0.05250496789813042, -0.13465403020381927, 0.16005678474903107, -0.050363581627607346, -0.17962200939655304, 0.16787900030612946, -0.014610704965889454, 0.04533436521887779, 0.004435855429619551, 0.039756812155246735, 0.3956165313720703, -0.21191467344760895, 0.015878448262810707, -0.16291987895965576, -0.1634676605463028, 0.05708938091993332, -0.03452983871102333, 0.38314321637153625, 0.1362125426530838, 0.027789834886789322, 0.1329643726348877, -0.13489171862602234, -0.17715251445770264, -0.11476974189281464, -0.06953811645507812, -0.3013491928577423, -0.05823524296283722, 0.10699230432510376, 0.05229656770825386, 0.05089306831359863, -0.1215016096830368, -0.1429399996995926, 0.4236329197883606, -0.3606432378292084, 0.18799366056919098, 0.033590588718652725, -0.3210909962654114, -0.08459136635065079, -0.2028571218252182, 0.08087067306041718, -0.28482329845428467, -0.15870153903961182, 0.13388344645500183, 0.2654389441013336, 0.02185325138270855, 0.15604326128959656, 0.2613193988800049, 0.2335796356201172, 0.07622913271188736, -0.13836966454982758, -0.29307490587234497, 0.14679312705993652, 0.15058253705501556, -0.047708529978990555, -0.2606008052825928, -0.14208604395389557, -0.23332583904266357, -0.05696706473827362, 0.03122411109507084, 0.10978447645902634, -0.2617248594760895, 0.1319088637828827, 0.04916468635201454, -0.09394414722919464, -0.04352257028222084, 0.05681578069925308, -0.008434669114649296, -0.05691719427704811, 0.012257389724254608, 0.0675063356757164, 0.06344818323850632, -0.005223880521953106, -0.07280939072370529, -0.13124483823776245, -0.03211047872900963, -0.1237284392118454, 0.16895504295825958, 0.17870472371578217, -0.006253443658351898, -0.0972648337483406, -0.27416664361953735, 0.07155434787273407, 0.11751123517751694, 0.183207705616951, -0.016685491427779198, 0.24498982727527618, 0.2654152512550354, -0.1256617158651352, 0.18923401832580566, 0.11168229579925537, 0.18646633625030518, 0.00881204754114151, -0.06724713742733002, 0.2053053230047226, -0.19792482256889343, -0.07005490362644196, -0.12433943897485733, 0.07900645583868027, -0.11135886609554291, 0.04583229497075081, -0.13101857900619507, -0.0935610681772232, -0.23860985040664673, 0.15720371901988983, -0.045736316591501236, 0.02422146685421467, 0.3017728328704834, -0.11949323862791061, 0.1711415797472, -0.0964866504073143, -0.2618817687034607, -0.14228998124599457, -0.12971378862857819, -0.0694412961602211, 0.27268555760383606, 0.023613786324858665, 0.0019385798368602991, 0.24228063225746155, 0.1437806487083435, -0.11995573341846466, 0.0979880690574646, -0.18751583993434906, -0.15749523043632507, -0.015624189749360085, 0.024804972112178802, -0.2402229607105255, -0.3076423108577728, -0.17499136924743652, 0.03385643661022186, -0.1638462245464325, -0.17983604967594147, -0.11468718200922012, 0.09470003843307495, 0.18285024166107178, -0.000741773983463645, 0.054120562970638275, 0.21904504299163818, -0.27745378017425537, -0.2807198762893677, 0.2668274939060211, -0.06471596658229828, 0.017234019935131073, -0.1033201515674591, -0.3403947949409485, -0.029738662764430046, 0.12904872000217438, -0.050123270601034164, 0.12420212477445602, -0.1360875815153122, -0.0673966333270073, 0.22486022114753723, 0.14412669837474823, 0.02486715093255043, -0.002117178402841091, 0.02344871498644352, 0.05938679352402687, -0.07703011482954025, 0.03134164959192276, -0.04053068906068802, 0.14341826736927032, -0.08752480149269104, -0.11834283918142319, 0.006277577951550484, -0.11241129040718079, 0.27620863914489746, 0.1426941454410553, -0.325481653213501, 0.0011074136709794402, 0.15713602304458618, 0.010325216688215733, 0.20049118995666504, -0.10574425011873245, -0.06639302521944046, -0.3595769703388214, -0.0004787144425790757, 0.09160615503787994, -0.04729620739817619, 0.009719162248075008, -0.12046921998262405, 0.3386019468307495, 0.06132526695728302, 0.1930568963289261, 0.17027802765369415, 0.12609772384166718, 0.03277367725968361, -0.26033443212509155, 0.14476795494556427, -0.19297517836093903, 0.05570656433701515, 0.16521117091178894, 0.1445809006690979, -8.735460869502276e-05, -0.051548901945352554, 0.007463100366294384, -0.10320791602134705, 0.1714351922273636, -0.09187772870063782, 0.2110099047422409, -0.13277535140514374, -0.001362415263429284, 0.13389213383197784, -0.0015999285969883204, -0.008414825424551964, 0.01949094608426094, -0.040337469428777695, -0.08839688450098038, -0.028561536222696304, -0.16413362324237823, -0.10146059095859528, -0.0554346963763237, -0.22318866848945618, 0.0040412056259810925, 0.3032205104827881, -0.21257683634757996, 0.3318462371826172, -0.20611833035945892, -0.09275531023740768, 0.06739164143800735, -0.14419078826904297, -0.10586421191692352, -0.0688629150390625, -0.06666404008865356, 0.07782912254333496, 0.13415789604187012, -0.21258272230625153, -0.039205655455589294, 0.12031150609254837, 0.32448574900627136, 0.11924438923597336, -0.39597687125205994, 0.016337506473064423, -0.25156140327453613, 0.09611634910106659, -0.03687223419547081, 0.1703583151102066, -0.2917520999908447, 0.0875326618552208, -0.07926245033740997, -0.1334838569164276, 0.07676232606172562, -0.36654359102249146, 0.12045294046401978, -0.2638019025325775, 0.18445411324501038, 0.1432153284549713, 0.06961769610643387, 0.2657581567764282, -0.06664905697107315, -0.036192383617162704, -0.008421994745731354, 0.037607647478580475, -0.12261103093624115, 0.05777735263109207, -0.01929846778512001, -0.32027921080589294, -0.08487243205308914, 0.07542458921670914, 0.07546275109052658, 0.1848859190940857, -0.049312181770801544, -0.04766646400094032, -0.19815665483474731, 0.039035093039274216, -0.007692231796681881, -0.016340723261237144, 0.1080833151936531, -0.06895291060209274, -0.03527342900633812, 0.03411644697189331, 0.22679699957370758, -0.01689699850976467, -0.32029247283935547, -0.10991568118333817, -0.2155253291130066, -0.25756609439849854, -0.07202665507793427, 0.13417084515094757, -0.1255917102098465, -0.03437837213277817, -0.1298871487379074, 0.13112594187259674, -0.007327153813093901, -0.04176940768957138, 0.0642172321677208, 0.07571972906589508, 0.06268110871315002, -0.1123761311173439, -0.15235105156898499, -0.29061779379844666, 0.030574925243854523, -0.14943590760231018, 0.07041758298873901, 0.15631256997585297, 0.09632603824138641, -0.139675110578537, 0.09139388799667358, 0.12840190529823303, -0.1343572735786438, -0.11556924879550934, 0.29818040132522583, -0.006734436843544245, 0.17783546447753906, -0.15245850384235382, 0.20479203760623932, 0.016946882009506226, -0.013353654183447361, 0.14445210993289948, -0.027175039052963257, 0.039547476917505264, 0.10333431512117386, 0.011723346076905727, -0.006532719358801842, -0.1545799970626831, -0.11980325728654861, -0.3315776288509369, -0.08196975290775299, 0.15215276181697845, -0.005396139807999134, -0.10626565665006638, 0.0837920680642128, -0.30599358677864075, -0.03996024280786514, -0.1440584808588028, 0.2998569905757904, 0.22181372344493866, 0.1636195033788681, 0.20419038832187653, -0.033781345933675766, -0.1117115467786789, -0.1801730990409851, -0.07057343423366547, 0.036158569157123566, 0.24383200705051422, 0.17575618624687195, -0.05934000760316849, 0.06049201264977455, 0.06492986530065536, 0.1597336083650589, 0.21928206086158752, 0.15636423230171204, -0.11086466163396835, 0.4129897654056549, -0.21231721341609955, 0.0038970964960753918, 0.06317252665758133, 0.35020023584365845, -0.18719987571239471, -0.03131183981895447, 0.046816788613796234, 0.2987526059150696, 0.2333468794822693, 0.04261403530836105, 0.08252625912427902, -0.1349657028913498, 0.0349377766251564, -0.10080163925886154, 0.1693982481956482, 0.10624431818723679, 0.05863894149661064, 0.01673736609518528, -0.19107678532600403, -0.02108009345829487, 0.15739896893501282, -0.001844303566031158, 0.23596832156181335, 0.0008296126034110785, -0.1723293960094452, 0.17234410345554352, -0.306819349527359, 0.21049506962299347, -0.12667591869831085, -0.18217597901821136, 0.04185562953352928, 0.10599460452795029, -0.1458975374698639, 0.36973339319229126, -0.1724252849817276, 0.35921189188957214, -0.08935000002384186, -0.16263535618782043, -0.3054845631122589, -0.023360472172498703, 0.04508069157600403, -0.00034763774601742625, 0.02684854343533516, -0.15116816759109497, -0.014894171617925167, 0.21446971595287323, 0.012976312078535557, -0.19944652915000916, -0.28571584820747375, -0.3243502080440521, 0.01975417509675026, 0.015481775626540184, -0.1113029271364212, -0.027459289878606796, -0.192236065864563, 0.007442690897732973, -0.06144794821739197, -0.12884512543678284, -0.05200899764895439, 0.28416016697883606, 0.20534023642539978, -0.12148554623126984, -0.11089727282524109, -0.22596687078475952, -0.23081722855567932, 0.08493075519800186, -0.33891910314559937, -0.09732615202665329, 0.029501860961318016, 0.09669554233551025, 0.14467070996761322, -0.08973214775323868, -0.19852374494075775, 0.20451948046684265, 0.048419877886772156, -0.16881577670574188, -0.018976783379912376, -0.019494308158755302, 0.008466248400509357, -0.16705012321472168, -0.11286154389381409, -0.04155943542718887, -0.09945923089981079, 0.06122996658086777, -0.10422145575284958, -0.13097383081912994, 0.06655558943748474, 0.05845211446285248, -0.029011093080043793, -0.08712274581193924, 0.1544027477502823, 0.2048622965812683, -0.17677432298660278, -0.18489626049995422, -0.0048285298980772495, 0.25085222721099854, 0.09588130563497543, 0.1405886560678482, 0.08092362433671951, -0.056808970868587494, 0.038219667971134186, -0.13018926978111267, -0.08651266992092133, -0.13310883939266205, 0.0577547624707222, -0.0027824584394693375, 0.06527768075466156, 0.09525320678949356, 0.4143516421318054, 0.02067088522017002, 0.06626236438751221, 0.07588271051645279, -0.267858624458313, -0.046324074268341064, -0.1346663534641266, -0.12009014189243317, -0.15120242536067963, 0.22592420876026154, -0.18718618154525757, 0.13422207534313202, -0.05924365296959877, 0.2686161994934082, 0.030459526926279068, -0.19061864912509918, -0.07566341012716293, 0.01971176452934742, -0.11921758204698563, 0.12916646897792816, 0.10535090416669846, 0.05166568607091904, 0.011599808000028133, 0.11605218052864075, 0.06067050248384476, -0.3490581214427948, -0.11813155561685562, -0.02708105742931366, 0.12974444031715393, 0.02851070463657379, 0.2612740695476532, 0.21200744807720184, -0.02724808268249035, 0.003700901521369815, 0.1986679583787918, 0.1235375627875328, -0.15110081434249878, -0.11574810743331909, 0.05205271765589714, -0.020588938146829605, -0.29443883895874023, -0.16815973818302155, -0.09531225264072418, 0.06049860268831253, 0.01678820140659809, -0.046531978994607925, 0.07089708745479584, -0.2616850435733795, -0.17175908386707306, -0.13598667085170746, 0.13122287392616272, -0.0545453317463398, 0.02171657420694828, -0.026329606771469116, -0.1772802621126175, 0.14162984490394592, -0.07876700907945633, -0.1789322942495346, -0.2382252961397171, 0.054134976118803024, 0.025270976126194, 0.22418347001075745, -0.13076996803283691, -0.21271349489688873, -0.0854215994477272, 0.20843075215816498, -0.06323067843914032, 0.11261118203401566, 0.042438358068466187, 0.14793577790260315, -0.16471543908119202, -0.21170219779014587, 0.1791476160287857, 0.032223351299762726, -0.16068653762340546, -0.20032013952732086, -0.22279585897922516, -0.1696736216545105, -0.12776170670986176, 0.0808483213186264, 0.33413219451904297, 0.14596155285835266, 0.2059570550918579, -0.22797037661075592, 0.19795015454292297, 0.12031430751085281, 0.015055256895720959, 0.10612080246210098, 0.16785863041877747, -0.17908433079719543, 0.16803699731826782, -0.2956533133983612, 0.2917322516441345, 0.27173247933387756, 0.151837557554245, 0.060183506458997726, -0.2661014497280121, -0.1970338523387909, 0.08710348606109619, 0.015495093539357185, 0.08529113978147507, 0.07234659790992737, 0.2192135751247406, -0.014551309868693352, 0.05251791328191757, -0.15393753349781036, -0.04985193908214569, -0.2605579197406769, -0.14335498213768005, 0.10005273669958115, 0.1871853768825531, -0.03149065002799034, 0.1642879992723465, 0.011111689731478691, -0.16304461658000946, -0.2705344259738922, -0.10618045181035995, 0.21949753165245056, -0.10674434900283813, -0.22415509819984436, -0.2894282341003418, -0.07034478336572647, 0.02857423759996891, -0.12945829331874847, 0.08066781610250473, 0.16072066128253937, -0.020895596593618393, -0.18831051886081696, 0.10787028074264526, 0.26355281472206116, -0.2578311860561371, 0.03833866864442825, -0.03594289347529411, -0.05350828915834427, -0.18187829852104187, -0.055928025394678116, -0.05558018758893013, 0.1723581701517105, -0.1404288113117218, 0.22710207104682922, 0.013267097994685173, -0.23644647002220154, 0.15647315979003906, -0.12285060435533524, -0.08926694095134735, 0.1784655600786209, -0.06487736105918884, 0.009378645569086075, 0.023770084604620934, 0.06412346661090851, -0.26924410462379456, 0.07551783323287964, -0.0014387788251042366, -0.11489264667034149, -0.0278401430696249, -0.19535259902477264, -0.014548375271260738, -0.020356278866529465, -0.07749225944280624, 0.026629872620105743, -0.27077630162239075, 0.06893126666545868, -0.23102474212646484, -0.08560795336961746, -0.019564200192689896, -0.12652099132537842, -0.19090774655342102, 0.19129832088947296, -0.09210262447595596, 0.011247044429183006, 0.07771372050046921, 0.01107814908027649, -0.4152267873287201, -0.2550250291824341, 0.06053277105093002, -0.344569593667984, -0.013125837780535221, 0.04800841957330704, 0.10680368542671204, 0.12843477725982666, -0.26198530197143555, 0.14536547660827637, -0.43902868032455444, -0.12948887050151825, 0.025029506534337997, 0.03728662431240082, 0.07191198319196701, 0.31834056973457336, 0.2290136218070984, 0.007463395595550537, -0.027795372530817986, -0.050888560712337494, -0.05984560400247574, -0.12810255587100983, -0.14467063546180725, -0.2137623429298401, -0.08238691836595535, -0.04998452961444855, 0.1653427928686142, -0.14908801019191742, 0.16750188171863556, -0.04950810596346855, -0.034248095005750656, -0.1105690449476242, 0.11739395558834076, 0.24132658541202545, -0.018323862925171852, -0.00917100626975298, -0.00547038484364748, 0.07406782358884811, 0.15864568948745728, -0.1541774719953537, 0.1936291754245758, -0.08859522640705109, 0.14515334367752075, 0.1088835597038269, 0.16288085281848907, -0.17034122347831726, -0.06217717006802559, -0.06227467209100723, -0.030311722308397293, -0.18132387101650238, -0.22185681760311127, -0.21677681803703308, 0.03761371597647667, -0.1380702257156372, -0.05433515086770058, 0.029630273580551147, -0.15595649182796478, -0.011271500028669834, -0.0650002509355545, -0.34501421451568604, -0.047010213136672974, -0.031258173286914825, -0.24776215851306915, -0.23640450835227966, 0.023921387270092964, 0.040222231298685074, -0.20259985327720642, 0.14017140865325928, -0.14151467382907867, -0.19171437621116638, 0.06738300621509552, -0.05939445644617081, -0.16701988875865936, -0.0261817779392004, 0.053934819996356964, 0.05239538103342056, 0.08693992346525192, -0.014118792489171028, -0.15186871588230133, -0.23421978950500488, -0.04670391231775284, 0.03303243964910507, -0.10078305751085281, 0.19447411596775055, 0.1199021115899086, -0.17520521581172943, 0.04447745159268379, -0.20318390429019928, 0.09130273014307022, 0.25849664211273193, 0.06490501761436462, 0.08188676089048386, 0.23192858695983887, -0.29522985219955444, 0.10359203815460205, -0.2323700338602066, 0.05839648097753525, 0.15398506820201874, -0.10356160253286362, -0.03766290843486786, -0.03027496114373207, -0.13075490295886993, 0.015861686319112778, -0.11837473511695862, -0.019610021263360977, -0.00450992351397872, 0.3255521059036255, 0.03961045667529106, -0.24016691744327545, -0.012919302098453045, 0.16421669721603394, 0.2081063687801361, -0.253023236989975, 0.030484257265925407, -0.0685405284166336, 0.03894949331879616, 0.03682858124375343, -0.1744953840970993, -0.02012261562049389, 0.09554304927587509, 0.31611722707748413, 0.14111410081386566, 0.1420782208442688, -0.08818891644477844, 0.4420459270477295, 0.03418617323040962, -0.11936045438051224, -0.21711988747119904, -0.1503240317106247, 0.18556654453277588, 0.11265984177589417, -0.27881959080696106, 0.03427279368042946, 0.04262303188443184, 0.12004285305738449, 0.1003517210483551, -0.0594550184905529, -0.192414790391922, -0.06980536133050919, -0.18294991552829742, -0.04322350025177002, 0.3010583221912384, -0.0241041649132967, 0.3029007017612457, -0.05835593491792679, -0.2170492708683014, 0.09913075715303421, -0.06317242234945297, 0.11787602305412292, -0.1058550626039505, -0.07599210739135742, -0.24172142148017883, 0.007535756099969149, -0.1386650949716568, -0.037999413907527924, -0.13752900063991547, 0.09532620012760162, -0.02903234213590622, 0.12329933047294617, -0.0347437858581543, 0.2675459086894989, -0.03520634397864342, 0.14033952355384827, -0.0654209554195404, 0.1387583464384079, -0.005179609637707472, -0.010134175419807434, -0.17481960356235504, 0.1522359699010849, 0.15258818864822388, -0.24736060202121735, -0.12831750512123108, -0.16725264489650726, 0.03833707422018051, 0.051123205572366714, -0.019699206575751305, -0.3469688892364502, -0.015934238210320473, 0.3041364252567291, -0.27735644578933716, 0.34998947381973267, 0.03258293494582176, -0.14311136305332184, 0.3994137942790985, -0.08412687480449677, -0.09232579171657562, 0.2354075163602829, -0.024669097736477852, 0.029971223324537277, -0.060379695147275925, 0.06490226835012436, -0.3724042773246765, -0.001701291766948998, 0.056764427572488785, 0.09024271368980408, 0.04398021101951599, 0.1548655927181244, -0.010925558395683765, 0.08054040372371674, 0.11760829389095306, 0.302933931350708, -0.07283198833465576, 0.3612026870250702, -0.2317570000886917, -0.11124277114868164, -0.056548383086919785, -0.09470709413290024, -0.029559381306171417, 0.16979467868804932, -0.0015968900406733155, -0.13391220569610596, -0.22772125899791718, -0.1793416291475296, -0.12521502375602722, -0.010862939059734344, 0.017919788137078285, 0.0929482951760292, 0.10857270658016205, -0.22924791276454926, -0.08719394356012344, 0.00022352316591423005, -0.27736812829971313, -0.17047393321990967, -0.03348403051495552, 0.1909768134355545, 0.10673991590738297, -0.15889981389045715, -0.0007919326890259981, 0.23709721863269806, 0.07342828810214996, -0.01692540943622589, -0.03220050036907196, -0.009502187371253967, 0.047645337879657745, -0.011778426356613636, 0.010852500796318054, 0.005690319463610649, -0.07805527746677399, -0.02043277584016323, 0.13473188877105713, -0.11745590716600418, -0.08151454478502274, -0.0015816447557881474, -0.16845670342445374, -0.017262829467654228, -0.11613959819078445, 0.3761199116706848, -0.18889309465885162, -0.07375400513410568, -0.0077495453879237175, -0.15863892436027527, -0.039864275604486465, -0.16079235076904297, -0.14880888164043427, 0.11618684977293015, 0.07215987890958786, 0.038641735911369324, -0.07323728501796722, 0.008857209235429764, 0.10171568393707275, -0.21561303734779358, -0.10765886306762695, -0.18512357771396637, 0.1611514836549759, -0.3319527804851532, 0.12235032021999359, -0.24843254685401917, -0.06610630452632904, 0.2323705106973648, -0.10129812359809875, -0.14711077511310577, 0.04673919081687927, -0.08106772601604462, 0.024817628785967827, -0.1262611597776413, -0.32492998242378235, 0.22655647993087769, 0.270576536655426, 0.06693548709154129, -0.026407765224575996, -0.14268529415130615, 0.06256861984729767, 0.07848954945802689, 0.15972593426704407, 0.11381673067808151, -0.30967557430267334, -0.0185347031801939, -0.30924683809280396, -0.050311196595430374, 0.22785040736198425, -0.019757993519306183, -0.0004615290672518313, -0.036004967987537384, 0.043683916330337524, -0.1066046953201294, -0.02077353559434414, 0.004643797408789396, 0.13642020523548126, -0.018884969875216484, 0.05529841408133507, 0.06828338652849197, -0.05265672132372856, 0.24055463075637817, -0.10449739545583725, 0.04264942929148674, 0.02542227879166603, 0.36268728971481323, 0.20577363669872284, 0.1523236334323883, -0.15854454040527344, 0.22869731485843658, 0.2759534418582916, 0.08482334762811661, 0.2192355990409851, 0.020814994350075722, 0.01655425690114498, 0.026059402152895927, -0.09719275683164597, -0.30929821729660034, 0.002219147514551878, 0.0683726891875267, -0.18477395176887512, 0.1188969835639, -0.10366672277450562, -0.029611198231577873, 0.07101039588451385, 0.01187651976943016, 0.04388927295804024, -0.0730910524725914, 0.08809056878089905, -0.2692674994468689, 0.01146386843174696, -0.01532057300209999, -0.016197485849261284, 0.21306519210338593, -0.014725911431014538, -0.06886124610900879, 0.10066400468349457, -0.036010947078466415, -0.1722334921360016, 0.3172493278980255, -0.03370221331715584, 0.06748706847429276, 0.09266386926174164, 0.0028425625059753656, 0.06850803643465042, 0.06125954911112785, 0.22281824052333832, -0.22951118648052216, -0.019153721630573273, 0.08193925768136978, -0.19845052063465118, -0.04252241924405098, -0.0122785409912467, 0.24792781472206116, -0.2530796527862549, -0.15256333351135254, 0.02784612774848938, 0.037344176322221756, -0.14842207729816437, -0.1688656508922577, -0.3181820511817932, 0.14358419179916382, -0.448603093624115, -0.12564530968666077, 0.09917576611042023, -0.028354385867714882, -0.07624528557062149, 0.08526268601417542, 0.21774622797966003, -0.0015506141353398561, -0.10175587981939316, -0.11368730664253235, -0.010205927304923534, -0.015623710118234158, -0.2922610342502594, -0.2090436816215515, 0.19683365523815155, -0.05378679558634758, 0.04312495142221451, 0.1826954185962677, 0.1596936732530594, -0.21744075417518616, 0.03349999338388443, -0.13028845191001892, 0.3343566656112671, -0.01662020944058895, 0.024862226098775864, -0.08884291350841522, 0.2508091330528259, -0.07830671966075897, -0.08078791946172714, -0.26002755761146545, -0.10481629520654678, -0.024711566045880318, -0.020652038976550102, -0.08862613141536713, 0.16796377301216125, -0.19002783298492432, -0.14384731650352478, -0.2016136646270752, 0.19308775663375854, 0.11983354389667511, 0.07923697680234909, -0.3407716453075409, 0.0022930915001779795, -0.1454799473285675, -0.06732545793056488, -0.09204504638910294, 0.27957597374916077, 0.27802184224128723, -0.17787101864814758, -0.11665939539670944, -0.22371822595596313, 0.05410338193178177, 0.029937248677015305, 0.049470290541648865, -0.07983549684286118, -0.14977431297302246, 0.05015163868665695, -0.1740310937166214, 0.16706226766109467, -0.017222732305526733, -0.1919584572315216, 0.17557711899280548, 0.14235442876815796, -0.2629469335079193, -0.1547887921333313, -0.028420040383934975, -0.2765326499938965, -0.042439136654138565, 0.07409818470478058, 0.2614032030105591, 0.12120603024959564, -0.07856912910938263, -0.05793783813714981, 0.11274678260087967, 0.11400842666625977, 0.1893043965101242, -0.07238894701004028, -0.0025441497564315796, -0.14088831841945648, -0.17551468312740326, 0.20721472799777985, 0.08470720052719116, 0.00555132981389761, 0.11727443337440491, -0.3233039677143097, -0.20315954089164734, 0.06916384398937225, 0.13014274835586548, 0.027737533673644066, 0.06425405293703079, -0.2634945511817932, 0.19502083957195282, -0.24768471717834473, 0.06710433214902878, 0.10811170190572739, 0.16480369865894318, -0.09004610776901245, -0.33680689334869385, -0.06865274906158447, -0.05417020618915558, 0.06352797895669937, 0.08724827319383621, -0.19278010725975037, -0.15148326754570007, -0.0337291844189167, 0.026895610615611076, -0.051322322338819504, -0.033184584230184555, 0.022864801809191704, 0.09207029640674591, 0.18429632484912872, -0.28715941309928894, -0.25739234685897827, -0.21288350224494934, -0.01067900750786066, 0.11488997936248779, -0.02989414893090725, 0.04002992436289787, 0.15861275792121887, -0.011557708494365215, 0.15293286740779877, 0.17762582004070282, 0.0939449667930603, -0.1281602680683136, -0.2521001696586609, 0.15925216674804688, 0.23381757736206055, -0.11034119874238968, -0.03031991608440876, 0.038366395980119705, 0.2662314474582672, 0.13583694398403168, 0.16804851591587067, 0.11428064852952957, -0.05501113459467888, -0.17530561983585358, 0.22877846658229828, 0.004080742131918669, -0.08919554203748703, -0.07187129557132721, 0.13130854070186615, -0.09167846292257309, -0.2196340262889862, 0.11633315682411194, 0.2460462599992752, -0.023662857711315155, 0.2016751766204834, 0.16040626168251038, -0.28703728318214417, 0.05889416113495827, -0.10401979088783264, -0.034070901572704315, 0.04690736159682274, -0.2272033542394638, 0.15757836401462555, -0.3134113848209381, 0.0049000084400177, -0.08260538429021835, 0.27000632882118225, -0.295762300491333, 0.16844280064105988, 0.2236475646495819, -0.11783270537853241, -0.061528485268354416, -0.08754262328147888, 0.09471097588539124, 0.18060971796512604, -0.04141372814774513, 0.0700918585062027, -0.04206100478768349, 0.13460557162761688, -0.12496131658554077, -0.12496470659971237, 0.2308039516210556, -0.015254654921591282, -0.10799571126699448, -0.040558647364377975, 0.19527578353881836, 0.0471036434173584, -0.11501193046569824, 0.27588316798210144, -0.18144305050373077, -0.06102915108203888, -0.11817695945501328, 0.02083146944642067, -0.03360820561647415, -0.287032812833786, -0.020528867840766907, 0.05161937326192856, -0.29495641589164734, -0.01706131547689438, 0.208146333694458, -0.004417358431965113, -0.10122429579496384, 0.19320228695869446, -0.010297022759914398, 0.129673033952713, 0.15573924779891968, 0.17378269135951996, 0.0028131334111094475, -0.05863989517092705, -0.059268057346343994, -0.15895473957061768, -0.1242811530828476, -0.1489470899105072, -0.01340500544756651, -0.35095128417015076, -0.12843237817287445, 0.2735075056552887, 0.17858439683914185, -0.08763200789690018, -0.28608113527297974, 0.07462755590677261, -0.02215689793229103, 0.017590492963790894, -0.09107285737991333, 0.03833387792110443, 0.2185433804988861, 0.1712210774421692, 0.16158363223075867, 0.03767919912934303, -0.32048946619033813, 0.10222166031599045, -0.0032670253422111273, -0.0004766228958033025, -0.22716569900512695, -0.030652949586510658, -0.06706730276346207, -0.11863096058368683, -0.18665064871311188, 0.04750187322497368, 0.07393437623977661, -0.0312667116522789, 0.016824817284941673, 0.3830063045024872, 0.031652916222810745, -0.02477250061929226, -0.39150527119636536, -0.06176082044839859, -0.06905809044837952, 0.2319880872964859, 0.1206982433795929, -0.030750008299946785, 0.19971077144145966, -0.22744160890579224, -0.07809131592512131, -0.11118026822805405, 0.2277342975139618, -0.05155115947127342, -0.25117039680480957, 0.1807798445224762, -0.06349491328001022, 0.054376255720853806, 0.15166540443897247, 0.10686593502759933, -0.06920778006315231, -0.07863080501556396, -0.3918893039226532, -0.11109742522239685, -0.009693448431789875, 0.023247363045811653, -0.11592438817024231, -0.020543044432997704, 0.05612104758620262, 0.29681381583213806, 0.17866314947605133, -0.039299897849559784, -0.055180154740810394, 0.3556283712387085, 0.07620281726121902, -0.07170774787664413, -0.05501633137464523, -0.15803979337215424, 0.027538802474737167, -0.09465326368808746, -0.2062361240386963, 0.0656181201338768, -0.08361785113811493, 0.14871735870838165, 0.30631208419799805, 0.08280908316373825, -0.05805833637714386, 0.07014519721269608, -0.0361032634973526, -0.0737404152750969, -0.3301171362400055, -0.07285073399543762, 0.046343639492988586, 0.1425826996564865, -0.14731699228286743, -0.018465403467416763, 0.16059249639511108, -0.12490306794643402, -0.04341452941298485, -0.1850912719964981, 0.20407037436962128, -0.05699058249592781, 0.27776795625686646, -0.08973433822393417, 0.2738928496837616, -0.007098047994077206, -0.07694102823734283, 0.2220325469970703, -0.15502777695655823, -0.20609024167060852, -0.0997108668088913, 0.1277628242969513, -0.06159806624054909, 0.25031307339668274, -0.12090063840150833, 0.10287389904260635, 0.1119280755519867, -0.005011396948248148, 0.14420068264007568, 0.0910087302327156, 0.06530614197254181, -0.17725607752799988, 0.01806950755417347, -0.1641036868095398, -0.002382350619882345, -0.05099928751587868, -0.2682180404663086, 0.08913154155015945, 0.06912431865930557, -0.1986224204301834, -0.2836610674858093, 0.002519348869100213, -0.16469226777553558, -0.3305313289165497, 0.09208400547504425, -0.05738280713558197, 0.1272030919790268, -0.12453235685825348, -0.046442821621894836, -0.15266768634319305, -0.13530868291854858, -0.0011786866234615445, 0.3525015115737915, 0.10908691585063934, 0.1278325319290161, 0.11418512463569641, 0.2638690173625946, 0.1682002991437912, -0.10826072096824646, -0.14549365639686584, 0.1436631828546524, -0.17890091240406036, -0.27315157651901245, 0.041959330439567566, -0.13936536014080048, 0.06654989719390869, -0.25384676456451416, 0.2592070400714874, 0.026673365384340286, 0.06460602581501007, 0.27250656485557556, 0.11686426401138306, 0.02260194718837738, -0.027323085814714432, 0.0010202134726569057, 0.07977224886417389, 0.0399492122232914, -0.06273073703050613, 0.033010758459568024, 0.1273312270641327, 0.3187812268733978, -0.15277962386608124, 0.13101918995380402, -0.0011375301983207464, -0.08563601225614548, -0.032076310366392136, 0.12247143685817719, 0.10688208043575287, 0.15451613068580627, 0.1285829246044159, -0.1569320261478424, -0.19877272844314575, -0.2651708126068115, -0.26016169786453247, -0.21487388014793396, 0.14970842003822327, 0.23189802467823029, -0.13879205286502838, -0.05520210415124893, -0.10337591171264648, 0.08146952092647552, 0.034226443618535995, -0.07147400081157684, -0.5221763253211975, -0.044161997735500336, -0.0100669851526618, 0.023901216685771942, 0.11707136034965515, -0.07582981139421463, 0.02131432667374611, -0.08121167868375778, -0.01844710484147072, 0.13120537996292114, -0.07248686999082565, -0.052967820316553116, 0.09112729877233505, 0.2883942425251007, -0.1959010809659958, -0.09344816207885742, -0.06124206632375717, -0.07445327192544937, -0.11644874513149261, -0.12261828035116196, -0.21687473356723785, -0.12484125792980194, 0.02575494349002838, -0.34576210379600525, 0.09950653463602066, 0.03794184699654579, -0.13856038451194763, -0.14025768637657166, -0.1198890283703804, -0.20932281017303467, -0.0509926900267601, 0.03668808937072754, -0.14295926690101624, 0.020321769639849663, -0.017361745238304138, 0.03256175294518471, -0.08948789536952972, 0.1642906218767166, 0.07827198505401611, 0.05183907225728035, 0.09835752099752426, 0.04365949705243111, 0.12939071655273438, -0.260226309299469, -0.0013806569622829556, -0.061022017151117325, 0.18624809384346008, -0.14055034518241882, 0.020157895982265472, -0.047401491552591324, 0.07538001984357834, -0.06480012834072113, -0.038567569106817245, -0.011066745035350323, -0.12684887647628784, 0.008677625097334385, 0.11266139894723892, -0.23988761007785797, 0.3433364927768707, 0.10275939106941223, -0.24985170364379883, 0.41457048058509827, 0.20558513700962067, -0.08363161981105804, -0.027621237561106682, -0.0019006042275577784, 0.0028196200728416443, 0.06565790623426437, 0.21918682754039764, -0.2152843475341797, 0.00869760662317276, 0.24965843558311462, 0.4311539828777313, 0.1737269163131714, -0.047767482697963715, -0.001915180473588407, -0.019245797768235207, 0.05688862502574921, 0.08896336704492569, 0.07069247961044312, 0.11132881045341492, 0.1265881061553955, -0.15752358734607697, -0.16729791462421417, -0.17795024812221527, -0.015160080045461655, 0.03652091696858406, -0.042710572481155396, -0.16031242907047272, -0.009904672391712666, 0.1641027182340622, 0.29318907856941223, -0.15741434693336487, -0.15431518852710724, 0.12150588631629944, 0.13202637434005737, -0.037487976253032684, -0.24719513952732086, 0.054266881197690964, -0.01714453101158142, -0.12068250775337219, -0.22929805517196655, -0.13072539865970612, -0.12161367386579514, 0.07196824252605438, -0.14547576010227203, 0.20588794350624084, -0.02775622345507145, 0.1588064730167389, 0.2860319912433624, 0.05459132045507431, 0.09726761281490326, -0.11508091539144516, -0.08357949554920197, 0.04940984398126602, -0.0356297641992569, 0.19089588522911072, -0.1520056575536728, 0.016365615651011467, -0.08359957486391068, 0.01914938911795616, 0.2353106141090393, -0.2592889964580536, 0.04432591423392296, -0.28710663318634033, 0.08852331340312958, 0.21812556684017181, 0.06310216337442398, -0.03044660948216915, 0.018205225467681885, -0.08472535759210587, -0.17858289182186127, 0.23707705736160278, 0.10038096457719803, 0.12384988367557526, -0.07929123193025589, 0.12095638364553452, -0.18135948479175568, -0.028177723288536072, 0.19873908162117004, -0.11785636842250824, -0.07875373214483261, 0.23361364006996155, 0.12091639637947083, 0.0382431261241436, -0.3514200448989868, -0.0012263574171811342, 0.16912831366062164, -0.03200194984674454, 0.1796104609966278, -0.02052875980734825, 0.10128968954086304, -0.1092585027217865, 0.37782567739486694, 0.2460927516222, 0.03892824426293373, 0.0469142347574234, 0.0640011876821518, 0.06411921977996826, 0.11760811507701874, -0.1881726235151291, -0.22741490602493286, 0.11852134764194489, -0.0856032595038414, 0.11407876759767532, -0.18694503605365753, -0.18125493824481964, -0.10652926564216614, 0.14733043313026428, -0.1306520253419876, 0.07800445705652237, 0.0013416849542409182, -0.1676120012998581, 0.21912448108196259, 0.13973523676395416, 0.1935708373785019, -0.1042734831571579, -0.001092319842427969, -0.4199637174606323, 0.08140842616558075, 0.05810247361660004, 0.1855362355709076, 0.08864161372184753, -0.016595521941781044, -0.06753014773130417, -0.01898680068552494, -0.09282689541578293, 0.0173606239259243, -0.0952790379524231, -0.07565140724182129, 0.10463625937700272, -0.11763212829828262, -0.14769838750362396, 0.06425882130861282, 0.007711602840572596, -0.27645471692085266, -0.024897070601582527, -0.01745264045894146, 0.00724076246842742, -0.13640223443508148, -0.07099360972642899, -0.015201978385448456, 0.1694686859846115, -0.3445322811603546, -0.12496786564588547, 0.017277492210268974, 0.10620613396167755, 0.06409814953804016, 0.2791074812412262, -0.03550565242767334, 0.13887615501880646, 0.06957957148551941, -0.11108130216598511, 0.08809993416070938, 0.14716073870658875, 0.18290545046329498, -0.2353125512599945, -0.0963602140545845, -0.0688699260354042, -0.2055739462375641, 0.17463485896587372, -0.4134383201599121, 0.2088027149438858, 0.11078424006700516, 0.005939431022852659, 0.09134837239980698, -0.03721723333001137, -0.23036497831344604, -0.06648609042167664, 0.1276797503232956, -0.14820443093776703, -0.041328299790620804, 0.1854465901851654, 0.13665367662906647, 0.3303174376487732, 0.4060524106025696, 0.06372277438640594, -0.10279899835586548, -0.06048043072223663, -0.008855347521603107, 0.020618582144379616, 0.26844826340675354, -0.22476249933242798, -0.0938190296292305, -0.18841105699539185, 0.11952394992113113, 0.20190133154392242, -0.12307790666818619, -0.26457127928733826, -0.050234004855155945, 0.33265772461891174, -0.11118773370981216, -0.10207020491361618, -0.033569660037755966, 0.058695681393146515, -0.046268757432699203, -0.05627909675240517, 0.14778472483158112, -0.05480341985821724, 0.0715731680393219, 0.17684130370616913, 0.08329996466636658, -0.032705746591091156, 0.019266923889517784, 0.10925254225730896, 0.10305972397327423, 0.04935983940958977, -0.007471761666238308, -0.13339994847774506, 0.21560053527355194, 0.16736453771591187, 0.03358100727200508, -0.07427150756120682, 0.04025193676352501, -0.008277772925794125, -0.0355946347117424, 0.32104021310806274, 0.28357335925102234, -0.014317774213850498, -0.04467174410820007, -0.16190946102142334, -0.3380083441734314, 0.25538045167922974, 0.09613236784934998, -0.13557066023349762, -0.04215233400464058, 0.051168423146009445, 0.0546063631772995, 0.12543116509914398, -0.1295878142118454, -0.08607666939496994, 0.12655799090862274, 0.37009480595588684, 0.32221582531929016, 0.04881332069635391, -0.09161046892404556, 0.21684011816978455, -0.18256360292434692, -0.0034709826577454805, -0.11336981505155563, -0.1282954066991806, 0.021156705915927887, -0.09841328859329224, 0.2264346182346344, 0.1138179823756218, -0.2843438982963562, -0.3060106337070465, 0.0023181186988949776, 0.1728883683681488, -0.2110522836446762, 0.06295878440141678, 0.20380915701389313, 0.1396898627281189, -0.1376902461051941, -0.09214913100004196, 0.12030624598264694, -0.1276477873325348, 0.07130812853574753, -0.17470604181289673, -0.13374869525432587, -0.052696019411087036, 0.0, 0.0, 0.0, 0.0, 0.0, 0.0, 0.0, 0.0, 0.0, 0.0, 0.0, 0.0, 0.0, 0.0, 0.0, 0.0, 0.0, 0.0, 0.0, 0.0, 0.0, 0.0, 0.0, 0.0, 0.0, 0.0, 0.0, 0.0, 0.0, 0.0, 0.0, 0.0, 0.0, 0.0, 0.0, 0.0, 0.0, 0.0, 0.0, 0.0, 0.0, 0.0, 0.0, 0.0, 0.0, 0.0, 0.0, 0.0, -0.10218638181686401, 0.13767732679843903, 0.18172457814216614, -0.18436874449253082, 0.14692965149879456, 0.06509433686733246, 0.19524750113487244, -0.11645619571208954, 0.0829877033829689, -0.02276904694736004, -0.17646080255508423, 0.24176546931266785, -0.1723170131444931, -0.18049094080924988, 0.08366319537162781, -0.08220867067575455, -0.16217105090618134, -0.11483854800462723, 0.129862442612648, 0.36037206649780273, 0.32081812620162964, 0.26562297344207764, -0.023227158933877945, -0.415056973695755, -0.11325865238904953, -0.3091275990009308, -0.08446330577135086, -0.028252486139535904, 0.15519562363624573, -0.21801549196243286, -0.10259442776441574, 0.08581456542015076, 0.22104407846927643, 0.15303528308868408, -0.101670041680336, 0.04763223975896835, -0.017909565940499306, 0.22568602859973907, -0.0031296773813664913, 0.0352104976773262, -0.2707996070384979, -0.06820018589496613, 0.025221358984708786, 0.21429914236068726, 0.024671737104654312, -0.28558555245399475, 0.05370897799730301, -0.3176543712615967, -0.03516983613371849, 0.04566621407866478, 0.1669362187385559, 0.17504781484603882, 0.08432932198047638, 0.07199788838624954, -0.19461484253406525, 0.08446547389030457, 0.25725626945495605, 0.42111971974372864, 0.08189602941274643, 0.38083234429359436, -0.0059465328231453896, 0.03882059082388878, -0.04372905567288399, -0.05634881183505058, -0.24887751042842865, -0.04636390879750252, 0.06101913005113602, -0.010624615475535393, -0.28874439001083374, -0.24258197844028473, 0.23390166461467743, -0.002567681483924389, -0.10467234253883362, 0.08259537816047668, 0.03342420607805252, -0.009904068894684315, -0.16496872901916504, 0.033969536423683167, -0.29707494378089905, 0.06283111125230789, -0.010397909209132195, 0.25306740403175354, 0.10075104236602783, 0.003623534692451358, -0.18322576582431793, 0.04650576785206795, -0.4009203314781189, 0.12221338599920273, -0.0814775750041008, -0.10964784026145935, 0.14401617646217346, -0.0037756452802568674, -0.2054932415485382, 0.04631146043539047, -0.3799649477005005, 0.07989006489515305, 0.28372859954833984, -0.263947069644928, 0.19437816739082336, -0.0010867458768188953, 0.3048553168773651, -0.21170014142990112, 0.2504734396934509, 0.34928634762763977, 0.10456527769565582, -0.24571487307548523, -0.17330224812030792, 0.4328058063983917, -0.005104805342853069, 0.15717226266860962, 0.006603855174034834, 0.301471084356308, 0.18954086303710938, 0.0487150177359581, 0.2959855794906616, -0.23356889188289642, -0.3028222918510437, -0.10337795317173004, -0.1413123905658722, 0.06453589349985123, -0.12095770984888077, 0.1508065015077591, -0.04176373779773712, -0.21695654094219208, -0.1974424123764038, -0.35841163992881775, 0.015915678814053535, -0.10109133273363113, -0.09468600898981094, -0.07762365788221359, 0.35561782121658325, 0.05050378665328026, 0.007986420765519142, -0.24414879083633423, -0.14286382496356964, -0.003988401498645544, -0.06672127544879913, -0.09117572009563446, -0.162247434258461, 0.09256385266780853, 0.19075603783130646, -0.045568518340587616, 0.04265903681516647, -0.05486544966697693, -0.1766371876001358, -0.25287091732025146, 0.10820327699184418, 0.01526124868541956, 0.13199831545352936, 0.0773155614733696, 0.05040912702679634, -0.3092650771141052, 0.15440474450588226, 0.1497585028409958, -0.18591096997261047, -0.04641662910580635, -0.09735745936632156, -0.1541772484779358, -0.1830025464296341, 0.028152121230959892, 0.017051707953214645, -0.04924379289150238, -0.08596526831388474, -0.18797053396701813, -0.24970316886901855, -0.3085083067417145, 0.6380022764205933, 0.1178182065486908, 0.1668100357055664, -0.21036118268966675, -0.0038591641932725906, -0.12905552983283997, 0.009479970671236515, -0.12851130962371826, 0.4046260416507721, 0.1849159300327301, -0.04689783975481987, 0.04599923640489578, -0.1710335910320282, -0.0018565356731414795, 0.26416313648223877, 0.13914179801940918, 0.07886577397584915, -0.0799085795879364, -0.03796062618494034, 0.032316967844963074, -0.1794964224100113, 0.24796709418296814, 0.06220012903213501, 0.24020802974700928, -0.10480296611785889, -0.2747052311897278, -0.013989130035042763, -0.2025958150625229, -0.11296647042036057, -0.17785343527793884, -0.09901116043329239, 0.2158757597208023, 0.05517641827464104, 0.09232784062623978, 0.007076897192746401, 0.12105705589056015, -0.0007339480216614902, 0.03016437590122223, -0.3963126242160797, 0.1399560123682022, -0.1955360621213913, 0.16296744346618652, 0.011697756126523018, -0.11043762415647507, -0.33130863308906555, 0.08252155035734177, -0.10536082088947296, -0.3139946758747101, -0.06304902583360672, -0.23552903532981873, -0.17351467907428741, -0.22454315423965454, 0.2223505824804306, 0.12802405655384064, -0.03607193008065224, 0.10447045415639877, 0.19527527689933777, -0.07013262063264847, -0.05805595591664314, 0.16003040969371796, -0.22536231577396393, -0.2047521471977234, -0.1502692997455597, -0.2651710510253906, 0.14872124791145325, -0.037812862545251846, -0.0855281874537468, -0.25152865052223206, -0.13371461629867554, -0.07361731678247452, 0.1409708857536316, -0.26858460903167725, -0.09467191249132156, 0.0118859326466918, -0.14110592007637024, -0.12599484622478485, 0.13493603467941284, 0.29614678025245667, 0.032957110553979874, 0.2279699146747589, 0.17507298290729523, 0.267102986574173, -0.0036512247752398252, -0.2290337085723877, -0.13760919868946075, -0.05763021856546402, 0.15965577960014343, 0.10676339268684387, 0.026852276176214218, 0.011315419338643551, 0.09870312362909317, -0.28988906741142273, 0.28255680203437805, 0.20853380858898163, 0.10749814659357071, -0.14847180247306824, -0.11985734105110168, 0.26591020822525024, 0.08561741560697556, -0.15211695432662964, -0.14825314283370972, 0.3044476807117462, 0.0038087209686636925, 0.16248908638954163, 0.07070974260568619, -0.03892024978995323, -0.028039032593369484, 0.24306724965572357, 0.09916955977678299, 0.15654121339321136, 0.1388540416955948, 0.11494611948728561, 0.2665855586528778, 0.10414727032184601, 0.11117511242628098, 0.10542434453964233, 0.05496257171034813, -0.08679036051034927, -0.00857752375304699, -0.10105956345796585, 0.0727565586566925, -0.13773490488529205, -0.09357427060604095, -0.31465616822242737, -0.1552538424730301, -0.028132367879152298, -0.1200486347079277, -0.1466490775346756, -0.3181401789188385, 0.023061590269207954, -0.01974918507039547, -0.036127131432294846, -0.015640640631318092, 0.16512665152549744, -0.061594024300575256, -0.02043413184583187, -0.20204457640647888, -0.26296815276145935, 0.09742376953363419, -0.24528342485427856, -0.09392108768224716, 0.01673087105154991, 0.11721821129322052, -0.1460246741771698, -0.01714981533586979, 0.1136970967054367, 0.0018857092363759875, 0.029012145474553108, 0.01573770120739937, 0.11293131858110428, 0.4222421646118164, -0.09370998293161392, -0.3027229309082031, 0.238195538520813, 0.001038182177580893, -0.37482401728630066, 0.0964268147945404, -0.04229198023676872, 0.314090758562088, -0.47406136989593506, 0.008578759618103504, 0.16700050234794617, -0.16561666131019592, -0.15727147459983826, 0.014300156384706497, 0.08039708435535431, -0.18074214458465576, -0.10113009810447693, 0.13400708138942719, -0.04636475816369057, 0.03126262128353119, 0.1685657501220703, 0.024118391796946526, -0.07912219315767288, -0.17906905710697174, 0.03367563709616661, 0.07075780630111694, 0.02366018481552601, 0.14466436207294464, 0.20675837993621826, -0.03660256415605545, -0.17438887059688568, 0.02054956927895546, -0.016818035393953323, -0.12478841841220856, -0.09088367968797684, -0.2741054892539978, -0.11201094090938568, 0.08792221546173096, -0.0037740073166787624, 0.061853840947151184, -0.1652023196220398, 0.22299034893512726, 0.21407340466976166, 0.05330799147486687, 0.19330653548240662, -0.05548303201794624, -0.40969955921173096, -0.008137818425893784, -0.33787232637405396, 0.08298947662115097, 0.1118074506521225, 0.27260079979896545, 0.0718141421675682, 0.022791046649217606, -0.1774439811706543, -0.06960127502679825, -0.20321670174598694, 0.19645476341247559, 0.35136452317237854, -0.002662158804014325, 0.38664519786834717, -0.13176760077476501, -0.09027205407619476, 0.20736709237098694, -0.4399740695953369, 0.4425238072872162, 0.14966300129890442, 0.291531503200531, -0.2473171353340149, -0.28934887051582336, 0.1506996750831604, -0.06097806617617607, 0.1833219677209854, 0.10175985842943192, 0.14820392429828644, 0.06493493169546127, -0.044483594596385956, -0.10900276899337769, 0.20920829474925995, 0.21504227817058563, 0.14193062484264374, -0.05757445842027664, -0.08137030899524689, -0.07943203300237656, 0.2269042581319809, 0.12168890982866287, 0.34662508964538574, 0.2990696132183075, -0.3935677707195282, 0.010550638660788536, 0.22378888726234436, -0.12307408452033997, 0.14323541522026062, -0.19805286824703217, 0.030429327860474586, 0.21199917793273926, 0.014294187538325787, -0.08300177752971649, -0.05477415770292282, -0.008308487012982368, 0.12653934955596924, -0.08108074963092804, -0.25094103813171387, 0.031111886724829674, 0.2874981164932251, -0.015731174498796463, -0.134463369846344, 0.06979303061962128, 0.019240837544202805, 0.05898939073085785, 0.20016494393348694, -0.23750609159469604, 0.0039865016005933285, -0.10258525609970093, -0.14630286395549774, 0.19839836657047272, -0.09294801205396652, -0.025609152391552925, 0.05474782735109329, -0.00020561339624691755, -0.2711509168148041, 0.024477709084749222, 0.046539708971977234, -0.02706259675323963, 0.010033894330263138, -0.11281994730234146, 0.1353256106376648, -0.15655438601970673, 0.20055857300758362, 0.0040085650980472565, 0.3826139271259308, -0.35726049542427063, 0.2258550524711609, -0.10595255345106125, -0.057086873799562454, 0.14213432371616364, 0.08209850639104843, 0.29136717319488525, 0.08778411149978638, 0.3420504927635193, -0.005779831670224667, 0.05129004642367363, 0.3126603066921234, -0.06788536161184311, 0.07722775638103485, -0.1785169392824173, -0.03697245940566063, -0.27920985221862793, -0.027284352108836174, -0.362650603055954, 0.343001127243042, -0.20042482018470764, -0.17852799594402313, 0.14739321172237396, 0.05179030820727348, 0.06987418234348297, 0.3319554924964905, 0.14087072014808655, -0.027943065389990807, 0.04197295010089874, -0.1572263091802597, 0.09966177493333817, 0.1423993557691574, 0.02654603123664856, -0.3289281725883484, 0.06401479989290237, -0.05100974068045616, 0.1710394322872162, 0.09287550300359726, -0.25613638758659363, 0.002063400112092495, 0.2711106538772583, -0.03594522178173065, -0.10021818429231644, 0.08574042469263077, 0.4640520215034485, -0.10989230126142502, 0.04727613553404808, -0.18847759068012238, -0.002200544811785221, -0.1811562329530716, 0.006846112664788961, -0.0009461562149226665, 0.25249844789505005, 0.30419379472732544, 0.21016694605350494, 0.10732179880142212, 0.3173925280570984, -0.013947132043540478, 0.14541703462600708, 0.12071298807859421, -0.2615225911140442, -0.05082980915904045, -0.34759053587913513, -0.07452278584241867, 0.16209617257118225, 0.1394772231578827, -0.11827952414751053, -0.26915332674980164, -0.0220428965985775, -0.1853492110967636, 0.034467313438653946, -0.14934594929218292, 0.21344557404518127, -0.014905354008078575, -0.24036848545074463, -0.049779366701841354, -0.15188869833946228, -0.11254998296499252, 0.018641171976923943, 0.14143089950084686, -0.23822085559368134, 0.02370067872107029, -0.19512471556663513, -0.08012543618679047, 0.056211281567811966, -0.13395647704601288, -0.01006125845015049, -0.13819734752178192, 0.2807629108428955, -0.25237196683883667, 0.22568853199481964, -0.49347275495529175, -0.22495725750923157, 0.05804600939154625, 0.05731538310647011, 0.021456284448504448, 0.18504266440868378, 0.3019663691520691, -0.17314335703849792, -0.004685665480792522, 0.204288050532341, -0.12354397773742676, 