{"structure_edges": [[-1, 0, 1], [-1, 1, 1], [-1, 2, 1], [-1, 3, 1], [-1, 4, 1], [8, 12, 1], [14, 8, 1], [-1, 14, 1], [10, 13, 1], [10, 17, 1], [5, 10, 1], [-1, 5, 1]], "structure_weights": {"mu": [-3.007223517802232, -1.3906391555758806, 1.839308858174691, -3.0771916061210725, -2.941082650890837, 0.0, 0.0, -3.7877822156599175, -2.9522297387622825, -0.4796141156280224, 0.22984070471866025, -2.4049081589775607, -1.8287393028778094, -3.4270786588716082, 0.0, 0.0, -3.1204286431860107, -0.24263557176036896, -1.165846457538683, -0.8392470464314743, 3.2197175124675055, -0.28038280660619236, -1.641325867564197, 0.0, 0.0, -1.0072732301136553, -0.9134090047028944, -0.28324544695256126, -0.7012730618533183, 2.598852514462891, -0.012716932531719976, -2.998361792599382, 0.0, 0.0, 0.0643860699270205, -1.975447585209043, 1.6957306273549717, -1.2699999770725026, 1.165907888135421, 0.9484084478245179, -3.213116370637258, 0.0, 0.0, 1.0791292879961845, -3.1282045557179448, 1.7317670369326803, -0.7585756128755773, 0.9289262073247496, 1.6069951555608486, -2.066053068050671, 0.0, 0.0, 1.4043933878877852, -0.748711808139668, 0.0, 0.0, 0.0, 0.0, 0.0, 0.0, 0.0, 0.0, 0.0, 0.0, 0.0, 0.0, 0.0, 0.0, 0.0, 0.0, 0.0, 0.0, 0.9788274395840636, -0.8928617745728038, -1.009248945822394, 1.8181159904818547, -2.975110494602978, 0.0, 0.0, 1.5168451957991391, -0.4694854152305769, 0.0, 0.0, 0.0, 0.0, 0.0, 0.0, 0.0, 0.0, 0.0, -1.1979706034283133, -0.8293641515517046, 1.9215451035156743, 0.2999329460538632, -1.919343505784124, 0.0, 0.0, -1.3786776868561965, -0.9389867139604006, 0.0, 0.0, 0.0, 0.0, 0.0, 0.0, 0.0, 0.0, 0.0, -3.007223517802232, -1.626919588888062, 1.0348446591800722, -3.0771916061210725, -2.944648401239488, 0.0, 0.0, -3.7877822156599175, -2.9522297387622825, -1.1882821164533863, -0.8223383457660879, 1.2477602622610897, -2.315476934447551, -3.1427370786067015, 0.0, 0.0, -1.8027290771051119, -1.2429710832048737, -1.4313399789681645, -0.564655807139321, 1.0956911314724318, -0.19604473363228575, -1.6661823840907846, 0.0, 0.0, -2.277683596860843, -0.058380651140192114, 0.0, 0.0, 0.0, 0.0, 0.0, 0.0, 0.0, 0.0, 0.0, 0.0, 0.0, 0.0, 0.0, 0.0, 0.0, 0.0, 0.0, 0.0, -0.8560696130622861, -0.9892349710580971, 2.4197498071824004, 0.24775576928943321, -1.612623221061297, 0.0, 0.0, -1.4175155018010268, -1.4103772071949296, 0.0, 0.0, 0.0, 0.0, 0.0, 0.0, 0.0, 0.0, 0.0, 0.0, 0.0, 0.0, 0.0, 0.0, 0.0, 0.0, 0.0, 0.0], "sigma": [0.10000000899395176, 0.014024956248761837, 0.09721167119263358, 0.10000001256177311, 0.03473021240365104, 0.1, 0.1, 0.10000006278147672, 0.10000000816450726, 0.9023966422360328, 0.20240267642699394, 0.3890411283996043, 0.6167988111679993, 0.10000003271322151, 0.1, 0.1, 0.7683310084359555, 0.3639866498999843, 0.03565486356487614, 0.01840034026848458, 0.10000001982256719, 0.0194344146998118, 0.08630702750906669, 0.1, 0.1, 0.05266148292180069, 0.14813170160033137, 0.01906599073211198, 0.01030440026676398, 0.33757478850705236, 0.5786859194300243, 0.10000000925110122, 0.1, 0.1, 0.10689890944104552, 0.34684867976669986, 0.025866270635433924, 0.012206722141107877, 0.10725490880930888, 1.263421072730436, 0.1000000215406456, 0.1, 0.1, 0.8238842956624409, 0.10000001190303787, 0.014813163623044974, 0.06253865470200044, 0.08084353002053941, 0.1341119721562765, 0.03093864217644059, 0.1, 0.1, 0.29835172775433894, 0.23462371480153224, 0.1, 0.1, 0.1, 0.1, 0.1, 0.1, 0.1, 0.1, 0.1, 0.1, 0.1, 0.1, 0.1, 0.1, 0.1, 0.1, 0.1, 0.1, 0.013326633928614188, 0.011228820106055967, 0.056093811241694505, 0.5027856340995316, 0.16752217929002475, 0.1, 0.1, 0.6044207588805481, 1.0116194796663367, 0.1, 0.1, 0.1, 0.1, 0.1, 0.1, 0.1, 0.1, 0.1, 0.05924059597166832, 0.013818965282196708, 0.27653971179539377, 0.08195580489939248, 0.015270455069296173, 0.1, 0.1, 0.9282231415476736, 1.1027006163616808, 0.1, 0.1, 0.1, 0.1, 0.1, 0.1, 0.1, 0.1, 0.1, 0.10000000899395176, 0.01, 0.17813260909702341, 0.10000001256177311, 0.02103520837050238, 0.1, 0.1, 0.10000006278147672, 0.10000000816450726, 0.012534959184628382, 0.024689520722671245, 0.4245071210264592, 0.5832161714142157, 0.10000001428296734, 0.1, 0.1, 0.4753627057640268, 0.5241429335818613, 0.010199794883100265, 0.01525566579824829, 0.12600376036662914, 0.011776270955568274, 0.043655606160159545, 0.1, 0.1, 0.6198200968179706, 0.12289796403699303, 0.1, 0.1, 0.1, 0.1, 0.1, 0.1, 0.1, 0.1, 0.1, 0.1, 0.1, 0.1, 0.1, 0.1, 0.1, 0.1, 0.1, 0.1, 0.03660675782310782, 0.029197228328358357, 0.8536208497057476, 0.3093789741083119, 0.037039678243886, 0.1, 0.1, 0.18547322389702292, 0.8169487810551715, 0.1, 0.1, 0.1, 0.1, 0.1, 0.1, 0.1, 0.1, 0.1, 0.1, 0.1, 0.1, 0.1, 0.1, 0.1, 0.1, 0.1, 0.1]}, "policy_weights": [0.15473297238349915, 0.2495911717414856, 0.07059406489133835, -0.05479061231017113, 0.11703166365623474, -0.4321450889110565, 0.2334117740392685, -0.2674274742603302, 0.26946157217025757, 0.04927610233426094, 0.13652215898036957, 0.16444361209869385, -0.03222690895199776, 0.22369003295898438, -0.0671887993812561, -0.025065569207072258, 0.10921572893857956, -0.5686754584312439, -0.1726774126291275, 0.14854003489017487, 0.20759141445159912, 0.6508203744888306, -0.005815915297716856, -0.14129923284053802, 0.18403498828411102, -0.04695667698979378, 0.005732720252126455, -0.031615737825632095, 0.04170450568199158, -0.29193374514579773, -0.257100373506546, -0.22739408910274506, -0.09311472624540329, -0.1479562669992447, 0.3358766734600067, 0.16732396185398102, -0.14539049565792084, -0.1959402710199356, 0.09200478345155716, -0.04568987712264061, -1.1977348327636719, -1.0151073932647705, 0.11318027228116989, -0.03960740193724632, -0.0067845783196389675, 0.052537064999341965, -0.14701364934444427, -0.05058836564421654, 0.05172630026936531, -0.018243389204144478, -0.046596940606832504, 0.14086903631687164, 0.4767676889896393, 0.12624002993106842, 0.23796631395816803, -0.08621441572904587, 0.027796804904937744, 0.07875131815671921, 0.03763884678483009, 0.09997039288282394, 0.11033438891172409, 0.1329115778207779, 0.18250785768032074, 0.08184825628995895, 0.1552870124578476, 0.2613847553730011, -0.3283943831920624, -0.24212811887264252, 0.3649752140045166, -0.016395436599850655, 0.12156201153993607, -0.04123351350426674, 0.49584105610847473, 0.364691823720932, -0.24388481676578522, 0.09554625302553177, 0.3324170410633087, -0.674892008304596, -0.22280198335647583, 0.09349741786718369, -0.31599098443984985, -0.6480803489685059, 0.6281450986862183, -0.6593915224075317, 0.5161996483802795, -0.016649574041366577, 0.20994369685649872, 0.8985968232154846, 0.32232943177223206, 0.02722954750061035, 0.23686625063419342, -0.16556592285633087, -0.6997919678688049, -0.147798553109169, 0.07620156556367874, 0.26181790232658386, -0.5380978584289551, 0.19030655920505524, 0.016563357785344124, 0.03999495506286621, 0.24988943338394165, 0.3954715430736542, -0.2575061023235321, 1.196791410446167, 0.4266352355480194, -0.1097336933016777, 0.16059337556362152, 0.0760883018374443, -0.04466768726706505, 0.06955034285783768, 0.11002055555582047, -0.2654857337474823, 0.10448034852743149, 0.00667814165353775, -0.08565705269575119, -0.05931372940540314, 0.3441793918609619, -0.010423743166029453, -0.07658486813306808, -0.24884675443172455, -0.12589620053768158, 0.18263594806194305, -0.2068297117948532, -0.40802398324012756, -0.2664654552936554, -0.06623100489377975, -0.04201844334602356, -0.21328561007976532, -0.10666071623563766, -0.10486877709627151, 0.258896142244339, 0.09265612810850143, 0.15416254103183746, -0.14294613897800446, 0.050535280257463455, -0.6589522957801819, -0.4538274109363556, 0.21603848040103912, 0.027297290042042732, -0.22103960812091827, 0.19025973975658417, -0.12803588807582855, 0.05447617173194885, 0.260854035615921, -0.07141251116991043, -0.11457657068967819, -0.31395962834358215, 0.2466273158788681, 0.08458519726991653, -0.12592555582523346, -0.047314610332250595, -0.0033056919928640127, 0.03939956799149513, -0.2607152760028839, -0.04222804680466652, -0.2506099045276642, -0.15324603021144867, -0.14696316421031952, 0.3193066418170929, -0.13780270516872406, -0.07955445349216461, -0.568726122379303, -0.22327496111392975, -0.31789371371269226, -0.14858350157737732, 0.005813171621412039, 0.2612766921520233, 0.18006382882595062, 0.05916786193847656, 0.21516458690166473, -0.26654431223869324, -0.010487087070941925, -0.1044473722577095, 0.1272328943014145, 0.7548561692237854, -0.6003313064575195, 0.02643354795873165, -0.10734856873750687, -0.9287146925926208, -0.22881849110126495, 0.03709119185805321, 0.21017058193683624, -0.05569267272949219, 0.5524416565895081, -0.212899848818779, -0.15246258676052094, -0.7742490172386169, -0.3878278434276581, 0.04756048321723938, -0.09635328501462936, -0.0034007837530225515, 0.13949322700500488, -0.022246526554226875, -0.06934935599565506, -0.08394234627485275, -0.016065718606114388, -0.06419669836759567, 0.010960876941680908, 0.22272087633609772, -0.18070845305919647, -0.07252461463212967, 0.022634921595454216, 0.1869370937347412, -0.23038364946842194, -0.22276067733764648, 0.07027799636125565, 1.4434081315994263, 0.1570214182138443, 0.11470364779233932, 0.09508494287729263, 0.16487349569797516, 0.2349228709936142, 0.03653448447585106, -0.1801781803369522, -0.22643440961837769, 0.11266406625509262, 0.23337316513061523, 0.14295576512813568, 0.2728038430213928, 0.6526436805725098, -0.04247606173157692, -0.04706067219376564, -0.05336807295680046, -0.0726444274187088, -0.2143838256597519, 0.011691302061080933, 0.21549512445926666, 0.20745159685611725, -0.3054661452770233, -0.05856340751051903, 0.2624149024486542, 0.35695722699165344, 0.06505925208330154, 0.08376067131757736, -0.2504025399684906, -0.005427755881100893, -0.07916117459535599, -0.012112974189221859, -0.8794289231300354, -0.0881691575050354, 0.2976178526878357, 0.3192686438560486, -0.0024933309759944677, -1.6901932954788208, -0.14256583154201508, 0.6362445950508118, 0.5023698806762695, -0.1976817101240158, 0.34169483184814453, -0.05162690207362175, -0.4068983495235443, -0.07267235964536667, -0.18872763216495514, 0.41015276312828064, 0.6403484344482422, 0.005858051124960184, -0.2761988937854767, 0.11336425691843033, 0.13302923738956451, -0.056457702070474625, 0.07007681578397751, -0.19534103572368622, -1.062735676765442, -0.20883090794086456, 0.046092573553323746, -0.27820852398872375, -1.740989089012146, -0.18055881559848785, -0.07471524924039841, 0.3092905879020691, -0.35190436244010925, -0.3960423171520233, -0.27564576268196106, 0.02833142690360546, 0.2741665542125702, 0.07156336307525635, 0.1227182075381279, -0.050593554973602295, 0.2818920910358429, -0.03836316242814064, -0.1643294095993042, 0.18523479998111725, -0.06289869546890259, 0.1640930026769638, -0.19530199468135834, 0.14634667336940765, 0.07987307757139206, 0.09329143911600113, -0.1405639499425888, -0.7750383019447327, -0.12454267591238022, -0.04232350364327431, -0.0706782415509224, -0.12390898913145065, -0.12215947359800339, 0.038255032151937485, -0.18883691728115082, 0.09690356999635696, -0.029370347037911415, 0.03473121300339699, 0.17850469052791595, -0.2018156796693802, -0.026525845751166344, 0.007861210964620113, -0.33545777201652527, -0.03508710488677025, -0.33448371291160583, 0.0466596819460392, -0.3798236548900604, 0.18351055681705475, 0.08023131638765335, -0.12176214903593063, -0.19765876233577728, -0.18027140200138092, 0.00745644373819232, 0.02485203556716442, 0.2011270672082901, -0.2580297291278839, -0.37473270297050476, -0.3039951026439667, -0.018393738195300102, 0.5145564675331116, 0.4447951018810272, 0.36231276392936707, -0.21370695531368256, -0.44213059544563293, 0.2546561062335968, -0.2740473747253418, 0.08915466070175171, -0.11712216585874557, -0.6309056282043457, 0.6208795309066772, -0.5857101678848267, 0.30246618390083313, -0.2821986973285675, 0.06958837062120438, 0.5487603545188904, -0.5334816575050354, 0.43090787529945374, -0.10811031609773636, 0.03894691914319992, 0.178242489695549, 0.18204833567142487, -0.025988131761550903, -0.08183838427066803, -0.9366143345832825, 0.13650871813297272, -0.017147479578852654, -0.08001744002103806, -1.27579665184021, -0.0832735225558281, -0.09921639412641525, -0.3305356502532959, -0.3918294906616211, 0.12815497815608978, 0.08076006919145584, 0.10681167989969254, -0.04194197431206703, 0.21035759150981903, 0.17266248166561127, -0.18114160001277924, -0.0644567683339119, 0.09099935740232468, 0.22550199925899506, 0.10005827993154526, 0.07609624415636063, 0.04960266128182411, 0.2768259346485138, -0.28156229853630066, 0.0015667564002797008, 0.1509181261062622, 0.050887029618024826, 0.46603378653526306, 0.458078533411026, 0.03626811131834984, 0.2103673666715622, 0.2294776290655136, -0.02936372347176075, 0.03510091081261635, -0.18137969076633453, -0.1336439549922943, -0.32558348774909973, -0.22640039026737213, 0.2169388085603714, 0.37391141057014465, -0.3205520808696747, -0.05745607987046242, 0.194815531373024, 0.1950729340314865, -9.928223880706355e-05, -0.10397513955831528, -0.01919056475162506, -0.0029266250785440207, -0.11072660237550735, 0.09241003543138504, 0.027326462790369987, 0.18175087869167328, -0.0016125330002978444, 0.10015853494405746, 0.1732538938522339, -0.3240959346294403, -0.3515286147594452, -0.06686568260192871, 0.21029043197631836, 0.3592846095561981, 0.3817692697048187, -0.08215636759996414, -0.19360055029392242, -0.47952377796173096, -0.08249105513095856, 0.13084660470485687, 1.3006972074508667, 0.8057270050048828, -0.5375174283981323, -0.19353289902210236, -0.5693484544754028, 0.3221350610256195, -0.06206655874848366, 0.14955268800258636, 0.45863088965415955, 0.020317500457167625, -0.04809373989701271, -0.35161685943603516, 0.32195356488227844, 0.34003588557243347, 0.05053272843360901, 0.239197239279747, -0.31795018911361694, 1.4289485216140747, -0.025664595887064934, 0.1438119262456894, 0.0076774428598582745, 0.9138392806053162, 0.2776446044445038, 0.09332095831632614, 0.6189855933189392, 0.6288595795631409, -0.0015865942696109414, 0.2650115489959717, 0.2379148155450821, -0.07354586571455002, 0.22985266149044037, 0.34808894991874695, 0.20319508016109467, 0.09313159435987473, -0.08569205552339554, 0.07335590571165085, 0.25247761607170105, -0.0043377140536904335, -0.021682456135749817, -0.0255805104970932, 0.10664761811494827, 0.23085810244083405, 0.026959655806422234, 0.17209218442440033, -0.024008437991142273, 0.21633507311344147, 0.10099136084318161, 0.10380972176790237, -0.10384596139192581, -0.1815497875213623, -0.18781615793704987, -0.11642564088106155, 0.08248578011989594, -0.06610732525587082, 0.24329401552677155, -0.04900356009602547, -0.9460286498069763, -0.3230498433113098, -0.1416393369436264, -0.08829116076231003, -0.0215520728379488, -0.22358793020248413, 0.03710267320275307, 0.2250976413488388, 0.27788928151130676, -0.047798071056604385, 0.13407228887081146, -0.06896574050188065, 0.0012224690290167928, 0.12013029307126999, 0.23348547518253326, 0.07618940621614456, -0.21094615757465363, -0.6999163627624512, 0.1793280690908432, -0.07956797629594803, 0.33942726254463196, -0.39680495858192444, -0.031953539699316025, -0.7671623826026917, 0.49521124362945557, -0.5081592202186584, 0.18735311925411224, 0.3326719105243683, -0.005284660030156374, -0.10891216993331909, 0.21976898610591888, 0.5984793901443481, -0.18025518953800201, 0.04218060150742531, -0.15088210999965668, -0.32677143812179565, 0.7474746704101562, -0.06196248158812523, 0.05445806309580803, -0.41975530982017517, -0.41049399971961975, 0.12602995336055756, 0.15606357157230377, 0.22234652936458588, 0.0027504677418619394, -0.015578240156173706, -0.05419747158885002, 0.11473394185304642, -0.1458408683538437, -0.305033415555954, -0.023306505754590034, 1.3260594606399536, 0.4344373047351837, 0.06617211550474167, -0.0502428375184536, 0.16648520529270172, 0.020487742498517036, 0.016092492267489433, 0.01946253888309002, -0.06892914324998856, -0.14840412139892578, 0.1435309648513794, -0.06412922590970993, 0.17864251136779785, -0.15199612081050873, -0.234069362282753, -0.05957484245300293, -0.19156251847743988, 0.34909799695014954, 0.011833594180643559, 0.03522071614861488, -1.2452716827392578, 0.0046970355324447155, -0.009182578884065151, -0.12643979489803314, 0.0026636868715286255, 0.029622646048665047, 0.08052908629179001, 0.01475286390632391, -0.18474926054477692, 0.13091933727264404, 0.10994423180818558, 0.017564283683896065, 0.7336783409118652, 0.3885435163974762, 0.15332721173763275, 0.009173550643026829, -0.07054757326841354, 0.4395027458667755, 0.220562145113945, -0.10462144762277603, 0.09805261343717575, 0.27568933367729187, 0.08552146703004837, -0.1330474466085434, 0.26140502095222473, -0.10877279192209244, 0.07996679097414017, -0.11318136006593704, 0.36400559544563293, -0.09514851123094559, 0.03771478310227394, -0.001146709662862122, 1.1315219402313232, 0.21969960629940033, 0.17114676535129547, -0.15633343160152435, 0.01568308286368847, -0.037260886281728745, 0.20273089408874512, 0.35938146710395813, 0.8977480530738831, 0.3020767569541931, -0.19659604132175446, 0.5215964913368225, 0.7109079360961914, 0.06882620602846146, -0.13894952833652496, 0.6238449811935425, 1.2257081270217896, -0.22835586965084076, -0.1235668733716011, 0.4503364861011505, -0.11942926049232483, 0.08230745047330856, 0.06998539716005325, -0.382399320602417, 0.4713107645511627, 0.13627874851226807, -0.23754024505615234, 0.9154453873634338, 0.022395165637135506, 0.15733693540096283, 0.28823140263557434, 0.9324998259544373, 0.46409401297569275, 0.06402653455734253, 0.14149333536624908, 0.06356006115674973, -0.024961421266198158, -0.1351703405380249, -0.3805560767650604, -0.3292944133281708, -0.15085791051387787, -0.05011022463440895, 0.1950889676809311, 0.3448760211467743, -0.06276179850101471, 0.08659929782152176, 0.03814918175339699, -0.08893179148435593, -0.17412029206752777, 0.03381812572479248, -0.13226701319217682, -0.6188362240791321, 0.2382039874792099, -0.4754190146923065, -0.015173659659922123, -0.12971748411655426, -0.1319439560174942, 0.009240888990461826, -0.1475733369588852, -0.0982847586274147, -0.19684971868991852, 0.1291869729757309, -0.1527784913778305, -0.07749468088150024, 0.464104026556015, -0.020791618153452873, 0.16231252253055573, -0.04547915980219841, -0.17754937708377838, 0.11810564249753952, 0.12522996962070465, 0.18241502344608307, 0.2799284756183624, -0.2661099135875702, 0.2158832550048828, -0.03346293792128563, -0.0830320194363594, 0.010629014112055302, 0.19245873391628265, 0.31972524523735046, 0.47127100825309753, -0.20616953074932098, 0.14108465611934662, 0.49822747707366943, 0.25351688265800476, -0.09611190110445023, -0.19143344461917877, 0.6458010077476501, -0.5250131487846375, 0.05409115180373192, -0.5476035475730896, 0.058028001338243484, -0.313367635011673, -0.3039593994617462, 0.6140636801719666, -0.18834589421749115, 0.2931017577648163, 0.004762902855873108, -0.31730177998542786, 0.005629550199955702, 0.07828354090452194, -0.04805829003453255, -0.44084784388542175, 0.11181211471557617, 0.11373329907655716, -0.01909654028713703, -0.6322124600410461, -1.1127663850784302, 0.035037484019994736, -0.2563926875591278, -0.6598110198974609, -0.5076017379760742, 0.29708409309387207, -0.03811630234122276, 0.4242224395275116, 0.477787047624588, 0.15798616409301758, 0.08419566601514816, -0.3150217831134796, 0.19760702550411224, 0.03561744466423988, -0.00028794960235245526, -0.1955322027206421, 0.10033424943685532, 0.06619632989168167, -0.10799054056406021, 0.1441207081079483, 0.025261549279093742, -0.09524110704660416, 0.2758646309375763, 0.1627168506383896, -0.14652015268802643, 0.1448996216058731, 0.17900441586971283, -0.11762288212776184, -0.072440505027771, 0.2919743061065674, 0.10081344842910767, -0.12808682024478912, -0.04268478974699974, 0.033361729234457016, -0.10429791361093521, 0.0997786894440651, 0.015070409514009953, -0.19837333261966705, -0.1415395736694336, 1.169397234916687, 0.6628752946853638, -0.11204051226377487, -0.35977932810783386, 0.10212961584329605, 0.37141749262809753, 0.22986195981502533, 0.20844747126102448, 0.29351022839546204, -0.09317756444215775, -0.2746749222278595, 0.0363522432744503, -0.11816882342100143, 0.02742278389632702, -0.04176798835396767, -0.2644810378551483, -0.21369768679141998, -0.041537851095199585, 0.07091201096773148, 0.11298739165067673, 0.4256024658679962, 0.5608147978782654, -0.05147087946534157, -0.2765083611011505, -0.06620310992002487, -0.41985955834388733, 1.6358834505081177, 0.22418831288814545, 0.11683046072721481, -0.15080298483371735, 0.11397982388734818, -1.1087827682495117, 0.5557340979576111, 0.17739880084991455, -0.28377774357795715, 0.9098263382911682, 0.5614834427833557, 0.19947130978107452, 0.053520139306783676, -1.1095808744430542, -0.3320745825767517, -0.00740077393129468, -0.19009892642498016, 0.8273653984069824, -0.29866793751716614, -0.08291404694318771, 0.13641129434108734, -0.549103319644928, -1.055466890335083, -0.037663307040929794, -0.18349696695804596, -0.30267900228500366, -0.06895597279071808, -0.20611245930194855, 0.1383356899023056, -0.044859230518341064, -0.08377797156572342, -0.006771994289010763, 0.16718076169490814, 0.21549201011657715, -0.22990848124027252, -0.07981991022825241, -0.0505034364759922, -0.18603871762752533, -0.1057143583893776, 0.08983320742845535, -0.053905192762613297, -0.007901191711425781, -0.014913813211023808, 0.16805805265903473, -0.17154453694820404, 0.2593061625957489, -0.827003002166748, 0.01061975210905075, 0.126349076628685, 0.17352844774723053, 0.16444386541843414, -0.4343789517879486, -0.03763323649764061, -0.1471882164478302, -0.10587619990110397, 0.024253202602267265, -0.07888299226760864, 0.7069882750511169, 0.6473679542541504, 0.12363279610872269, -0.02512550540268421, -0.36779192090034485, -0.09510945528745651, -0.061271075159311295, -0.037391547113657, -0.006642935331910849, 0.1588216871023178, -0.21523945033550262, 0.37690046429634094, -0.12259948998689651, 0.007598147261887789, 0.10579275339841843, -0.03383525833487511, -0.2462441772222519, 0.1676940768957138, 0.13509501516819, 0.26173093914985657, -0.4218616783618927, -0.7790704369544983, 0.015427018515765667, -0.32265061140060425, 0.6810327172279358, -0.05615740641951561, 0.325113981962204, -0.9008416533470154, -0.01010645180940628, 0.046393755823373795, -0.1097937747836113, 0.5496205687522888, -0.5653713941574097, -0.0040552872233092785, 0.05952918156981468, -0.16458867490291595, -0.8185440897941589, 0.008782864548265934, -0.10730079561471939, 0.1562826931476593, 1.3451651334762573, 0.1557079404592514, 0.0628390982747078, 0.03200361505150795, -0.7277522683143616, -0.33686113357543945, -0.21690557897090912, -0.026545891538262367, -0.244314506649971, 0.10529924184083939, -0.19671164453029633, 0.4450336694717407, -0.7280979752540588, -0.05612504854798317, 0.1590418666601181, 0.19286657869815826, -0.2181197851896286, -0.09764289110898972, -0.0955120250582695, 0.3003540337085724, 0.23677469789981842, -0.06267856806516647, 0.023267926648259163, 0.14338718354701996, -0.07691214233636856, -0.1063305214047432, -0.033372912555933, -0.033348921686410904, -0.03563318029046059, 0.3226015269756317, 0.175544872879982, -0.06581003963947296, 0.3937685489654541, -0.23762011528015137, 0.2451908439397812, 0.10255814343690872, 0.025549115613102913, 0.11329054832458496, 0.24041913449764252, 0.26264140009880066, 0.14677567780017853, -0.19358156621456146, 0.12883569300174713, 0.060107871890068054, 0.27352407574653625, -0.11349797993898392, 0.1264972686767578, -0.001251283916644752, -0.34839144349098206, -0.03364739194512367, 0.14273501932621002, -0.09716009348630905, 0.09616284817457199, -0.2608060836791992, 0.05391120910644531, 0.1826266199350357, 0.14443041384220123, 0.14147616922855377, -0.14572153985500336, 0.37105655670166016, -0.28812164068222046, -0.10528314858675003, -0.00441577285528183, 0.03930477052927017, -0.05700148642063141, 0.07037800550460815, 0.1257857233285904, -0.017931370064616203, 0.38369324803352356, -0.366910845041275, 0.0724366158246994, 0.3315563201904297, 0.08346455544233322, 1.2114574909210205, -1.046841025352478, -0.01505719218403101, 0.13997137546539307, -0.029863862320780754, 0.014923032373189926, -1.0052450895309448, 0.10459423810243607, 0.09058653563261032, 0.8641510605812073, 0.5037041902542114, -0.044041845947504044, 0.16738665103912354, 0.15348362922668457, 0.4249124526977539, -0.10020803660154343, -0.3072710335254669, -0.929448127746582, -1.2243274450302124, -0.04222649335861206, 0.2786274254322052, 0.2731521725654602, -0.617914080619812, -0.13072799146175385, -0.34677746891975403, 0.03237676993012428, 0.1314624398946762, 0.06377183645963669, 0.127435103058815, 0.04285735264420509, -0.36065050959587097, 0.1641232818365097, 0.2233293205499649, -0.10635291785001755, 0.31939154863357544, -0.16343067586421967, -0.12463580816984177, 0.08045846223831177, -0.06927324086427689, -0.08922768384218216, 0.18235446512699127, -0.26859113574028015, -0.21710984408855438, 0.09315336495637894, -0.007974735461175442, 0.23494671285152435, -0.06521344929933548, -0.05690860375761986, 0.0209017526358366, 0.16951417922973633, -0.018039679154753685, -0.16447259485721588, -0.06195240840315819, -0.10511338710784912, -0.889121949672699, -0.14746902883052826, -0.19071261584758759, -0.07118319720029831, 0.1802528351545334, -0.05959761515259743, -0.08642905205488205, 0.025886932387948036, -0.13571667671203613, 0.006517879199236631, -0.19150064885616302, 0.25467729568481445, 0.02229573018848896, 0.14483918249607086, 0.09165335446596146, 0.31000280380249023, 0.14379455149173737, -0.03772145137190819, 0.14312101900577545, -0.24833732843399048, -0.14795279502868652, 0.5134523510932922, 0.07014668732881546, 0.21782566606998444, -0.18222640454769135, 0.3341521918773651, -0.9035046100616455, -0.10048035532236099, -0.3188140392303467, 0.30707573890686035, -0.13517354428768158, -0.8725115656852722, -0.1318213939666748, 0.10668302327394485, 0.22547674179077148, -0.4038955271244049, -0.2457427829504013, -0.08170021325349808, -0.8063973784446716, -0.9838387370109558, -0.11181104928255081, 0.0249182116240263, -0.2999928295612335, 0.1415342092514038, -0.14278900623321533, -0.07710528373718262, 0.06375061720609665, -0.22168447077274323, -0.24112509191036224, 0.12723730504512787, 0.03732996806502342, -0.45255419611930847, -0.033368971198797226, 0.08660078793764114, 0.12146557122468948, -0.09566956013441086, -0.24035261571407318, 0.14597390592098236, -0.3582141101360321, 0.0164941418915987, 0.30370402336120605, -0.1125112846493721, 0.083150215446949, -0.17487023770809174, 0.06519531458616257, -0.2021312564611435, -0.04160153493285179, -0.11842118948698044, 0.23622964322566986, -0.16383887827396393, -0.06411135196685791, 0.6454342007637024, -0.18858669698238373, 0.14481137692928314, -0.08520769327878952, 0.1242220476269722, -0.2116757184267044, 0.1556989997625351, -0.10912812501192093, 0.18018509447574615, -0.11609149724245071, -0.12605883181095123, 0.4808550179004669, -0.5740300416946411, -0.08151049166917801, -0.10363293439149857, 0.10725029557943344, 0.008162266574800014, -0.021070227026939392, 0.02822667546570301, 0.044217076152563095, 0.04488256201148033, 0.013010711409151554, -0.2500722110271454, 0.04204496368765831, 0.06339448690414429, 0.11671983450651169, -0.05613667145371437, -0.05475148558616638, -0.2859320342540741, 0.4835706055164337, 0.2754530608654022, -0.5052052140235901, -0.11992979049682617, 0.13385877013206482, -0.010444254614412785, 0.3601740896701813, -0.3890126645565033, -0.24602673947811127, -0.5074704885482788, -0.3148665130138397, -0.7169250845909119, -0.2720399498939514, -0.03307259455323219, -0.4918893575668335, -0.23267413675785065, -0.09402727335691452, 0.9427540898323059, 0.5499443411827087, -0.07142394036054611, -0.04464564099907875, 0.4960675537586212, 0.4892943799495697, -0.06548827141523361, 0.2136591225862503, -0.24574287235736847, -0.7294821739196777, -0.13991869986057281, -0.022871574386954308, 0.11509250849485397, -0.5634080171585083, 0.16462041437625885, 0.09358710795640945, 1.2404156923294067, 0.7161622047424316, -0.02889403887093067, 0.0014787724940106273, 0.2434074729681015, 0.04835948348045349, 0.28294870257377625, -0.05892736092209816, -0.1541290432214737, 0.09118818491697311, 0.29503509402275085, 0.008461922407150269, -0.019847555086016655, -0.14940598607063293, -0.28994011878967285, -0.03194814547896385, 0.03761053457856178, -0.23990394175052643, -0.28429773449897766, 0.10682288557291031, -0.5672984719276428, 0.08114410936832428, 0.09494650363922119, -0.07403338700532913, 0.07644247263669968, 0.30597665905952454, -0.004056599456816912, -0.0020923016127198935, 0.083048515021801, -0.026996014639735222, 0.01875542290508747, 0.28852578997612, -0.9953177571296692, -0.4838823974132538, 0.14836429059505463, 0.20932911336421967, -0.030642837285995483, 0.24722816050052643, -0.10826253145933151, -0.07166092842817307, -0.008089973591268063, 0.02339938096702099, 0.15468858182430267, 0.052084047347307205, -0.1256721168756485, 0.2698693573474884, -0.01672847755253315, -0.08570879697799683, 0.024978576228022575, -0.0961495116353035, -0.09639645367860794, 0.07194710522890091, -0.2548016607761383, 0.7492508292198181, 0.03786996379494667, 0.32698705792427063, 0.14864765107631683, 0.003496259218081832, 0.6515496969223022, -0.6335362792015076, 0.12606856226921082, 0.26235219836235046, 0.09119010716676712, 0.14129318296909332, 0.21120931208133698, 0.02194557897746563, -0.20608504116535187, 0.4615894556045532, 1.084316611289978, 0.3178066909313202, -0.1689065545797348, 0.38976240158081055, 1.150828242301941, 0.05821508541703224, 0.08831130713224411, -0.27361539006233215, 0.4211726188659668, 0.19234703481197357, 0.1339549869298935, 0.849368155002594, 1.2881052494049072, -0.015029952861368656, 0.15739668905735016, 0.008934779092669487, 0.029744954779744148, 0.0947209969162941, -0.12462746351957321, -0.04548148438334465, -0.3123171627521515, -0.06533683091402054, -0.1703401803970337, -0.03875953331589699, -0.04479166492819786, -0.015185014344751835, 0.3056061565876007, -0.007619641255587339, -0.09799762815237045, -0.07573914527893066, -0.23805569112300873, 0.05308469012379646, -0.1648530811071396, 0.19316594302654266, -0.06789994984865189, 0.04175272956490517, -0.100277841091156, -0.0036189297679811716, 0.04286288842558861, 0.051729027181863785, -0.03123709373176098, 0.07654673606157303, -0.03346922621130943, 0.2152710109949112, 0.3733290731906891, -0.19843833148479462, 0.2491312175989151, 0.4843916594982147, 1.5077342987060547, -0.08018975704908371, 0.07941056042909622, -0.15378209948539734, 0.08809518069028854, 0.08677047491073608, -0.08989811688661575, 0.09758675843477249, -0.06529193371534348, -0.03849918022751808, -0.26037052273750305, -0.0823788121342659, -0.035269591957330704, -0.09073961526155472, -0.052259381860494614, -0.14968661963939667, -0.009783157147467136, 0.08992611616849899, -0.1861100047826767, -0.23079515993595123, 0.44815793633461, 0.4896564185619354, -0.034952472895383835, -0.3134765326976776, -0.2051675170660019, -0.010951264761388302, -0.14356373250484467, 0.12072611600160599, -0.019037140533328056, -0.3740959167480469, -0.5898569822311401, 0.19970636069774628, -0.022274436429142952, -0.08570564538240433, 0.6274889707565308, 0.5362123847007751, -0.32723185420036316, -0.03215065971016884, 0.0811968520283699, -0.46700000762939453, 0.08698952943086624, 0.004869971890002489, -0.5847532153129578, -0.945956289768219, 0.02346096932888031, -0.021358342841267586, 0.9265212416648865, 0.8719685673713684, -0.07890277355909348, 0.014107913710176945, 0.9001616835594177, 0.2886180281639099, 0.10197383165359497, 0.0047706919722259045, 0.06639391928911209, -0.10461608320474625, -0.03672737255692482, -0.15444506704807281, -0.00801171362400055, -0.13622701168060303, 0.04739212989807129, 0.10740243643522263, -0.1111903265118599, -0.20067809522151947, 0.06292713433504105, 0.004377205390483141, 0.1626863330602646, 0.3168330490589142, 0.06114005669951439, -0.19208241999149323, -0.15484288334846497, -1.1922184228897095, 0.1897737830877304, 0.31257864832878113, -0.035456184297800064, 0.30979588627815247, -0.06320583075284958, -0.1048184260725975, -0.14122435450553894, -0.03466540202498436, 0.011077329516410828, -0.11641370505094528, -0.2620846629142761, 0.7412324547767639, 0.04814304783940315, 0.28733113408088684, 0.23318839073181152, -0.1643761396408081, 0.2283024936914444, -0.009661129675805569, 0.0357915423810482, -0.4803790748119354, 0.0505048930644989, -0.04089587554335594, -0.03352046385407448, 0.016712414100766182, 0.013390784151852131, 0.022581757977604866, -0.06772696226835251, -0.09698771685361862, -0.370528906583786, 0.0291863102465868, 0.39208558201789856, -0.021224217489361763, 0.37371811270713806, 0.1873084306716919, -0.2601527273654938, 0.2700520157814026, 0.4313078224658966, -0.1050945520401001, -0.47350838780403137, -0.4211733341217041, 0.5788997411727905, 0.14582785964012146, 0.1506660282611847, -0.23146606981754303, 0.1814667135477066, 0.8486197590827942, 1.776834487915039, 0.1647181510925293, 0.13497136533260345, 0.7726597189903259, 0.21154601871967316, 0.11968397349119186, -0.2571111023426056, -0.3401084840297699, 0.1800982803106308, -0.08270973712205887, -0.11890613287687302, -0.25375300645828247, -0.9414281249046326, -0.13594995439052582, -0.07072227448225021, -0.6525102853775024, -1.2056714296340942, -0.09147869795560837, -0.21111257374286652, -0.22631238400936127, -0.20336802303791046, -0.06608104705810547, -0.24856065213680267, 0.20738078653812408, 0.091506727039814, -0.1669539213180542, -0.028752684593200684, 0.3203728497028351, 0.06556496769189835, 0.10840297490358353, -0.12014185637235641, -0.11113714426755905, -0.016392705962061882, -0.036822203546762466, 0.09522408246994019, -0.03407907113432884, 0.19000588357448578, 0.12486337870359421, 0.0399654246866703, 0.004913363605737686, -0.13031648099422455, -0.06342453509569168, 0.020061908289790154, -0.15742693841457367, -0.13974666595458984, 0.08019662648439407, -0.3819936215877533, -0.9234960079193115, -0.32121971249580383, -0.16299618780612946, 0.053031329065561295, 0.18022869527339935, 0.2326355129480362, 0.006317751947790384, 0.18132521212100983, 0.0731399729847908, -0.06509386748075485, 0.12711001932621002, -0.24048639833927155, -0.1888756901025772, 0.05006925389170647, -0.12039507180452347, -0.40145400166511536, -0.004256967920809984, -0.12766078114509583, -0.19557201862335205, 0.11920248717069626, -0.1218428909778595, 0.6172915697097778, 0.5318872332572937, -0.3440510928630829, -0.03849712759256363, -0.3817720413208008, 0.5245050191879272, -0.0009406655444763601, -0.44614407420158386, 0.5476762056350708, 0.48504436016082764, -0.3641340434551239, 0.176308736205101, 0.15682385861873627, 0.1264120191335678, 0.8710820078849792, 1.5392026901245117, -0.020167097449302673, 0.15758360922336578, -0.6817817091941833, -0.5290645956993103, -0.20048044621944427, 0.06325960159301758, 0.44577881693840027, 0.5484148263931274, 0.11239659041166306, -0.12113594263792038, 0.15617188811302185, 0.32491472363471985, 0.1481635421514511, 0.26787468791007996, -0.17849551141262054, -0.44403693079948425, -0.07040023803710938, -0.14511728286743164, -0.02890688367187977, 0.37555602192878723, -0.08704537153244019, 0.2047685831785202, -0.00985082145780325, 0.10897492617368698, -0.11321068555116653, -0.029947159811854362, -0.07496903836727142, -0.22103583812713623, 0.10782631486654282, 0.20881588757038116, 0.02948966808617115, -0.18762481212615967, 0.13596008718013763, 0.15103425085544586, 0.19911976158618927, -0.7392845153808594, 0.0824354812502861, 0.08048743009567261, -0.08495194464921951, 0.039360884577035904, 0.07208406180143356, -0.2376096397638321, 0.020828096196055412, 0.4365710914134979, -0.14768053591251373, -0.20678694546222687, -0.03380561247467995, -0.13372720777988434, -0.1422254890203476, 0.21763227880001068, 0.12290009111166, 0.19295264780521393, -0.16148100793361664, -0.16273917257785797, -0.12936972081661224, 0.1448611170053482, 0.16573141515254974, 0.07130628824234009, 0.28144505620002747, -0.10300711542367935, 0.08484489470720291, 0.232132688164711, 0.0032990972977131605, -0.20011211931705475, -0.10689298063516617, -0.02113005705177784, 0.27018260955810547, 0.710689127445221, 0.09481388330459595, -0.5138120055198669, 0.23672747611999512, -0.5408979058265686, -0.028220169246196747, -0.05619126185774803, 0.6477538347244263, -0.38278618454933167, 1.0185977220535278, -0.26964446902275085, -0.05118552967905998, 0.17344380915164948, -0.006311170291155577, 0.37093400955200195, -0.18928073346614838, 0.05813998356461525, 0.10647808760404587, 0.11344217509031296, 0.9303798079490662, 0.1149303987622261, 0.015706343576312065, -0.6477614641189575, 0.21729476749897003, 0.205073282122612, -0.07645928114652634, 0.8409554362297058, -0.27491310238838196, 0.17041943967342377, -0.05804896727204323, -2.019432544708252, -1.5368503332138062, -0.10221308469772339, 0.06930715590715408, -0.0023888873402029276, 0.07134293764829636, -0.141265407204628, 0.05276612564921379, -0.08802355080842972, -0.033112380653619766, -0.10156751424074173, 0.18000756204128265, 0.09818591922521591, -0.002443022560328245, -0.21283458173274994, 0.24539829790592194, -0.022722946479916573, 0.19426526129245758, -0.08612335473299026, -0.18142403662204742, 0.5275207161903381, -0.44399070739746094, -0.21326111257076263, -0.11141383647918701, -0.13938723504543304, 0.18077696859836578, -0.047960519790649414, 0.1722651571035385, 0.0009557996527291834, 0.024525346234440804, 0.13694678246974945, -0.11219047755002975, 0.5902076363563538, 0.1217244490981102, -0.008213394321501255, -0.01694786362349987, -0.0813874676823616, 0.2326972633600235, 0.23351193964481354, -0.2773303687572479, -0.048160966485738754, 0.09024060517549515, 0.11775053292512894, -0.047755539417266846, -0.03402319177985191, 0.40412428975105286, 0.1333741992712021, 0.013747180812060833, -0.09161406010389328, -0.36812901496887207, -0.009911292232573032, -0.11610209196805954, -0.36046501994132996, -0.6477685570716858, -0.6599675416946411, 0.22332851588726044, -0.07522837817668915, -0.2807435095310211, 0.7267537713050842, 0.5002021193504333, -0.5246818661689758, 0.060769613832235336, -0.059710148721933365, -0.08164583891630173, -0.7437172532081604, 0.11661506444215775, -0.08788900822401047, -0.2655147910118103, 0.5999943017959595, 0.109681136906147, 0.26827049255371094, -0.4062066376209259, -1.0373609066009521, -0.1597364991903305, 0.10729242116212845, -0.18213604390621185, -0.6622301340103149, 0.1273033767938614, 0.04034346714615822, -0.5830923318862915, -0.9364149570465088, 0.11008656769990921, -0.06781137734651566, -0.3745681941509247, 0.09534025192260742, -0.2085769921541214, -0.05160674452781677, 0.16730214655399323, -0.11197818070650101, -0.04963177815079689, -0.11683475226163864, 0.0603136382997036, -0.09654133766889572, -0.024749377742409706, 0.13266505300998688, 0.119993656873703, -0.057925205677747726, -0.1575261503458023, 0.024897025898098946, -0.17086030542850494, -0.2824728786945343, -0.028620688244700432, -0.3141529858112335, -0.003556984243914485, -0.4484480321407318, 0.015065132640302181, 0.035541120916604996, -0.07574284821748734, -0.35139891505241394, -0.08131145685911179, -0.10308276861906052, 0.03781244903802872, 0.08486277610063553, 0.2512628734111786, 0.0283143799751997, -0.12289511412382126, -0.49842357635498047, -0.019452229142189026, 0.06290490180253983, 0.008334564045071602, -0.20299847424030304, 0.28113844990730286, 0.054474908858537674, -0.004151806700974703, -0.1372060775756836, 0.12883637845516205, -0.07973771542310715, 0.018757881596684456, -0.40472713112831116, 0.13287556171417236, -0.04356297478079796, 0.04566599801182747, -0.08870471268892288, 0.295986145734787, -0.15472042560577393, -0.12037099152803421, -0.6359225511550903, -0.3813696801662445, 0.6441982388496399, -0.29309242963790894, -0.2348945289850235, 0.5273680090904236, 0.21235941350460052, 0.5473068952560425, -0.5058935284614563, 0.5613697171211243, -0.6125431656837463, 0.2113090306520462, 0.10313843935728073, 0.0031359384302049875, 0.10071364790201187, 0.30329182744026184, 0.05769967660307884, 0.17943237721920013, -0.458644837141037, -0.11847461014986038, -0.05749845877289772, 0.19939637184143066, 0.852759063243866, 0.29376623034477234, -0.2771334946155548, -0.013048048131167889, -0.4183650314807892, -0.5097132921218872, 0.031218471005558968, -0.1839265674352646, -0.8699232935905457, 0.6899929642677307, -0.05697685852646828, -0.07618267089128494, 0.09346569329500198, 0.10838437080383301, 0.12450004369020462, -0.27661657333374023, -0.20686571300029755, -0.19386149942874908, 0.02782428078353405, 0.10209125280380249, 0.09748540073633194, -0.08090319484472275, 0.08643979579210281, 0.013095260597765446, -0.0981469675898552, 0.2518344223499298, -0.07640106230974197, 0.17706643044948578, -0.4094514548778534, 0.4815850257873535, 0.03140261396765709, 0.36297228932380676, -0.06720752269029617, 0.05026918277144432, -0.041033294051885605, 0.31999513506889343, -0.14759059250354767, 0.051088351756334305, 0.13724733889102936, -0.12803684175014496, 0.54180908203125, 0.5566347241401672, -0.25509074330329895, -0.002067271387204528, -0.2700830399990082, -0.34550121426582336, -0.09199029952287674, 0.09836510568857193, -0.06725121289491653, 0.22983692586421967, 0.22119452059268951, -0.22325803339481354, 0.11933005601167679, 0.14492608606815338, -0.05509122088551521, 0.13063132762908936, -0.2516527771949768, 0.25518569350242615, 0.15324760973453522, -0.25470447540283203, -0.3924822509288788, 0.35006192326545715, -0.35274627804756165, 0.5106473565101624, -0.46501919627189636, 0.3890319764614105, 0.7559500336647034, -1.5061770677566528, -0.6897496581077576, -0.07384626567363739, 0.2731638252735138, -0.49979302287101746, 0.03936168551445007, -0.3074705898761749, 0.02155696041882038, 0.3002035915851593, 0.49191662669181824, -0.0008160826400853693, -5.577609044848941e-05, 0.09478171914815903, 0.1823771744966507, 0.08047158271074295, -0.1483239084482193, 0.6446894407272339, -0.783391535282135, -0.12053240090608597, -0.2528825104236603, 0.5653796195983887, 1.5007621049880981, 0.2969970405101776, 0.12312566488981247, 0.20863382518291473, -0.379887193441391, 0.24996422231197357, 0.006298988591879606, 0.14215229451656342, 0.13233496248722076, 0.06691520661115646, -0.10573343187570572, -0.012034370563924313, 0.019200770184397697, 0.029305903241038322, -0.09555066376924515, 0.12368429452180862, -0.0317208394408226, 0.3183479607105255, 0.25129935145378113, -0.1001901626586914, -0.10957328230142593, -0.03305954113602638, -0.29785874485969543, 0.083771713078022, 1.2016640901565552, 0.09714757651090622, -0.17430733144283295, 0.06159055233001709, -0.014707251451909542, -0.1932493895292282, -0.08535010367631912, -0.14200326800346375, 0.03150739520788193, 0.007141649257391691, -0.024398477748036385, -0.09214646369218826, 0.15922866761684418, -0.10180675238370895, -0.38745811581611633, -0.05042398348450661, -0.11155703663825989, -0.0667872354388237, -0.14198683202266693, -0.16598832607269287, 0.12295449525117874, 0.13932381570339203, 0.05189203843474388, -0.07026899605989456, 0.16183793544769287, -0.032547712326049805, -0.10398069769144058, 0.30675193667411804, -0.0033436741214245558, 0.11742687970399857, -0.24600864946842194, -0.054306868463754654, -0.32780149579048157, 0.23060423135757446, 0.7240934371948242, -0.2970196604728699, 0.387100487947464, -0.25503358244895935, -0.41399845480918884, 0.18575625121593475, -0.669834554195404, -0.11017829179763794, -0.0558861680328846, -0.75881427526474, -0.1867430955171585, 0.02610020898282528, 0.3815796375274658, -0.607917845249176, 0.2573905289173126, 0.08602143079042435, -0.4753085672855377, -0.8932440280914307, 0.1296074539422989, 0.034386005252599716, -0.23660999536514282, -0.7540015578269958, 0.14217661321163177, -0.19202400743961334, 0.22345679998397827, 1.414859652519226, -0.30672481656074524, 0.12722466886043549, -0.1395178735256195, 0.7906331419944763, -0.050339218229055405, -0.22768355906009674, -0.19424818456172943, 0.05028865858912468, 0.1030418872833252, -0.08611441403627396, -0.13846968114376068, 0.1996908187866211, -0.2460467666387558, -0.2230825275182724, 0.015541612170636654, 0.3268568515777588, -0.2934916317462921, 0.0549975223839283, 0.00915022287517786, 0.006180696655064821, 0.21285773813724518, 0.056345704942941666, 0.5725021362304688, -0.46108803153038025, -0.15862597525119781, 0.2490568310022354, -0.25696632266044617, -0.09449458867311478, -0.0959969237446785, -0.20080779492855072, -0.047734376043081284, -0.13298094272613525, -0.03601127490401268, 0.09942556172609329, 0.40755555033683777, 0.7041225433349609, 0.15906013548374176, 0.10378611832857132, -0.06321866065263748, 0.1605718582868576, 0.007425941061228514, 0.2546646296977997, -0.1845807284116745, -0.0883001759648323, 0.13942252099514008, 0.05421934649348259, -0.0728411078453064, 0.2748963534832001, 0.008149041794240475, 0.2007051259279251, -0.05293405428528786, 0.2799667418003082, 0.20169351994991302, -0.23643730580806732, -0.06661974638700485, -0.557096540927887, 0.28114697337150574, -0.057659488171339035, 0.805636465549469, -0.37106797099113464, -1.2987072467803955, -0.6047746539115906, 0.25121957063674927, 0.17472757399082184, -0.0789807066321373, 0.30313438177108765, 0.5185909271240234, -0.025342194363474846, -0.0977054238319397, 0.0973692312836647, 0.4961337745189667, 0.13746823370456696, -0.010984650813043118, 0.14240160584449768, 0.8858887553215027, -0.20682962238788605, 0.02175903506577015, 0.3899678885936737, 0.7349715828895569, 0.12291692942380905, 0.11699844151735306, 0.7047238945960999, 0.1449129283428192, -0.0755070373415947, -0.24432183802127838, 0.42965856194496155, -0.741874635219574, 0.31974002718925476, -0.37075307965278625, 0.1745023876428604, -0.264433354139328, -0.02852335385978222, -0.03642544522881508, -0.12016285210847855, -0.07279711961746216, 0.1543792337179184, -0.11146069318056107, -0.1789470762014389, 0.13393427431583405, -0.038255687803030014, 0.046645913273096085, 0.49692580103874207, 0.08661495894193649, 0.09395574778318405, 0.19513463973999023, 0.19505701959133148, -0.3109956383705139, -0.1467452049255371, 0.012865789234638214, -0.13001859188079834, -0.31888750195503235, -0.014544784091413021, 0.0550730861723423, 0.004728621803224087, -0.1974017471075058, 0.03299066796898842, -0.07416242361068726, 0.23602883517742157, -0.27249762415885925, 0.20211507380008698, 0.016561252996325493, 0.18347914516925812, -0.07657251507043839, -0.06897241622209549, 0.09148664027452469, 0.2534591853618622, 0.1743692308664322, -0.051064472645521164, 0.07232563942670822, -0.1296454519033432, 0.22039850056171417, 0.059940215200185776, 0.051215607672929764, 0.17679642140865326, 0.22083322703838348, 0.088959701359272, -0.01839706115424633, -0.3278830647468567, -0.0679805725812912, -0.7546115517616272, 0.7830113768577576, -0.2537379860877991, -0.17603673040866852, 0.5728520154953003, -0.3947022259235382, -0.29402613639831543, -0.7741270065307617, 0.6334458589553833, 0.425274521112442, 0.7848199009895325, 0.11604667454957962, -0.020497409626841545, 0.10384749621152878, -0.39215996861457825, 0.16189073026180267, -0.060728732496500015, -0.6953586935997009, -0.9980316758155823, 0.060365255922079086, 0.07309532910585403, 0.21238748729228973, -0.04206603392958641, -0.05962419882416725, 0.20242904126644135, -0.7759094834327698, -0.15786254405975342, -0.0714031383395195, -0.0060429200530052185, -0.13444247841835022, -0.38336214423179626, -0.15398146212100983, 0.12734650075435638, 0.12389253824949265, -0.09842114895582199, -0.12829099595546722, -0.05586409941315651, -0.17383243143558502, -0.2093024104833603, -0.05772196874022484, -0.1929841786623001, 0.017716245725750923, -0.04007171466946602, -0.16992579400539398, 0.36025187373161316, 0.022364096716046333, 0.20731449127197266, -0.03272160887718201, 0.05287623032927513, 0.09333712607622147, 1.1872004270553589, -0.0025734177324920893, -0.05835294350981712, 0.0951838418841362, 0.017415329813957214, 0.16996490955352783, -0.07826858013868332, 0.15864430367946625, 0.1628226339817047, 0.15346311032772064, 0.00273868627846241, 0.02548462338745594, -0.08899176120758057, 0.05981147661805153, -0.03165695443749428, 0.23208504915237427, 0.06759273260831833, -0.13253401219844818, 0.1500084549188614, 0.19406865537166595, -0.3198218047618866, 0.06486678868532181, 0.05591273680329323, -0.13827921450138092, -0.034037765115499496, 0.16882432997226715, 0.062032993882894516, 0.3945966064929962, -0.3131656050682068, -0.18757645785808563, -0.15581916272640228, -0.7037510871887207, 0.13781222701072693, 0.12074319273233414, -0.30516380071640015, 0.40946975350379944, -0.11243236064910889, 0.6772785186767578, 0.018927380442619324, -0.5502448678016663, -0.5247209668159485, -0.7486228346824646, -0.6043639183044434, 0.5689133405685425, -0.14128778874874115, -0.18649603426456451, -0.47711893916130066, -0.756671130657196, -0.14401911199092865, 0.02787729911506176, -1.14369797706604, -0.31044310331344604, 0.05957639217376709, 0.30860045552253723, 0.5544337630271912, -0.4032878875732422, 0.1539618819952011, -0.02955382876098156, 0.4151019752025604, 0.36771997809410095, 0.027541158720850945, 0.09179950505495071, -1.3564342260360718, -0.8590249419212341, -0.07185853272676468, 0.2038336992263794, 0.30469420552253723, 0.00902723427861929, 0.17372013628482819, -0.303507536649704, 0.059923116117715836, 0.2272963672876358, -0.0552980937063694, -0.30266591906547546, -0.01899903640151024, 0.18719170987606049, 0.22853349149227142, -0.19446755945682526, -0.07830595970153809, 0.01894150860607624, -0.211746945977211, 0.04090115800499916, 0.28992706537246704, -0.8896124362945557, -0.10564565658569336, 0.1006859615445137, 0.15914689004421234, -0.23832868039608002, 0.1150582954287529, -0.09478331357240677, -0.24051278829574585, 0.057960983365774155, -0.14816488325595856, -0.1378125101327896, 0.2145106941461563, -0.013765140436589718, -0.06885332614183426, 0.16199539601802826, -0.2445211261510849, 0.24931883811950684, -0.20506452023983002, 0.002918327460065484, -0.016727624461054802, -0.06695998460054398, -0.11464334279298782, 0.14322032034397125, 0.045274440199136734, 0.09475623816251755, -0.06185179576277733, 0.11438583582639694, 0.019090956076979637, -0.17341114580631256, 0.17536641657352448, 0.07338571548461914, -0.16367970407009125, 0.5070361495018005, 0.3892407715320587, -0.5261536836624146, -0.6290684342384338, -0.3324767053127289, 0.3676624298095703, 1.262744665145874, -0.2023189216852188, -0.052289191633462906, -0.003876208094879985, 0.3358488380908966, -0.19117192924022675, 0.3534207344055176, -0.004410572815686464, -0.01646764762699604, -0.3060208261013031, 0.1313692331314087, -0.035864297300577164, 0.6145191788673401, 0.7185716032981873, -0.0949091836810112, -0.02323194034397602, 0.6935300230979919, 0.6177477240562439, 0.060528457164764404, 0.048490021377801895, -0.1466960608959198, -0.4001102149486542, 0.09543556720018387, 0.181272491812706, 1.9924448728561401, 0.09032630920410156, -0.2072969228029251, -0.06931143254041672, 0.18942640721797943, -0.07942546159029007, 0.27526190876960754, -0.1071813702583313, -0.10452250391244888, 0.30134156346321106, -0.3408930003643036, 0.024829162284731865, 0.03213474527001381, -0.013845338486135006, 0.0777217224240303, 0.018698932603001595, 0.2994851768016815, 0.07438510656356812, 0.046829015016555786, -0.1749577522277832, -0.7175354957580566, -0.21850907802581787, -0.22606490552425385, 0.09931958466768265, 0.11544584482908249, 0.1979064792394638, -0.176176056265831, 0.06203604117035866, 0.03329002484679222, -0.2720370888710022, 0.0914262905716896, 0.05561942234635353, 0.01667742244899273, 0.5811166167259216, -0.1706777811050415, -0.15819229185581207, 0.2705698609352112, 0.33388015627861023, -0.10364676266908646, 0.04208854213356972, -0.3140588104724884, -0.2900059223175049, 0.03190017119050026, -0.20793984830379486, 0.23243166506290436, -0.07984936237335205, 0.04981899634003639, -0.21159489452838898, -0.04051947593688965, -0.09438818693161011, -0.0009778597159311175, 0.0904206708073616, -0.3267379701137543, -0.12465140223503113, -0.44696280360221863, 0.9457902312278748, -0.42679402232170105, 0.11190951615571976, -0.00437398673966527, -0.7726888060569763, 0.03325345367193222, -0.41704514622688293, -0.17113111913204193, -0.33501216769218445, -0.5888242125511169, 0.1822042316198349, 0.059546176344156265, -0.18790484964847565, 0.16943800449371338, -0.2743864059448242, -0.039227332919836044, -0.5084637999534607, -0.5246051549911499, -0.028805376961827278, -0.023400859907269478, -0.4949336349964142, -0.20283819735050201, -0.0054812501184642315, 0.09386435896158218, 1.187698245048523, 0.5188494920730591, -0.13001082837581635, 0.05580270662903786, 0.4056505858898163, -0.11548710614442825, 0.13073574006557465, -0.2891424000263214, 0.0975353792309761, -0.14808522164821625, -0.027753176167607307, -0.014447973109781742, 0.028038976714015007, -0.003414951032027602, -0.23979617655277252, 0.08770234137773514, 0.23519086837768555, -0.09464161843061447, 0.363138884305954, 0.12182951718568802, -0.04923969879746437, -0.03968951478600502, -0.06769805401563644, -0.04030585289001465, -0.6814817786216736, -1.049082636833191, 0.2715098559856415, -0.08724861592054367, 0.07310527563095093, -0.1159655973315239, -0.017599431797862053, 0.006104891654103994, -0.03111405111849308, -0.0022666507866233587, -0.13465403020381927, 0.16005681455135345, -0.22005712985992432, -0.5074771642684937, 0.16787900030612946, -0.014610706828534603, 0.1906721591949463, -0.01007897313684225, 0.039756808429956436, 0.3956165313720703, -0.21191470324993134, 0.015878451988101006, -0.16291987895965576, -0.1634676605463028, 0.05708938464522362, -0.03452983871102333, 0.38314321637153625, 0.1362125724554062, 0.17228494584560394, -0.03496003523468971, -0.13489173352718353, -0.17715251445770264, -0.4502968490123749, 0.004301648121327162, -0.49208864569664, -0.06144924834370613, 0.15170028805732727, -0.19907040894031525, -0.0968400165438652, 0.24932672083377838, -0.2959325909614563, 0.9198076725006104, -0.6473590135574341, 0.44110140204429626, 0.08236216753721237, -0.321090966463089, -0.08459138125181198, -0.38921046257019043, 0.6949127316474915, -0.28482338786125183, -0.15870153903961182, 0.21472929418087006, 1.1131422519683838, 0.02185325138270855, 0.15604327619075775, 0.37496790289878845, 1.0567958354949951, 0.07622914761304855, -0.13836966454982758, -0.5685244202613831, 0.39912036061286926, 0.15058253705501556, -0.047708529978990555, -0.7430782914161682, -0.31878119707107544, -0.23332594335079193, -0.056967075914144516, 0.031224103644490242, 0.10978447645902634, -0.26172491908073425, 0.13190887868404388, 0.04916468635201454, -0.09394413977861404, -0.04352257028222084, 0.056815799325704575, -0.07493119686841965, 0.02302485890686512, 0.012257389724254608, 0.0675063207745552, 0.06344818323850632, -0.005223880987614393, -0.07280939072370529, -0.13124488294124603, -0.33209437131881714, -0.3844638764858246, 0.16895507276058197, 0.17870472371578217, -0.006253443658351898, -0.0972648337483406, -0.27416661381721497, 0.07155435532331467, 0.0915977880358696, 0.19102682173252106, -0.0166854877024889, 0.24498985707759857, 0.667329728603363, -0.20081757009029388, 0.18923401832580566, 0.11168229579925537, 0.20046019554138184, -0.11712463945150375, -0.06724714487791061, 0.2053053230047226, -0.19792483747005463, -0.07005489617586136, -0.12433945387601852, 0.07900644093751907, -0.1113588735461235, 0.04583229497075081, -0.13101862370967865, -0.09356106072664261, -0.19709943234920502, 0.4639493525028229, -0.045736316591501236, 0.02422146685421467, 0.3796561658382416, -0.1666780710220337, 0.3898496925830841, 0.013428102247416973, -0.3502037227153778, -0.31861498951911926, -0.07489068806171417, -0.43570569157600403, 1.084563136100769, 0.025965603068470955, 0.19418753683567047, 0.6390775442123413, 0.6048988103866577, -0.11995577067136765, 0.0979880690574646, -0.33195775747299194, -0.23627513647079468, -0.015624194405972958, 0.02480497770011425, -0.5353268384933472, -1.2413256168365479, -0.17499136924743652, 0.03385644778609276, -0.35211989283561707, -0.6338812112808228, -0.11468719691038132, 0.09470003843307495, 0.10988855361938477, 0.9788913130760193, 0.05412055924534798, 0.21904504299163818, -0.8367945551872253, -1.1539323329925537, 0.2668275535106659, -0.06471597403287888, 0.01723402552306652, -0.10332012921571732, -0.3403947651386261, -0.029738662764430046, 0.12904872000217438, -0.050123270601034164, 0.12420212477445602, -0.1360875517129898, -0.06638170778751373, 0.10850489884614944, 0.14412666857242584, 0.02486714906990528, -0.002117179101333022, 0.02344871498644352, 0.05938679352402687, -0.07703011482954025, -0.20678703486919403, 0.010935130529105663, 0.1434182971715927, -0.08752477914094925, -0.11834286898374557, 0.006277576554566622, -0.112411268055439, 0.27620863914489746, 0.12940439581871033, -0.3525588810443878, 0.0011074134381487966, 0.1571359783411026, 0.3231036365032196, 0.40891650319099426, -0.10574425011873245, -0.06639302521944046, -0.26677945256233215, -0.051099952310323715, 0.09160614758729935, -0.04729620739817619, 0.009719162248075008, -0.12046921998262405, 0.3386020362377167, 0.061325255781412125, 0.1930568963289261, 0.17027805745601654, 0.1260976940393448, 0.03277367725968361, -0.18335647881031036, 0.31408029794692993, -0.19297517836093903, 0.05570656433701515, 0.5857943892478943, 0.43269991874694824, 0.11229494959115982, -0.08629011362791061, 0.09721225500106812, -0.1674671620130539, 0.1022535189986229, -0.5591918230056763, 0.42676642537117004, -0.6046869158744812, 0.15072381496429443, 0.5244213342666626, -0.06556195020675659, -0.008414826355874538, 0.01949094422161579, -0.0011607169872149825, -0.8236834406852722, -0.028561534360051155, -0.16413365304470062, -0.150001659989357, -0.8723132014274597, -0.22318865358829498, 0.0040412056259810925, 0.559822142124176, -0.40584656596183777, 0.3318462371826172, -0.20611833035945892, -0.2861728370189667, 0.784919798374176, -0.14419078826904297, -0.10586420446634293, 0.20323608815670013, -0.20878541469573975, 0.07782912254333496, 0.13415789604187012, -0.2125827521085739, -0.03920566663146019, 0.12031150609254837, 0.32448574900627136, 0.11924434453248978, -0.39597687125205994, 0.01633751206099987, -0.25156140327453613, 0.10306357592344284, 0.03395726904273033, 0.1703583151102066, -0.2917520999908447, 0.0875326469540596, -0.07926244288682938, -0.1334838718175888, 0.07676232606172562, -0.8838548064231873, 0.4869828224182129, -0.26380184292793274, 0.18445409834384918, 0.14321531355381012, 0.06961769610643387, 0.26575806736946106, -0.06664907187223434, -0.024812912568449974, -0.023862896487116814, 0.037607643753290176, -0.12261103838682175, 0.3167417347431183, 0.12133456021547318, -0.32027915120124817, -0.08487243205308914, 0.044495534151792526, 0.19901518523693085, 0.18488596379756927, -0.049312178045511246, -0.04766646400094032, -0.19815661013126373, 0.03903508558869362, -0.007692232262343168, -0.016340719535946846, 0.1080833300948143, -0.06895291060209274, -0.03527342900633812, 0.11589578539133072, -0.002428266918286681, -0.016896994784474373, -0.32029247283935547, 0.6182985901832581, -1.0512341260910034, -0.702174186706543, -0.0814700648188591, 0.8416815400123596, -0.4395947754383087, -0.5904226899147034, 0.4915180206298828, 0.5779696702957153, -0.6343079209327698, 0.10075229406356812, -0.00603869603946805, -0.1395881623029709, 0.06268108636140823, -0.11237610131502151, -0.41759824752807617, -1.1090039014816284, 0.030574919655919075, -0.149435892701149, 0.15346935391426086, 0.8456535935401917, 0.09632604569196701, -0.13967512547969818, 0.29151391983032227, 0.46422484517097473, -0.13435722887516022, -0.11556924134492874, 0.5987710356712341, 0.3362162411212921, 0.17783546447753906, -0.1524585336446762, 0.37319257855415344, 0.605962336063385, -0.01335365604609251, 0.14445210993289948, -0.027175039052963257, 0.039547476917505264, 0.10333431512117386, 0.011723346076905727, -0.006532720755785704, -0.1545799970626831, -0.1198033019900322, -0.3315775692462921, -0.09190384298563004, 0.2772834002971649, -0.005396139342337847, -0.10626565665006638, 0.08379208296537399, -0.30599358677864075, -0.039960239082574844, -0.1440584808588028, 1.107620120048523, 1.2629653215408325, 0.1636195033788681, 0.2041904181241989, -0.033781345933675766, -0.11171150952577591, -0.1801731437444687, -0.07057344168424606, 0.05939419940114021, 0.22310829162597656, 0.17575620114803314, -0.05934000387787819, 0.6170965433120728, 0.3129768669605255, 0.1597336381673813, 0.21928207576274872, 0.055189866572618484, -0.17364387214183807, 0.4129897654056549, -0.21231721341609955, 0.0038970967289060354, 0.06317252665758133, 0.35020020604133606, -0.18719984591007233, -0.03131183981895447, 0.04681679233908653, 0.2987525761127472, 0.23334692418575287, 0.09318649768829346, 0.015047479420900345, -0.1349656730890274, 0.034937772899866104, -0.3148631155490875, 0.290056973695755, 0.2781176269054413, 0.27320629358291626, -0.1104683056473732, -0.7566291689872742, -0.7012767791748047, 1.1149672269821167, 0.3083685040473938, 0.36991140246391296, -0.23943322896957397, 0.05024079605937004, -0.21103723347187042, -0.3068194091320038, 0.21049506962299347, -0.35573291778564453, 0.010375352576375008, 0.04185562953352928, 0.10599458962678909, 0.023017270490527153, 1.1686209440231323, -0.1724252849817276, 0.35921189188957214, -0.4870658218860626, 0.09552688151597977, -0.3054845631122589, -0.023360474035143852, 0.299649178981781, 0.7408785223960876, 0.02684854529798031, -0.1511681228876114, 0.5215883255004883, -0.03802930563688278, 0.012976313941180706, -0.19944654405117035, -0.28571584820747375, -0.32435014843940735, 0.01975417323410511, 0.015481770969927311, -0.11130296438932419, -0.027459291741251945, -0.192236065864563, 0.007442690897732973, -0.1121610477566719, -0.09354139119386673, -0.052008990198373795, 0.28416016697883606, 0.2053402215242386, -0.12148558348417282, -0.11089729517698288, -0.2259669154882431, -0.6190823316574097, 0.4470730125904083, -0.33891913294792175, -0.09732615202665329, 0.029501857236027718, 0.09669554233551025, 0.14467070996761322, -0.08973216265439987, -0.23025749623775482, 0.2983911633491516, 0.04841988906264305, -0.1688157469034195, -0.28509023785591125, 0.09953054040670395, 0.008466250263154507, -0.16705012321472168, -0.10351467877626419, -0.06082089617848396, -0.09945923089981079, 0.061229947954416275, -0.10422145575284958, -0.13097383081912994, 0.06655561178922653, 0.05845212563872337, -0.02901109866797924, -0.08712274581193924, 0.1544027477502823, 0.2048623412847519, -0.2397153377532959, -0.40646758675575256, -0.004828530829399824, 0.25085213780403137, 0.46597257256507874, 0.40676549077033997, 0.3373425006866455, -0.4017495810985565, 0.5106338858604431, -0.4663265645503998, -0.5091686844825745, -0.44553816318511963, 0.211969256401062, -0.6926413178443909, 0.763084352016449, 0.2770790755748749, 0.9710931181907654, 0.02067088894546032, 0.06626236438751221, 0.324473112821579, -0.33934545516967773, -0.046324074268341064, -0.1346663385629654, -0.3676004409790039, -0.6536325812339783, 0.22592423856258392, -0.18718622624874115, 0.12225380539894104, 0.4444613754749298, 0.2686161994934082, 0.03045952506363392, -0.22508646547794342, -0.3629956543445587, 0.01971176452934742, -0.11921762675046921, 0.9551178812980652, 0.8392695784568787, 0.05166568234562874, 0.011599808000028133, 0.11605215817689896, 0.06067049875855446, -0.3490581214427948, -0.11813152581453323, -0.02708105742931366, 0.12974442541599274, 0.028510691598057747, 0.2612740695476532, 0.28546544909477234, -0.190765842795372, 0.0037009010557085276, 0.1986679881811142, 0.12353754788637161, -0.15110085904598236, -0.11574815958738327, 0.05205271765589714, -0.18826448917388916, -0.8058633804321289, -0.16815973818302155, -0.09531224519014359, 0.06049859896302223, 0.01678820140659809, -0.046531978994607925, 0.07089709490537643, -0.2986402213573456, -0.07428383082151413, -0.13598667085170746, 0.13122285902500153, -0.0010041974019259214, -0.3259255290031433, -0.026329606771469116, -0.17728029191493988, 0.020900273695588112, -0.16469213366508484, -0.1789322942495346, -0.23822523653507233, 0.05413496866822243, 0.025270970538258553, 0.22418354451656342, -0.13076996803283691, -0.21271349489688873, -0.0854216143488884, 0.20843075215816498, -0.06323068588972092, 0.10816467553377151, -0.104857437312603, 0.14793576300144196, -0.16471542418003082, -0.2825178802013397, 0.5670362114906311, 0.11362111568450928, -0.4305172264575958, -0.5605536103248596, -0.6879687905311584, -0.36076971888542175, -0.5920329689979553, 0.08774399012327194, 0.7118149399757385, 0.811486542224884, -0.054468076676130295, -0.5559906959533691, 0.19795013964176178, 0.1203143522143364, 0.3959779441356659, 0.7650530934333801, 0.16785861551761627, -0.17908431589603424, 0.039937492460012436, -1.5048247575759888, 0.2917322814464569, 0.27173253893852234, 0.10019051283597946, 0.23290610313415527, -0.2661013901233673, -0.1970338672399521, 0.375834196805954, 0.744021475315094, 0.08529113978147507, 0.07234657555818558, 1.2558175325393677, 0.562062680721283, 0.052517909556627274, -0.15393756330013275, -0.049851950258016586, -0.2605579197406769, -0.14335499703884125, 0.10005272179841995, 0.1871853917837143, -0.03149065002799034, 0.16428802907466888, 0.011111690662801266, -0.13101829588413239, -0.2909711003303528, -0.10618043690919876, 0.21949751675128937, -0.10674434900283813, -0.22415517270565033, -0.2894282341003418, -0.07034479826688766, 0.26890066266059875, -0.07760947197675705, 0.08066780120134354, 0.16072069108486176, -0.020895598456263542, -0.18831051886081696, 0.10787028074264526, 0.26355287432670593, -0.271269828081131, 0.05341548100113869, -0.035942886024713516, -0.05350828543305397, -0.5257286429405212, -0.5287352204322815, -0.05558019503951073, 0.1723581701517105, -0.09074025601148605, 0.4074212610721588, 0.013267098926007748, -0.23644639551639557, 0.15647315979003906, -0.12285064905881882, -0.08926694840192795, 0.1784655898809433, -0.06487738341093063, 0.009378642775118351, 0.023770084604620934, 0.06412345916032791, -0.3585538864135742, -0.043570104986429214, -0.0014387788251042366, -0.11489260941743851, 0.026670368388295174, -0.14121021330356598, 0.08150999248027802, -0.01873103156685829, -0.4617810547351837, -0.42166295647621155, -1.1164647340774536, 0.6612386703491211, -0.48591628670692444, -0.47595155239105225, 0.2205619066953659, -0.7415501475334167, -0.5617794394493103, 0.19129832088947296, -0.09210263937711716, 0.1257544606924057, 0.5195721387863159, 0.01107814908027649, -0.4152267873287201, -0.45753800868988037, 0.3995594084262848, -0.3445696532726288, -0.013125837780535221, -0.23690669238567352, -0.013916905038058758, 0.12843477725982666, -0.26198530197143555, -0.16646254062652588, -2.0962417125701904, -0.12948884069919586, 0.025029508396983147, -0.05990131199359894, 0.5102595686912537, 0.31834056973457336, 0.22901366651058197, 0.007463395595550537, -0.027795372530817986, -0.050888556987047195, -0.05984562262892723, -0.12810255587100983, -0.14467062056064606, -0.2137622982263565, -0.08238691836595535, 0.06363243609666824, 0.28732842206954956, -0.14908801019191742, 0.16750191152095795, -0.049508098512887955, -0.03424808755517006, -0.11056903749704361, 0.11739396303892136, 0.7399002909660339, 0.25589317083358765, -0.009171008132398129, -0.005470384377986193, 0.07406782358884811, 0.1586456447839737, -0.1541774421930313, 0.1936291605234146, -0.154158353805542, 0.08844637870788574, 0.1088835597038269, 0.16288088262081146, -0.41322705149650574, -0.22596623003482819, -0.062274690717458725, -0.03031173162162304, -0.23692871630191803, -0.07075606286525726, -0.21677683293819427, 0.03761371597647667, -0.1380702257156372, -0.054335158318281174, 0.029630273580551147, -0.15595649182796478, -0.011271500028669834, -0.06500024348497391, -0.34501412510871887, -0.047010213136672974, -0.14854465425014496, -0.39393743872642517, -0.2364044338464737, 0.023921387270092964, -0.2876656651496887, 0.11775350570678711, 0.3807074725627899, -0.22788406908512115, -0.7811965346336365, -0.12229298800230026, 0.0009700804366730154, -0.8875254988670349, 0.0069044907577335835, 0.20911233127117157, 0.3898232877254486, 0.023759404197335243, 0.27285000681877136, -0.15186871588230133, -0.23421978950500488, 0.1780872493982315, 0.6510266065597534, -0.10078307241201401, 0.19447411596775055, 0.14292870461940765, -0.4352000653743744, 0.04447745904326439, -0.20318390429019928, 0.1004568338394165, 0.6109179854393005, 0.06490503996610641, 0.08188676089048386, 0.8405437469482422, -0.8205779194831848, 0.10359203815460205, -0.23237012326717377, -0.10485135763883591, 0.6220987439155579, -0.10356160253286362, -0.037662919610738754, -0.03027495928108692, -0.13075493276119232, 0.015861688181757927, -0.11837471276521683, -0.019610019400715828, -0.004509922582656145, 0.3255520164966583, 0.039610449224710464, -0.22812040150165558, 0.011141740716993809, 0.16421674191951752, 0.20810635387897491, -0.2530231773853302, 0.030484257265925407, -0.06854052096605301, 0.03894949331879616, 0.4129610061645508, -0.5304928421974182, -0.02012261562049389, 0.0955430343747139, 0.3161172568798065, 0.14111410081386566, 0.14207817614078522, -0.08818889409303665, 0.43010279536247253, 0.08754048496484756, -0.11936045438051224, -0.21711991727352142, -0.377417653799057, -0.1080671176314354, 0.11265981942415237, -0.27881959080696106, 0.17098356783390045, 0.10163711756467819, 0.12004280835390091, 0.10035169869661331, -0.059455033391714096, -0.1924147754907608, -0.06980537623167038, -0.18294991552829742, -0.04322350025177002, 0.3010583221912384, -0.0241041649132967, 0.3029007613658905, -0.14527319371700287, -0.14977635443210602, 0.09913075715303421, -0.06317240744829178, 0.5271061062812805, 0.15868787467479706, -0.0053772092796862125, -0.0858427882194519, 0.09834813326597214, -0.6816200613975525, -0.23056556284427643, -0.5122018456459045, 0.46830928325653076, -0.42719653248786926, 1.0563715696334839, 0.2271401286125183, 0.38061097264289856, -0.03520634397864342, 0.14033950865268707, -0.16451916098594666, 0.6015247702598572, -0.005179609637707472, -0.010134175419807434, -0.4043674170970917, 0.08292873203754425, 0.1525881439447403, -0.2473606914281845, -0.9490435719490051, -0.2509419918060303, 0.03833707794547081, 0.051123205572366714, -0.7457889914512634, -1.7769509553909302, -0.01593424193561077, 0.3041364848613739, 0.1072378158569336, 0.8658110499382019, 0.03258293494582176, -0.14311136305332184, 0.3994137942790985, -0.08412688225507736, -0.09232579916715622, 0.23540757596492767, -0.024669097736477852, 0.02997121401131153, -0.06037968769669533, 0.06490225344896317, -0.37866687774658203, 0.18197868764400482, 0.056764427572488785, 0.09024273604154587, 0.04398021101951599, 0.15486560761928558, -0.010925560258328915, 0.08054041117429733, 0.7574784159660339, 1.7468115091323853, -0.07283198833465576, 0.3612026870250702, -0.23175694048404694, -0.11124277114868164, -0.056548360735177994, -0.09470709413290024, -0.09870264679193497, 0.12366057187318802, -0.0015968902735039592, -0.13391220569610596, -0.38726887106895447, -0.4176936447620392, -0.12521503865718842, -0.010862939059734344, -0.03989187255501747, 0.11689579486846924, 0.10857271403074265, -0.2292478233575821, -0.08719395846128464, 0.00022352322412189096, -0.27736809849739075, -0.17047393321990967, -0.03348403796553612, 0.1909768432378769, 0.10673991590738297, -0.15889979898929596, -0.040338754653930664, -0.1481689065694809, 0.07342828065156937, -0.01692540943622589, -0.050159305334091187, -0.1501685082912445, -0.23881714046001434, 0.2326842099428177, 0.3322127163410187, -0.36851993203163147, 0.4220748245716095, 0.7904271483421326, 0.4035215675830841, -0.592807412147522, -0.08299816399812698, -0.3613300025463104, -0.4959546625614166, -0.017262829467654228, -0.11613964289426804, 0.6258420348167419, -1.6075681447982788, -0.07375400513410568, -0.007749543059617281, -0.4433278739452362, -0.161360502243042, -0.16079235076904297, -0.14880885183811188, 0.29135364294052124, 0.09718398004770279, 0.03864174708724022, -0.07323729246854782, 0.13319703936576843, 0.3374950587749481, -0.21561305224895477, -0.10765886306762695, -0.1686263233423233, 0.6159437298774719, -0.3319527804851532, 0.12235032767057419, -0.24843262135982513, -0.06610631197690964, 0.23237060010433197, -0.10129810124635696, -0.14711080491542816, 0.04673919081687927, -0.08106773346662521, 0.024817628785967827, -0.2771798074245453, -0.2854324281215668, 0.22655652463436127, 0.27057650685310364, 0.06693548709154129, -0.026407768949866295, -0.14268529415130615, 0.06256861239671707, 0.30840593576431274, 0.5709170699119568, 0.11381673067808151, -0.3096756637096405, -0.0185347031801939, -0.30924680829048157, -0.05031120404601097, 0.22785042226314545, -0.027690986171364784, -0.0027877988759428263, -0.036004964262247086, 0.043683916330337524, -0.397678941488266, -0.22390173375606537, 0.004643797408789396, 0.13642023503780365, -0.15982875227928162, 0.1645187884569168, 0.06828338652849197, -0.052656713873147964, 0.2405545860528946, -0.10449739545583725, 0.04264942184090614, 0.02542227692902088, 0.3626873195171356, 0.20577360689640045, 0.1523236185312271, -0.15854454040527344, 0.029136300086975098, 0.33857688307762146, 0.0848233625292778, 0.2192356437444687, 0.1036834642291069, 0.2546156048774719, 0.350514680147171, 0.17470727860927582, -1.1780985593795776, -0.3172157108783722, -0.7504729628562927, 0.320674866437912, 0.6657000780105591, -0.5488315224647522, -0.16098453104496002, -0.09976454824209213, 0.06327600032091141, 0.043889280408620834, -0.0730910375714302, 0.3114463984966278, -0.6631516814231873, 0.01146386656910181, -0.015320570208132267, 0.13297967612743378, 1.089593768119812, -0.014725909568369389, -0.06886124610900879, 0.34529075026512146, 0.13743819296360016, -0.1722334772348404, 0.3172493278980255, -0.022436702623963356, 0.1771146059036255, 0.09266387671232224, 0.0028425625059753656, 0.45512068271636963, 0.4463748633861542, 0.22281815111637115, -0.22951124608516693, -0.019153716042637825, 0.08193927258253098, -0.19845055043697357, -0.04252242669463158, -0.0122785409912467, 0.24792788922786713, -0.2530796527862549, -0.15256333351135254, 0.02832956053316593, -0.13974550366401672, -0.14842210710048676, -0.16886566579341888, -0.3181820213794708, 0.1435842365026474, -0.4486031234264374, -0.12564529478549957, 0.20424126088619232, 0.23337262868881226, -0.07624530047178268, 0.08526266366243362, 0.21774624288082123, -0.0015506140189245343, -0.10175586491823196, -0.11368728429079056, 0.025118203833699226, 0.05609631910920143, -0.2922610938549042, -0.2090437263250351, 0.44331517815589905, -0.12412548810243607, 0.04312494769692421, 0.1826954036951065, 0.14450325071811676, -0.36568260192871094, 0.03349998965859413, -0.13028846681118011, 0.33435675501823425, -0.016620205715298653, 0.024862227961421013, -0.08884292095899582, 0.2508091628551483, -0.07830672711133957, -0.08078790456056595, -0.26002761721611023, -0.13095048069953918, 0.006147485692054033, -0.020652038976550102, -0.08862613886594772, 0.05491315945982933, -0.5417042374610901, -0.14957647025585175, -1.0340460538864136, 0.905630350112915, -0.13927234709262848, -0.23649603128433228, -0.7202958464622498, 0.2512415051460266, -0.7865128517150879, -0.3303249478340149, 0.22484499216079712, 0.42998790740966797, 0.27802184224128723, -0.1778710037469864, -0.14780522882938385, -1.1001784801483154, 0.05410337820649147, 0.02993723936378956, 0.2789096236228943, -0.5401696562767029, -0.14977431297302246, 0.05015164241194725, -0.4497337341308594, 0.5491217970848083, -0.017222732305526733, -0.1919584423303604, 0.8809979557991028, 0.8959633708000183, -0.26294687390327454, -0.15478874742984772, -0.17855186760425568, -0.8855946660041809, -0.042439136654138565, 0.07409817725419998, 0.2614031136035919, 0.12120603770017624, -0.07856912165880203, -0.0579378567636013, 0.11274682730436325, 0.11400842666625977, 0.18930436670780182, -0.07238894701004028, 0.027835674583911896, -0.2494773268699646, -0.17551468312740326, 0.20721475780010223, 0.08470720052719116, 0.005551330279558897, 0.11727441102266312, -0.3233039677143097, -1.0324479341506958, -0.5412963628768921, 0.1301427036523819, 0.027737529948353767, 0.06425405293703079, -0.2634945213794708, 0.19502083957195282, -0.24768471717834473, 0.012621135450899601, 0.16535039246082306, 0.16480372846126556, -0.09004610776901245, -1.173845648765564, -0.8827990889549255, -0.05417019501328468, 0.06352799385786057, 0.364244669675827, -0.19876252114772797, -0.15148328244686127, -0.0337291918694973, 0.026895610615611076, -0.051322322338819504, -0.033184584230184555, 0.022864801809191704, 0.09207028895616531, 0.1842963546514511, -0.28715941309928894, -0.25739237666130066, -0.049429234117269516, 0.018327444791793823, 0.11488997936248779, -0.02989414520561695, -0.14776946604251862, 0.4438166916370392, 0.1859135776758194, 0.1084371879696846, 0.12650367617607117, 0.26815328001976013, -0.6622452139854431, -0.6502655148506165, 0.18603505194187164, 0.4940071105957031, 0.024805495515465736, -0.05667608603835106, 0.12315546721220016, 0.266231507062912, 0.13583694398403168, 0.12996366620063782, 0.3661832809448242, -0.05501113459467888, -0.17530561983585358, 0.43300914764404297, 0.016905810683965683, -0.08919554203748703, -0.07187128812074661, -0.28106096386909485, -0.40964654088020325, -0.2196340411901474, 0.11633313447237015, 0.4925900995731354, 0.14907553791999817, 0.2016751766204834, 0.16040624678134918, -0.8327544331550598, 0.3076358437538147, -0.10401976853609085, -0.034070905297994614, 0.04690736159682274, -0.2272033542394638, 0.15757836401462555, -0.3134114444255829, 0.0049000084400177, -0.08260536938905716, 0.270006388425827, -0.295762300491333, 0.10527189821004868, 0.20472098886966705, -0.11783266812562943, -0.06152850016951561, -0.08754264563322067, 0.09471095353364944, 0.18060971796512604, -0.04141372814774513, 0.938718855381012, -0.27054640650749207, 0.1346055418252945, -0.12496136873960495, -0.12496470659971237, 0.2308039516210556, -0.01525466050952673, -0.10799571126699448, -0.05263826251029968, 0.05463729426264763, 0.0471036434173584, -0.11501193046569824, 0.24859969317913055, -0.25605958700180054, -0.061029139906167984, -0.11817694455385208, 0.053544338792562485, -0.09919189661741257, -0.287032812833786, -0.020528867840766907, 0.05161936953663826, -0.29495641589164734, -0.017061321064829826, 0.208146333694458, -0.004417359363287687, -0.10122429579496384, 0.19320227205753326, -0.010297022759914398, -0.045314084738492966, 0.2711403965950012, 0.17378269135951996, 0.0028131341096013784, 0.2791643440723419, 0.04438534751534462, -0.1017046794295311, -0.7294769883155823, -0.023472687229514122, -0.7239097952842712, -0.8619133830070496, 1.2243679761886597, 1.2639180421829224, 0.31480294466018677, 0.3390372097492218, -0.8420705795288086, 0.24533699452877045, -0.02215689606964588, 0.017590492963790894, -0.12462342530488968, 0.26895496249198914, 0.21854336559772491, 0.1712210327386856, 0.6787639260292053, 0.7425116896629333, -0.32048943638801575, 0.10222164541482925, -0.07689328491687775, -0.3009140193462372, -0.22716569900512695, -0.03065294213593006, -0.6146988868713379, -0.8150501251220703, -0.18665064871311188, 0.04750186577439308, 0.1555860936641693, -0.3540007770061493, 0.016824813559651375, 0.3830063045024872, 0.03165292367339134, -0.02477249689400196, -0.39150527119636536, -0.06176083907485008, -0.06905806809663773, 0.23198817670345306, 0.1206982210278511, -0.030750008299946785, 0.12746797502040863, -0.34809789061546326, -0.07809131592512131, -0.11118029803037643, 0.22773431241512299, -0.05155115947127342, -0.25117039680480957, 0.180779829621315, -0.0158169437199831, 0.2556137144565582, 0.15166543424129486, 0.10686592012643814, -0.06920778006315231, -0.07863080501556396, -0.3918893039226532, -0.11109744757413864, -0.025683507323265076, 0.04921175166964531, -0.11592436581850052, -0.020543040707707405, 0.350816935300827, 1.4635487794876099, 0.17866314947605133, -0.03929990157485008, 0.15357433259487152, 0.49225953221321106, 0.07620281726121902, -0.07170773297548294, -0.05501633509993553, -0.15803979337215424, 0.027538804337382317, -0.09465325623750687, -0.2062361240386963, 0.0656181052327156, -0.08361785858869553, 0.14871738851070404, 0.21889770030975342, 0.2550601363182068, -0.058058325201272964, 0.07014519721269608, -0.22313928604125977, -0.2159511297941208, -0.8689966797828674, 0.24714748561382294, -0.13923075795173645, 0.0901748463511467, -0.47884640097618103, -0.45807981491088867, 0.44117024540901184, -0.5507923364639282, -0.07503657042980194, 0.21094562113285065, 0.8019282221794128, -0.05699056759476662, 0.27776792645454407, -0.40133997797966003, 0.3354968726634979, -0.007098048459738493, -0.07694102078676224, 0.617759644985199, -0.7751445174217224, -0.20609022676944733, -0.0997108742594719, -0.3766191899776459, 0.16075018048286438, 0.25031307339668274, -0.12090063840150833, 0.4369039833545685, 0.4555553197860718, -0.005011397879570723, 0.14420068264007568, 0.18009363114833832, -0.32290202379226685, -0.17725609242916107, 0.01806950755417347, -0.16410373151302338, -0.002382350852712989, -0.05099928751587868, -0.2682180404663086, 0.08913154155015945, 0.06912433356046677, -0.1986224502325058, -0.2836610972881317, 0.06568719446659088, -0.21487633883953094, -0.3305313289165497, 0.09208399802446365, -0.057382818311452866, 0.1272030919790268, -0.12453234940767288, -0.04644281044602394, -0.16127203404903412, -0.47066402435302734, -0.0011786866234615445, 0.35250142216682434, 0.10908690840005875, 0.1278325319290161, 0.11418510228395462, 0.2638690173625946, 0.0806717723608017, -0.17727719247341156, -0.14549364149570465, 0.1436631828546524, -0.833423912525177, -0.7420229315757751, 0.04195934161543846, -0.1393653303384781, 0.27689340710639954, -0.4421558678150177, 0.2592070400714874, 0.026673367246985435, 0.06460601836442947, 0.2725065052509308, 0.11686421185731888, 0.02260194718837738, -0.02732308767735958, 0.0010202134726569057, 0.07977224141359329, 0.0399492122232914, -0.002174306893721223, 0.4641302525997162, 0.12733124196529388, 0.31878116726875305, 0.23515011370182037, 0.4957798719406128, 0.09220569580793381, -0.24653570353984833, 0.2522699236869812, -0.22942543029785156, 0.1045319214463234, 0.7829174995422363, 0.8993855118751526, -0.7048376202583313, -0.34398630261421204, -0.7055111527442932, -1.2930629253387451, -0.21487386524677277, 0.14970840513706207, 0.2603719234466553, -0.451424241065979, -0.05520210787653923, -0.10337591171264648, 0.5152811408042908, 0.6538366675376892, -0.07147400826215744, -0.5221763253211975, -0.39623770117759705, -0.1298912614583969, 0.02390122227370739, 0.11707138270139694, 0.06774847209453583, 0.35850563645362854, -0.08121167868375778, -0.01844710297882557, 0.01559965219348669, -0.2733735144138336, -0.05296782776713371, 0.09112728387117386, 0.2883942425251007, -0.1959010809659958, -0.09344816207885742, -0.06124204769730568, -0.07445328682661057, -0.11644875258207321, -0.12261831015348434, -0.21687476336956024, -0.1981874257326126, 0.1415138691663742, -0.3457620441913605, 0.09950653463602066, 0.03794184699654579, -0.13856039941310883, -0.14025770127773285, -0.1198890283703804, -0.41357421875, -0.545282781124115, 0.03668808937072754, -0.14295925199985504, 0.020321769639849663, -0.017361745238304138, 0.03256175294518471, -0.08948790282011032, 0.18206514418125153, 0.10513138025999069, 0.05183907225728035, 0.09835752099752426, -0.13568615913391113, 0.4298429787158966, -0.2602262794971466, -0.0013806569622829556, -0.04315607622265816, 0.20823241770267487, -0.14055036008358002, 0.02015790157020092, -0.047401491552591324, 0.07538001984357834, -0.06480013579130173, -0.038567569106817245, -0.011066743172705173, -0.12684892117977142, 0.008677625097334385, 0.11266136914491653, -0.2449464201927185, 0.4129011631011963, 0.10275936871767044, -0.24985170364379883, 0.6441234946250916, 0.6335512399673462, 0.3246496319770813, -0.14183077216148376, 0.21244604885578156, -0.09731026738882065, 0.299360066652298, 0.46113917231559753, -0.45088544487953186, -0.020809801295399666, 1.0082170963287354, 1.1465357542037964, 0.5169743895530701, -0.04776748642325401, -0.0019151809392496943, 0.44335198402404785, 0.5427679419517517, 0.08896338194608688, 0.07069247961044312, 0.6680479645729065, 0.4145335853099823, -0.15752361714839935, -0.16729794442653656, -0.5639297366142273, 0.09156161546707153, 0.03652092441916466, -0.042710572481155396, -0.15621232986450195, -0.03923681750893593, 0.1641026884317398, 0.29318907856941223, -0.38449057936668396, -0.9209286570549011, 0.12150586396455765, 0.13202641904354095, -0.03748797997832298, -0.24719522893428802, 0.05426687374711037, -0.01714453101158142, -0.1206824854016304, -0.22929809987545013, -0.13072539865970612, -0.12161362916231155, 0.07331163436174393, -0.41783571243286133, 0.20588795840740204, -0.02775622345507145, 0.1588064581155777, 0.2860319912433624, 0.05459131672978401, 0.09726762026548386, -0.446554034948349, -0.7551565766334534, 0.04940984025597572, -0.035629753023386, 0.1908959001302719, -0.1520056575536728, 0.016365615651011467, -0.08359957486391068, 0.07316885888576508, 0.3191552460193634, -0.2592889964580536, 0.04432591423392296, -0.7832871079444885, 0.039806779474020004, 0.21812556684017181, 0.06310217827558517, 0.2087104171514511, -0.15388332307338715, -0.08472537249326706, -0.17858289182186127, 0.2370770126581192, 0.10038097947835922, 0.12384987622499466, -0.07929123193025589, 0.1209564134478569, -0.18135951459407806, -0.028177736327052116, 0.19873906672000885, -0.04427986964583397, 0.3886866867542267, 0.23361371457576752, 0.12091637402772903, -0.12593717873096466, -0.8340111374855042, 0.12180408835411072, 0.45616135001182556, -0.04309698939323425, 0.15001904964447021, 0.2559399902820587, -0.08714122325181961, -0.2904525399208069, 0.5941096544265747, 1.1120232343673706, 0.08658728748559952, 0.18595241010189056, 0.06400119513273239, 0.06411921977996826, 0.24359409511089325, -0.4155583083629608, -0.22741486132144928, 0.11852134019136429, -0.21269942820072174, 0.6413598656654358, -0.18694503605365753, -0.18125496804714203, -0.4094381630420685, 0.14263416826725006, -0.13065205514431, 0.07800447195768356, 0.13660262525081635, -0.19152705371379852, 0.21912448108196259, 0.13973523676395416, 0.9052050709724426, -0.14530298113822937, -0.0010923201916739345, -0.4199638068675995, 0.08140843361616135, 0.05810248479247093, 0.1855362504720688, 0.08864163607358932, -0.016595525667071342, -0.06753014773130417, -0.01898680441081524, -0.09282689541578293, 0.05226610228419304, 0.020901383832097054, -0.07565140724182129, 0.10463627427816391, -0.11763214319944382, -0.14769838750362396, 0.06425882130861282, 0.00771160377189517, -0.8369883894920349, -0.539248526096344, -0.01745264045894146, 0.007240764331072569, -0.13640223443508148, -0.07099360972642899, -0.015201984904706478, 0.16946865618228912, -0.330486536026001, 0.0385819636285305, 0.017277492210268974, 0.10620614141225815, 0.24520070850849152, 0.8417454361915588, -0.03550565242767334, 0.13887618482112885, -0.007730287965387106, -0.14970004558563232, 0.08809994906187057, 0.14716075360774994, 0.18290545046329498, -0.23531247675418854, -0.0963602140545845, -0.0688699409365654, -0.20557396113872528, 0.17463482916355133, -0.4134383201599121, 0.2088027149438858, 0.5044026374816895, 0.37846753001213074, 0.09134837239980698, -0.03721723333001137, 0.3847754895687103, -0.2340988963842392, 0.19434501230716705, 0.06786812096834183, 0.11436630040407181, 0.42161843180656433, 0.7073559165000916, 1.1957453489303589, 0.6806363463401794, -0.10016345977783203, 0.12991830706596375, -0.4387788772583008, -0.42232728004455566, 0.020618585869669914, 0.2684483230113983, -0.3980731666088104, -0.7717590928077698, -0.18841101229190826, 0.11952399462461472, 0.2097204476594925, -0.38151344656944275, -0.2645712196826935, -0.05023401603102684, 0.6750817894935608, -0.22633475065231323, -0.10207020491361618, -0.033569660037755966, -0.16622422635555267, -0.2526807188987732, -0.05627911910414696, 0.14778472483158112, 1.2564440965652466, 1.3802584409713745, 0.17684127390384674, 0.08329998701810837, -0.032705750316381454, 0.019266920164227486, 0.10925256460905075, 0.10305973142385483, 0.04935983940958977, -0.007471762131899595, -0.13339994847774506, 0.21560050547122955, 0.21671120822429657, 0.07422967255115509, -0.07427150756120682, 0.04025193676352501, -0.008277772925794125, -0.0355946384370327, 0.32104018330574036, 0.28357335925102234, -0.8067407011985779, -0.7094536423683167, -0.16190946102142334, -0.3380083739757538, 0.25538042187690735, 0.09613239020109177, -0.13557066023349762, -0.042152341455221176, 0.11744760721921921, 0.0853731706738472, 0.12543116509914398, -0.129587784409523, -0.03074142523109913, 0.07175327837467194, 0.37009480595588684, 0.32221582531929016, 0.04062563553452492, -0.061921536922454834, 0.21684010326862335, -0.18256355822086334, -0.003470983123406768, -0.11336981505155563, -0.1282954066991806, 0.02115670032799244, -0.09841328859329224, 0.22643469274044037, 0.11381793767213821, -0.2843439280986786, -0.23239730298519135, -0.18198846280574799, 0.17288838326931, -0.21105225384235382, -0.05629928410053253, 0.21992872655391693, 0.6647117733955383, -0.5887671709060669, 0.3019683361053467, 0.3648281395435333, 0.3647310733795166, -0.1380438506603241, -0.4454847574234009, -0.1406606286764145, 0.3093864321708679, 0.06844727694988251, -0.06698379665613174, 0.36980631947517395, 0.15020738542079926, -0.009753702208399773, 0.3445030152797699, 0.04052220657467842, -0.07483396679162979, -0.1227252185344696, -0.0771791934967041, 0.21956555545330048, -0.08795928210020065, -0.1826750487089157, -0.05822724476456642, 0.18969786167144775, 0.2783922255039215, 0.10240820795297623, 0.11585637181997299, 0.03641501069068909, 0.2224433273077011, -0.274524986743927, -0.16622434556484222, 0.03949534520506859, -0.018485326319932938, -0.2725059688091278, -0.13523849844932556, 0.10115350037813187, -0.5174063444137573, 0.036853816360235214, 0.16498114168643951, 0.44855591654777527, -0.09701941162347794, 0.27144306898117065, -0.10094249993562698, 0.2586180865764618, 0.004832030739635229, 0.26576271653175354, 0.2475295215845108, 0.19127237796783447, 0.0210698414593935, -0.0658874586224556, 0.3015367388725281, 0.09766293317079544, 0.21057318150997162, 0.13674190640449524, -0.028284363448619843, 0.10869737714529037, -0.17685295641422272, 0.32788509130477905, -0.1684628576040268, 0.3157198429107666, -0.5641417503356934, 0.24460117518901825, 0.20058977603912354, 0.16863049566745758, -0.43473973870277405, 0.4292314946651459, -0.1413116604089737, -1.0215686559677124, 0.07707644999027252, -0.37380465865135193, -0.45372331142425537, 0.050571259111166, -0.7656367421150208, -0.6619277596473694, -0.751312255859375, -0.10769754648208618, 0.30679264664649963, 0.4827063977718353, 0.4879316985607147, -0.08398378640413284, -1.0398608446121216, -0.058480363339185715, -0.5091748237609863, -0.5913066267967224, -0.2566458582878113, -0.004533376079052687, -0.9442580342292786, -0.15266671776771545, 0.11692869663238525, 0.1337329000234604, 0.15843482315540314, -0.035465534776449203, 0.05840558186173439, -0.22336149215698242, 0.9442644119262695, -0.011776789091527462, 0.16886557638645172, -0.7543582916259766, -0.3627140522003174, -0.1252434402704239, 0.15118171274662018, 0.06061601638793945, -0.9601134657859802, -0.5476537942886353, -0.888077437877655, -0.39581534266471863, -0.11460626870393753, 0.44746431708335876, 0.3940829932689667, 0.3800576627254486, -0.1601998507976532, -0.8238039612770081, 0.035551127046346664, 0.6438379883766174, 0.7095241546630859, -0.10753916949033737, 0.46127045154571533, -0.0047271596267819405, 0.0006958768353797495, -0.3942551910877228, -0.4889051020145416, -0.3334216773509979, -0.33112412691116333, -0.0824287012219429, 0.04953357204794884, -0.2627425491809845, -1.0630377531051636, -0.08061335980892181, 0.031380679458379745, -0.10787247866392136, -0.14593453705310822, 0.36949726939201355, -0.3696303367614746, -0.42937055230140686, -0.14895682036876678, -1.1120470762252808, -0.2514936327934265, -0.4299640655517578, -0.03622552007436752, 0.04086878523230553, 0.5694332718849182, -0.43780186772346497, 0.5828689336776733, -1.0121859312057495, 0.24717934429645538, -0.7694432139396667, 0.06367968022823334, 0.5638436675071716, -0.15527625381946564, -0.6012643575668335, -0.24317790567874908, -0.9255666136741638, 0.37511035799980164, 0.7540350556373596, -0.8155848383903503, 0.3816473186016083, 0.22479628026485443, 0.5887126922607422, -0.5101958513259888, 0.22907131910324097, 0.19989405572414398, 0.21042315661907196, -0.6911346316337585, -0.4182286560535431, 0.5000672936439514, -0.22926448285579681, 0.04407846927642822, -0.07745800912380219, 0.4452344477176666, 0.11395955830812454, -0.22701072692871094, 0.4616709053516388, -0.23349261283874512, -1.19895339012146, -0.3230009973049164, -0.5075711011886597, 0.07440846413373947, -0.6329849362373352, 0.27632150053977966, -0.10022925585508347, -0.946343183517456, -0.5896764397621155, -0.5518812537193298, -0.3749224841594696, -0.2601671516895294, -0.2328510880470276, -0.3560177981853485, 0.5426531434059143, -0.004473008681088686, 0.30685120820999146, -0.4869495630264282, -0.1192311942577362, -0.39635977149009705, -0.5996406674385071, 0.030853746458888054, -0.3725530207157135, 0.3766491711139679, 0.6133202314376831, -0.5410335659980774, 0.27141788601875305, 0.0544535331428051, -0.06534285843372345, -0.7375783324241638, 0.6096815466880798, -0.572813093662262, -0.2813776135444641, -0.36852774024009705, -0.33817407488822937, -0.6854179501533508, 0.127231627702713, -0.20818249881267548, -0.337814062833786, -0.18804503977298737, -0.1296330988407135, -0.7216281294822693, -0.1534171998500824, -0.22700555622577667, -0.1589188426733017, -0.6386207342147827, 0.2804698348045349, -0.16607561707496643, -0.0937640592455864, -0.8754453063011169, 0.9268798232078552, -0.35828471183776855, 0.1364467293024063, -0.1546342521905899, 0.2292207032442093, -0.4073347747325897, -0.6761251091957092, -0.7572641968727112, -0.01976868323981762, 0.6460976004600525, -0.6652995347976685, -0.2543366551399231, -0.13149501383304596, 0.08033643662929535, 0.3173743188381195, 0.013164372183382511, -0.016929160803556442, -0.693324863910675, -0.28797146677970886, -0.03086189366877079, -0.40703538060188293, -0.1395031213760376, 0.3557905852794647, 0.26857349276542664, -0.233872652053833, -0.4563800096511841, 0.29410988092422485, 0.1308264583349228, -0.518984317779541, -0.22403384745121002, -0.4415683448314667, 0.31898972392082214, 0.13840331137180328, -0.07459806650876999, 0.08837289363145828, 0.14762713015079498, 0.15617582201957703, 0.26576802134513855, -0.7310935854911804, 0.474643737077713, -0.3355453312397003, 0.5033230185508728, -0.2466602474451065, -0.20731689035892487, -0.4815615117549896, 0.10754352807998657, -0.5476733446121216, -0.6911922097206116, 0.324692040681839, -0.2801559269428253, -0.7072581648826599, -0.6987980008125305, 0.037017833441495895, 0.47857698798179626, -0.2382345050573349, -0.3617823123931885, 0.5555558800697327, -0.23329569399356842, 0.0997016429901123, -0.08958917111158371, 0.18630242347717285, -0.3293546736240387, -0.1665905863046646, -0.9396765232086182, 0.2796180546283722, 0.4535277783870697, 0.006787469144910574, -0.7803497910499573, -0.2754305899143219, -0.8129978775978088, 0.5182541012763977, -0.332488089799881, -0.11842306703329086, 0.47390779852867126, -0.31892895698547363, -0.406157523393631, 0.15515615046024323, 0.16626188158988953, -0.1817983239889145, -0.011744256131350994, -0.11531556397676468, 0.29147985577583313, -0.5133703351020813, -0.7993335127830505, -0.9263264536857605, -0.43327078223228455, -0.0646163746714592, -0.2524530589580536, -0.10667549818754196, -0.40692296624183655, 0.31588608026504517, -0.7145299911499023, 0.6431660056114197, 0.08130533993244171, -0.13719499111175537, -1.0872842073440552, -0.29561954736709595, 0.008899531327188015, 0.030009737238287926, -0.6065589785575867, -0.025365082547068596, 0.7183499932289124, -0.7866215705871582, -0.6428500413894653, -0.36629948019981384, -0.0683152824640274, -0.19979111850261688, -0.3602616488933563, 0.33242443203926086, 0.05320420861244202, 0.005338944960385561, 0.4534249007701874, -0.08591353893280029, -0.5782656669616699, 0.3147893249988556, -0.19530737400054932, -0.21243475377559662, -0.3921423852443695, -0.8560038208961487, 0.2537698447704315, -0.253691166639328, -0.9080696702003479, 0.18485252559185028, -1.0945335626602173, -0.647221565246582, -0.416049987077713, -0.37604716420173645, -0.6980310082435608, -0.31852078437805176, -0.11150280386209488, 0.12569455802440643, -0.07838194817304611, -0.04138987138867378, 0.4062824547290802, -0.4415903389453888, -0.2508027255535126, -0.4628671407699585, -0.859227180480957, -0.29073837399482727, -0.5896921753883362, 0.0502018965780735, -0.16303536295890808, 0.24925543367862701, -0.41523393988609314, -0.01423625648021698, 0.19689802825450897, -0.2499825805425644, -0.0518004335463047, 0.13064636290073395, 0.6448941826820374, 0.47778698801994324, -0.5007185339927673, -0.5976763963699341, 0.44675830006599426, -0.04413013532757759, -0.5511136651039124, -0.053185224533081055, -0.2929549515247345, 0.2531139552593231, -0.8700436949729919, 0.033035602420568466, 0.11149310320615768, -0.3717038631439209, -0.40042540431022644, 0.07792950421571732, -0.24214862287044525, -0.4909305274486542, 0.3031935393810272, 0.5579952597618103, -0.16107510030269623, 0.24258925020694733, -0.12175358086824417, -0.11521565914154053, -0.5873886346817017, -0.437101811170578, 0.26267316937446594, -0.27015382051467896, -0.47100481390953064, 0.000491558515932411, -0.04743887856602669, 0.19476960599422455, 0.1571262925863266, -0.042047079652547836, -0.5230708718299866, -0.36371636390686035, -0.26111337542533875, -1.557470440864563, -0.6725788116455078, 0.32366707921028137, -0.38985177874565125, 0.038021836429834366, -0.3310719430446625, 0.6064556241035461, 0.06093233451247215, -0.0086077144369483, 0.4008960723876953, -0.1088564470410347, -0.6110610365867615, -0.2987496554851532, -0.5312332510948181, 0.15903326869010925, 0.6640439033508301, 0.39292433857917786, 0.3438126742839813, -0.1780625730752945, -0.38220643997192383, -0.28759056329727173, -0.7271876931190491, 0.5991129279136658, 0.783653199672699, -0.09665950387716293, 0.33062857389450073, -0.2660282254219055, -0.5825513601303101, 0.5971217751502991, -1.312387466430664, 0.5121755003929138, 0.41671261191368103, 0.5739675164222717, -0.6319726705551147, -0.792731761932373, 0.018657861277461052, -0.6010914444923401, 0.19037462770938873, 0.19240891933441162, 0.05210268869996071, -0.07338284701108932, -0.1867438554763794, -0.4466805160045624, 0.2943987250328064, 0.4162750244140625, -0.0573127306997776, -0.6900697350502014, -0.2985728085041046, -0.19868968427181244, 0.11720684915781021, 0.37711408734321594, 0.5650831460952759, 0.34198495745658875, -1.6764448881149292, -0.6246873736381531, 0.2900685966014862, -0.11106542497873306, -0.09222819656133652, -0.6094235777854919, 0.23371122777462006, 0.3442859351634979, -0.24221466481685638, -0.025581106543540955, -0.631705641746521, -0.0654444620013237, 0.1494656652212143, -0.03263647109270096, -0.14253945648670197, 0.04347026348114014, 0.25001734495162964, -0.4394588768482208, -0.3549058437347412, 0.26523953676223755, -0.2702729403972626, -0.9881169199943542, 0.2788383364677429, -0.4369451105594635, 0.016200585290789604, -0.5240444540977478, -0.26991912722587585, 0.28840598464012146, -0.2544960379600525, -0.08056462556123734, -0.009705441072583199, -0.20414507389068604, -0.7237086892127991, 0.08799979835748672, -0.11148574948310852, 0.13353706896305084, 0.41513535380363464, -0.49761053919792175, -0.2871564030647278, -0.028629036620259285, -0.25955015420913696, -0.004462515003979206, 0.42791685461997986, -1.1918799877166748, 0.26141029596328735, -0.7720850110054016, -0.6024397611618042, 